<?xml version="1.0"?>
<!-- DTD for the XMLBIF 0.3 format -->
<!DOCTYPE BIF [
	<!ELEMENT BIF ( NETWORK )*>
	      <!ATTLIST BIF VERSION CDATA #REQUIRED>
	<!ELEMENT NETWORK ( NAME, ( PROPERTY | VARIABLE | DEFINITION )* )>
	<!ELEMENT NAME (#PCDATA)>
	<!ELEMENT VARIABLE ( NAME, ( OUTCOME |  PROPERTY )* ) >
	      <!ATTLIST VARIABLE TYPE (nature|decision|utility) "nature">
	<!ELEMENT OUTCOME (#PCDATA)>
	<!ELEMENT DEFINITION ( FOR | GIVEN | TABLE | PROPERTY )* >
	<!ELEMENT FOR (#PCDATA)>
	<!ELEMENT GIVEN (#PCDATA)>
	<!ELEMENT TABLE (#PCDATA)>
	<!ELEMENT PROPERTY (#PCDATA)>
]>


<BIF VERSION="0.3">
<NETWORK>
<NAME>training_data</NAME>
<VARIABLE TYPE="nature">
<NAME>RPI0</NAME>
<OUTCOME>0</OUTCOME>
<OUTCOME>1</OUTCOME>
<OUTCOME>2</OUTCOME>
<OUTCOME>3</OUTCOME>
<OUTCOME>4</OUTCOME>
<OUTCOME>5</OUTCOME>
<OUTCOME>6</OUTCOME>
<OUTCOME>7</OUTCOME>
<OUTCOME>8</OUTCOME>
<OUTCOME>9</OUTCOME>
<OUTCOME>10</OUTCOME>
<OUTCOME>11</OUTCOME>
<OUTCOME>12</OUTCOME>
<OUTCOME>13</OUTCOME>
<OUTCOME>14</OUTCOME>
<OUTCOME>15</OUTCOME>
<OUTCOME>16</OUTCOME>
<OUTCOME>17</OUTCOME>
<OUTCOME>18</OUTCOME>
<OUTCOME>19</OUTCOME>
<OUTCOME>20</OUTCOME>
<OUTCOME>21</OUTCOME>
<OUTCOME>22</OUTCOME>
<OUTCOME>23</OUTCOME>
<OUTCOME>24</OUTCOME>
<OUTCOME>25</OUTCOME>
<OUTCOME>26</OUTCOME>
<OUTCOME>27</OUTCOME>
<OUTCOME>28</OUTCOME>
<OUTCOME>29</OUTCOME>
<PROPERTY>position = (60,171)</PROPERTY>
</VARIABLE>
<VARIABLE TYPE="nature">
<NAME>PYTH0</NAME>
<OUTCOME>0</OUTCOME>
<OUTCOME>1</OUTCOME>
<OUTCOME>2</OUTCOME>
<OUTCOME>3</OUTCOME>
<OUTCOME>4</OUTCOME>
<OUTCOME>5</OUTCOME>
<OUTCOME>6</OUTCOME>
<OUTCOME>7</OUTCOME>
<OUTCOME>8</OUTCOME>
<OUTCOME>9</OUTCOME>
<OUTCOME>10</OUTCOME>
<OUTCOME>11</OUTCOME>
<OUTCOME>12</OUTCOME>
<OUTCOME>13</OUTCOME>
<OUTCOME>14</OUTCOME>
<OUTCOME>15</OUTCOME>
<OUTCOME>16</OUTCOME>
<OUTCOME>17</OUTCOME>
<OUTCOME>18</OUTCOME>
<OUTCOME>19</OUTCOME>
<OUTCOME>20</OUTCOME>
<OUTCOME>21</OUTCOME>
<OUTCOME>22</OUTCOME>
<OUTCOME>23</OUTCOME>
<OUTCOME>24</OUTCOME>
<OUTCOME>25</OUTCOME>
<OUTCOME>26</OUTCOME>
<OUTCOME>27</OUTCOME>
<OUTCOME>28</OUTCOME>
<OUTCOME>29</OUTCOME>
<PROPERTY>position = (-15,29)</PROPERTY>
</VARIABLE>
<VARIABLE TYPE="nature">
<NAME>CWG0</NAME>
<OUTCOME>0</OUTCOME>
<OUTCOME>1</OUTCOME>
<OUTCOME>2</OUTCOME>
<OUTCOME>3</OUTCOME>
<OUTCOME>4</OUTCOME>
<OUTCOME>5</OUTCOME>
<OUTCOME>6</OUTCOME>
<OUTCOME>7</OUTCOME>
<OUTCOME>8</OUTCOME>
<OUTCOME>9</OUTCOME>
<OUTCOME>10</OUTCOME>
<OUTCOME>11</OUTCOME>
<OUTCOME>12</OUTCOME>
<OUTCOME>13</OUTCOME>
<OUTCOME>14</OUTCOME>
<OUTCOME>15</OUTCOME>
<OUTCOME>16</OUTCOME>
<OUTCOME>17</OUTCOME>
<OUTCOME>18</OUTCOME>
<OUTCOME>19</OUTCOME>
<OUTCOME>20</OUTCOME>
<OUTCOME>21</OUTCOME>
<OUTCOME>22</OUTCOME>
<OUTCOME>23</OUTCOME>
<OUTCOME>24</OUTCOME>
<OUTCOME>25</OUTCOME>
<OUTCOME>26</OUTCOME>
<OUTCOME>27</OUTCOME>
<OUTCOME>28</OUTCOME>
<OUTCOME>29</OUTCOME>
<PROPERTY>position = (117,56)</PROPERTY>
</VARIABLE>
<VARIABLE TYPE="nature">
<NAME>AVG0</NAME>
<OUTCOME>0</OUTCOME>
<OUTCOME>1</OUTCOME>
<OUTCOME>2</OUTCOME>
<OUTCOME>3</OUTCOME>
<OUTCOME>4</OUTCOME>
<OUTCOME>5</OUTCOME>
<OUTCOME>6</OUTCOME>
<OUTCOME>7</OUTCOME>
<OUTCOME>8</OUTCOME>
<OUTCOME>9</OUTCOME>
<OUTCOME>10</OUTCOME>
<OUTCOME>11</OUTCOME>
<OUTCOME>12</OUTCOME>
<OUTCOME>13</OUTCOME>
<OUTCOME>14</OUTCOME>
<OUTCOME>15</OUTCOME>
<OUTCOME>16</OUTCOME>
<OUTCOME>17</OUTCOME>
<OUTCOME>18</OUTCOME>
<OUTCOME>19</OUTCOME>
<OUTCOME>20</OUTCOME>
<OUTCOME>21</OUTCOME>
<OUTCOME>22</OUTCOME>
<OUTCOME>23</OUTCOME>
<OUTCOME>24</OUTCOME>
<OUTCOME>25</OUTCOME>
<OUTCOME>26</OUTCOME>
<OUTCOME>27</OUTCOME>
<OUTCOME>28</OUTCOME>
<OUTCOME>29</OUTCOME>
<PROPERTY>position = (225,224)</PROPERTY>
</VARIABLE>
<VARIABLE TYPE="nature">
<NAME>RPI1</NAME>
<OUTCOME>0</OUTCOME>
<OUTCOME>1</OUTCOME>
<OUTCOME>2</OUTCOME>
<OUTCOME>3</OUTCOME>
<OUTCOME>4</OUTCOME>
<OUTCOME>5</OUTCOME>
<OUTCOME>6</OUTCOME>
<OUTCOME>7</OUTCOME>
<OUTCOME>8</OUTCOME>
<OUTCOME>9</OUTCOME>
<OUTCOME>10</OUTCOME>
<OUTCOME>11</OUTCOME>
<OUTCOME>12</OUTCOME>
<OUTCOME>13</OUTCOME>
<OUTCOME>14</OUTCOME>
<OUTCOME>15</OUTCOME>
<OUTCOME>16</OUTCOME>
<OUTCOME>17</OUTCOME>
<OUTCOME>18</OUTCOME>
<OUTCOME>19</OUTCOME>
<OUTCOME>20</OUTCOME>
<OUTCOME>21</OUTCOME>
<OUTCOME>22</OUTCOME>
<OUTCOME>23</OUTCOME>
<OUTCOME>24</OUTCOME>
<OUTCOME>25</OUTCOME>
<OUTCOME>26</OUTCOME>
<OUTCOME>27</OUTCOME>
<OUTCOME>28</OUTCOME>
<OUTCOME>29</OUTCOME>
<PROPERTY>position = (662,199)</PROPERTY>
</VARIABLE>
<VARIABLE TYPE="nature">
<NAME>PYTH1</NAME>
<OUTCOME>0</OUTCOME>
<OUTCOME>1</OUTCOME>
<OUTCOME>2</OUTCOME>
<OUTCOME>3</OUTCOME>
<OUTCOME>4</OUTCOME>
<OUTCOME>5</OUTCOME>
<OUTCOME>6</OUTCOME>
<OUTCOME>7</OUTCOME>
<OUTCOME>8</OUTCOME>
<OUTCOME>9</OUTCOME>
<OUTCOME>10</OUTCOME>
<OUTCOME>11</OUTCOME>
<OUTCOME>12</OUTCOME>
<OUTCOME>13</OUTCOME>
<OUTCOME>14</OUTCOME>
<OUTCOME>15</OUTCOME>
<OUTCOME>16</OUTCOME>
<OUTCOME>17</OUTCOME>
<OUTCOME>18</OUTCOME>
<OUTCOME>19</OUTCOME>
<OUTCOME>20</OUTCOME>
<OUTCOME>21</OUTCOME>
<OUTCOME>22</OUTCOME>
<OUTCOME>23</OUTCOME>
<OUTCOME>24</OUTCOME>
<OUTCOME>25</OUTCOME>
<OUTCOME>26</OUTCOME>
<OUTCOME>27</OUTCOME>
<OUTCOME>28</OUTCOME>
<OUTCOME>29</OUTCOME>
<PROPERTY>position = (335,216)</PROPERTY>
</VARIABLE>
<VARIABLE TYPE="nature">
<NAME>CWG1</NAME>
<OUTCOME>0</OUTCOME>
<OUTCOME>1</OUTCOME>
<OUTCOME>2</OUTCOME>
<OUTCOME>3</OUTCOME>
<OUTCOME>4</OUTCOME>
<OUTCOME>5</OUTCOME>
<OUTCOME>6</OUTCOME>
<OUTCOME>7</OUTCOME>
<OUTCOME>8</OUTCOME>
<OUTCOME>9</OUTCOME>
<OUTCOME>10</OUTCOME>
<OUTCOME>11</OUTCOME>
<OUTCOME>12</OUTCOME>
<OUTCOME>13</OUTCOME>
<OUTCOME>14</OUTCOME>
<OUTCOME>15</OUTCOME>
<OUTCOME>16</OUTCOME>
<OUTCOME>17</OUTCOME>
<OUTCOME>18</OUTCOME>
<OUTCOME>19</OUTCOME>
<OUTCOME>20</OUTCOME>
<OUTCOME>21</OUTCOME>
<OUTCOME>22</OUTCOME>
<OUTCOME>23</OUTCOME>
<OUTCOME>24</OUTCOME>
<OUTCOME>25</OUTCOME>
<OUTCOME>26</OUTCOME>
<OUTCOME>27</OUTCOME>
<OUTCOME>28</OUTCOME>
<OUTCOME>29</OUTCOME>
<PROPERTY>position = (549,197)</PROPERTY>
</VARIABLE>
<VARIABLE TYPE="nature">
<NAME>AVG1</NAME>
<OUTCOME>0</OUTCOME>
<OUTCOME>1</OUTCOME>
<OUTCOME>2</OUTCOME>
<OUTCOME>3</OUTCOME>
<OUTCOME>4</OUTCOME>
<OUTCOME>5</OUTCOME>
<OUTCOME>6</OUTCOME>
<OUTCOME>7</OUTCOME>
<OUTCOME>8</OUTCOME>
<OUTCOME>9</OUTCOME>
<OUTCOME>10</OUTCOME>
<OUTCOME>11</OUTCOME>
<OUTCOME>12</OUTCOME>
<OUTCOME>13</OUTCOME>
<OUTCOME>14</OUTCOME>
<OUTCOME>15</OUTCOME>
<OUTCOME>16</OUTCOME>
<OUTCOME>17</OUTCOME>
<OUTCOME>18</OUTCOME>
<OUTCOME>19</OUTCOME>
<OUTCOME>20</OUTCOME>
<OUTCOME>21</OUTCOME>
<OUTCOME>22</OUTCOME>
<OUTCOME>23</OUTCOME>
<OUTCOME>24</OUTCOME>
<OUTCOME>25</OUTCOME>
<OUTCOME>26</OUTCOME>
<OUTCOME>27</OUTCOME>
<OUTCOME>28</OUTCOME>
<OUTCOME>29</OUTCOME>
<PROPERTY>position = (449,199)</PROPERTY>
</VARIABLE>
<VARIABLE TYPE="nature">
<NAME>W</NAME>
<OUTCOME>HIGH_SEED</OUTCOME>
<OUTCOME>LOW_SEED</OUTCOME>
<PROPERTY>position = (386,49)</PROPERTY>
</VARIABLE>
<DEFINITION>
<FOR>RPI0</FOR>
<GIVEN>W</GIVEN>
<TABLE>
0.0010183299389002036 0.0010183299389002036 0.0010183299389002036 0.0010183299389002036 0.0010183299389002036 0.0010183299389002036 0.0010183299389002036 0.0010183299389002036 0.0010183299389002036 0.0010183299389002036 0.0010183299389002036 0.0010183299389002036 0.0010183299389002036 0.0010183299389002036 0.0010183299389002036 0.0010183299389002036 0.0010183299389002036 0.0010183299389002036 0.003054989816700611 0.01120162932790224 0.029531568228105907 0.08859470468431772 0.11710794297352342 0.06822810590631365 0.16395112016293278 0.2637474541751528 0.019348268839103868 0.05804480651731161 0.0539714867617108 0.10488798370672098 
0.0021551724137931034 0.0021551724137931034 0.0021551724137931034 0.0021551724137931034 0.0021551724137931034 0.0021551724137931034 0.0021551724137931034 0.0021551724137931034 0.0021551724137931034 0.0021551724137931034 0.0021551724137931034 0.0021551724137931034 0.0021551724137931034 0.0021551724137931034 0.0021551724137931034 0.0021551724137931034 0.0021551724137931034 0.015086206896551725 0.010775862068965518 0.023706896551724137 0.0668103448275862 0.13577586206896552 0.18318965517241378 0.09267241379310345 0.15301724137931033 0.15732758620689655 0.015086206896551725 0.032327586206896554 0.015086206896551725 0.0625 
</TABLE>
</DEFINITION>
<DEFINITION>
<FOR>PYTH0</FOR>
<GIVEN>W</GIVEN>
<TABLE>
0.0010183299389002036 0.003054989816700611 0.0010183299389002036 0.0010183299389002036 0.0010183299389002036 0.0050916496945010185 0.0010183299389002036 0.0010183299389002036 0.0010183299389002036 0.0010183299389002036 0.0010183299389002036 0.0010183299389002036 0.0010183299389002036 0.0010183299389002036 0.0010183299389002036 0.0010183299389002036 0.0010183299389002036 0.0010183299389002036 0.0010183299389002036 0.0010183299389002036 0.0010183299389002036 0.0010183299389002036 0.0050916496945010185 0.003054989816700611 0.0010183299389002036 0.0010183299389002036 0.0010183299389002036 0.007128309572301426 0.0010183299389002036 0.9521384928716904 
0.00646551724137931 0.0021551724137931034 0.00646551724137931 0.0021551724137931034 0.0021551724137931034 0.0021551724137931034 0.0021551724137931034 0.00646551724137931 0.0021551724137931034 0.0021551724137931034 0.0021551724137931034 0.0021551724137931034 0.0021551724137931034 0.0021551724137931034 0.0021551724137931034 0.0021551724137931034 0.0021551724137931034 0.0021551724137931034 0.0021551724137931034 0.0021551724137931034 0.0021551724137931034 0.00646551724137931 0.00646551724137931 0.0021551724137931034 0.0021551724137931034 0.0021551724137931034 0.00646551724137931 0.00646551724137931 0.00646551724137931 0.9030172413793104 
</TABLE>
</DEFINITION>
<DEFINITION>
<FOR>CWG0</FOR>
<GIVEN>W</GIVEN>
<GIVEN>RPI0</GIVEN>
<TABLE>
0.03333333333333333 0.03333333333333333 0.03333333333333333 0.03333333333333333 0.03333333333333333 0.03333333333333333 0.03333333333333333 0.03333333333333333 0.03333333333333333 0.03333333333333333 0.03333333333333333 0.03333333333333333 0.03333333333333333 0.03333333333333333 0.03333333333333333 0.03333333333333333 0.03333333333333333 0.03333333333333333 0.03333333333333333 0.03333333333333333 0.03333333333333333 0.03333333333333333 0.03333333333333333 0.03333333333333333 0.03333333333333333 0.03333333333333333 0.03333333333333333 0.03333333333333333 0.03333333333333333 0.03333333333333333 
0.03333333333333333 0.03333333333333333 0.03333333333333333 0.03333333333333333 0.03333333333333333 0.03333333333333333 0.03333333333333333 0.03333333333333333 0.03333333333333333 0.03333333333333333 0.03333333333333333 0.03333333333333333 0.03333333333333333 0.03333333333333333 0.03333333333333333 0.03333333333333333 0.03333333333333333 0.03333333333333333 0.03333333333333333 0.03333333333333333 0.03333333333333333 0.03333333333333333 0.03333333333333333 0.03333333333333333 0.03333333333333333 0.03333333333333333 0.03333333333333333 0.03333333333333333 0.03333333333333333 0.03333333333333333 
0.03333333333333333 0.03333333333333333 0.03333333333333333 0.03333333333333333 0.03333333333333333 0.03333333333333333 0.03333333333333333 0.03333333333333333 0.03333333333333333 0.03333333333333333 0.03333333333333333 0.03333333333333333 0.03333333333333333 0.03333333333333333 0.03333333333333333 0.03333333333333333 0.03333333333333333 0.03333333333333333 0.03333333333333333 0.03333333333333333 0.03333333333333333 0.03333333333333333 0.03333333333333333 0.03333333333333333 0.03333333333333333 0.03333333333333333 0.03333333333333333 0.03333333333333333 0.03333333333333333 0.03333333333333333 
0.03333333333333333 0.03333333333333333 0.03333333333333333 0.03333333333333333 0.03333333333333333 0.03333333333333333 0.03333333333333333 0.03333333333333333 0.03333333333333333 0.03333333333333333 0.03333333333333333 0.03333333333333333 0.03333333333333333 0.03333333333333333 0.03333333333333333 0.03333333333333333 0.03333333333333333 0.03333333333333333 0.03333333333333333 0.03333333333333333 0.03333333333333333 0.03333333333333333 0.03333333333333333 0.03333333333333333 0.03333333333333333 0.03333333333333333 0.03333333333333333 0.03333333333333333 0.03333333333333333 0.03333333333333333 
0.03333333333333333 0.03333333333333333 0.03333333333333333 0.03333333333333333 0.03333333333333333 0.03333333333333333 0.03333333333333333 0.03333333333333333 0.03333333333333333 0.03333333333333333 0.03333333333333333 0.03333333333333333 0.03333333333333333 0.03333333333333333 0.03333333333333333 0.03333333333333333 0.03333333333333333 0.03333333333333333 0.03333333333333333 0.03333333333333333 0.03333333333333333 0.03333333333333333 0.03333333333333333 0.03333333333333333 0.03333333333333333 0.03333333333333333 0.03333333333333333 0.03333333333333333 0.03333333333333333 0.03333333333333333 
0.03333333333333333 0.03333333333333333 0.03333333333333333 0.03333333333333333 0.03333333333333333 0.03333333333333333 0.03333333333333333 0.03333333333333333 0.03333333333333333 0.03333333333333333 0.03333333333333333 0.03333333333333333 0.03333333333333333 0.03333333333333333 0.03333333333333333 0.03333333333333333 0.03333333333333333 0.03333333333333333 0.03333333333333333 0.03333333333333333 0.03333333333333333 0.03333333333333333 0.03333333333333333 0.03333333333333333 0.03333333333333333 0.03333333333333333 0.03333333333333333 0.03333333333333333 0.03333333333333333 0.03333333333333333 
0.03333333333333333 0.03333333333333333 0.03333333333333333 0.03333333333333333 0.03333333333333333 0.03333333333333333 0.03333333333333333 0.03333333333333333 0.03333333333333333 0.03333333333333333 0.03333333333333333 0.03333333333333333 0.03333333333333333 0.03333333333333333 0.03333333333333333 0.03333333333333333 0.03333333333333333 0.03333333333333333 0.03333333333333333 0.03333333333333333 0.03333333333333333 0.03333333333333333 0.03333333333333333 0.03333333333333333 0.03333333333333333 0.03333333333333333 0.03333333333333333 0.03333333333333333 0.03333333333333333 0.03333333333333333 
0.03333333333333333 0.03333333333333333 0.03333333333333333 0.03333333333333333 0.03333333333333333 0.03333333333333333 0.03333333333333333 0.03333333333333333 0.03333333333333333 0.03333333333333333 0.03333333333333333 0.03333333333333333 0.03333333333333333 0.03333333333333333 0.03333333333333333 0.03333333333333333 0.03333333333333333 0.03333333333333333 0.03333333333333333 0.03333333333333333 0.03333333333333333 0.03333333333333333 0.03333333333333333 0.03333333333333333 0.03333333333333333 0.03333333333333333 0.03333333333333333 0.03333333333333333 0.03333333333333333 0.03333333333333333 
0.03333333333333333 0.03333333333333333 0.03333333333333333 0.03333333333333333 0.03333333333333333 0.03333333333333333 0.03333333333333333 0.03333333333333333 0.03333333333333333 0.03333333333333333 0.03333333333333333 0.03333333333333333 0.03333333333333333 0.03333333333333333 0.03333333333333333 0.03333333333333333 0.03333333333333333 0.03333333333333333 0.03333333333333333 0.03333333333333333 0.03333333333333333 0.03333333333333333 0.03333333333333333 0.03333333333333333 0.03333333333333333 0.03333333333333333 0.03333333333333333 0.03333333333333333 0.03333333333333333 0.03333333333333333 
0.03333333333333333 0.03333333333333333 0.03333333333333333 0.03333333333333333 0.03333333333333333 0.03333333333333333 0.03333333333333333 0.03333333333333333 0.03333333333333333 0.03333333333333333 0.03333333333333333 0.03333333333333333 0.03333333333333333 0.03333333333333333 0.03333333333333333 0.03333333333333333 0.03333333333333333 0.03333333333333333 0.03333333333333333 0.03333333333333333 0.03333333333333333 0.03333333333333333 0.03333333333333333 0.03333333333333333 0.03333333333333333 0.03333333333333333 0.03333333333333333 0.03333333333333333 0.03333333333333333 0.03333333333333333 
0.03333333333333333 0.03333333333333333 0.03333333333333333 0.03333333333333333 0.03333333333333333 0.03333333333333333 0.03333333333333333 0.03333333333333333 0.03333333333333333 0.03333333333333333 0.03333333333333333 0.03333333333333333 0.03333333333333333 0.03333333333333333 0.03333333333333333 0.03333333333333333 0.03333333333333333 0.03333333333333333 0.03333333333333333 0.03333333333333333 0.03333333333333333 0.03333333333333333 0.03333333333333333 0.03333333333333333 0.03333333333333333 0.03333333333333333 0.03333333333333333 0.03333333333333333 0.03333333333333333 0.03333333333333333 
0.03333333333333333 0.03333333333333333 0.03333333333333333 0.03333333333333333 0.03333333333333333 0.03333333333333333 0.03333333333333333 0.03333333333333333 0.03333333333333333 0.03333333333333333 0.03333333333333333 0.03333333333333333 0.03333333333333333 0.03333333333333333 0.03333333333333333 0.03333333333333333 0.03333333333333333 0.03333333333333333 0.03333333333333333 0.03333333333333333 0.03333333333333333 0.03333333333333333 0.03333333333333333 0.03333333333333333 0.03333333333333333 0.03333333333333333 0.03333333333333333 0.03333333333333333 0.03333333333333333 0.03333333333333333 
0.03333333333333333 0.03333333333333333 0.03333333333333333 0.03333333333333333 0.03333333333333333 0.03333333333333333 0.03333333333333333 0.03333333333333333 0.03333333333333333 0.03333333333333333 0.03333333333333333 0.03333333333333333 0.03333333333333333 0.03333333333333333 0.03333333333333333 0.03333333333333333 0.03333333333333333 0.03333333333333333 0.03333333333333333 0.03333333333333333 0.03333333333333333 0.03333333333333333 0.03333333333333333 0.03333333333333333 0.03333333333333333 0.03333333333333333 0.03333333333333333 0.03333333333333333 0.03333333333333333 0.03333333333333333 
0.03333333333333333 0.03333333333333333 0.03333333333333333 0.03333333333333333 0.03333333333333333 0.03333333333333333 0.03333333333333333 0.03333333333333333 0.03333333333333333 0.03333333333333333 0.03333333333333333 0.03333333333333333 0.03333333333333333 0.03333333333333333 0.03333333333333333 0.03333333333333333 0.03333333333333333 0.03333333333333333 0.03333333333333333 0.03333333333333333 0.03333333333333333 0.03333333333333333 0.03333333333333333 0.03333333333333333 0.03333333333333333 0.03333333333333333 0.03333333333333333 0.03333333333333333 0.03333333333333333 0.03333333333333333 
0.03333333333333333 0.03333333333333333 0.03333333333333333 0.03333333333333333 0.03333333333333333 0.03333333333333333 0.03333333333333333 0.03333333333333333 0.03333333333333333 0.03333333333333333 0.03333333333333333 0.03333333333333333 0.03333333333333333 0.03333333333333333 0.03333333333333333 0.03333333333333333 0.03333333333333333 0.03333333333333333 0.03333333333333333 0.03333333333333333 0.03333333333333333 0.03333333333333333 0.03333333333333333 0.03333333333333333 0.03333333333333333 0.03333333333333333 0.03333333333333333 0.03333333333333333 0.03333333333333333 0.03333333333333333 
0.03333333333333333 0.03333333333333333 0.03333333333333333 0.03333333333333333 0.03333333333333333 0.03333333333333333 0.03333333333333333 0.03333333333333333 0.03333333333333333 0.03333333333333333 0.03333333333333333 0.03333333333333333 0.03333333333333333 0.03333333333333333 0.03333333333333333 0.03333333333333333 0.03333333333333333 0.03333333333333333 0.03333333333333333 0.03333333333333333 0.03333333333333333 0.03333333333333333 0.03333333333333333 0.03333333333333333 0.03333333333333333 0.03333333333333333 0.03333333333333333 0.03333333333333333 0.03333333333333333 0.03333333333333333 
0.03333333333333333 0.03333333333333333 0.03333333333333333 0.03333333333333333 0.03333333333333333 0.03333333333333333 0.03333333333333333 0.03333333333333333 0.03333333333333333 0.03333333333333333 0.03333333333333333 0.03333333333333333 0.03333333333333333 0.03333333333333333 0.03333333333333333 0.03333333333333333 0.03333333333333333 0.03333333333333333 0.03333333333333333 0.03333333333333333 0.03333333333333333 0.03333333333333333 0.03333333333333333 0.03333333333333333 0.03333333333333333 0.03333333333333333 0.03333333333333333 0.03333333333333333 0.03333333333333333 0.03333333333333333 
0.03333333333333333 0.03333333333333333 0.03333333333333333 0.03333333333333333 0.03333333333333333 0.03333333333333333 0.03333333333333333 0.03333333333333333 0.03333333333333333 0.03333333333333333 0.03333333333333333 0.03333333333333333 0.03333333333333333 0.03333333333333333 0.03333333333333333 0.03333333333333333 0.03333333333333333 0.03333333333333333 0.03333333333333333 0.03333333333333333 0.03333333333333333 0.03333333333333333 0.03333333333333333 0.03333333333333333 0.03333333333333333 0.03333333333333333 0.03333333333333333 0.03333333333333333 0.03333333333333333 0.03333333333333333 
0.03125 0.03125 0.03125 0.03125 0.03125 0.03125 0.03125 0.03125 0.03125 0.03125 0.03125 0.03125 0.03125 0.03125 0.03125 0.03125 0.03125 0.03125 0.09375 0.03125 0.03125 0.03125 0.03125 0.03125 0.03125 0.03125 0.03125 0.03125 0.03125 0.03125 
0.025 0.025 0.025 0.025 0.025 0.025 0.025 0.025 0.025 0.025 0.025 0.025 0.025 0.025 0.025 0.025 0.125 0.025 0.025 0.125 0.025 0.075 0.025 0.025 0.025 0.025 0.025 0.025 0.025 0.025 
0.017241379310344827 0.017241379310344827 0.017241379310344827 0.017241379310344827 0.017241379310344827 0.017241379310344827 0.017241379310344827 0.017241379310344827 0.017241379310344827 0.017241379310344827 0.017241379310344827 0.017241379310344827 0.017241379310344827 0.017241379310344827 0.017241379310344827 0.017241379310344827 0.017241379310344827 0.08620689655172414 0.08620689655172414 0.05172413793103448 0.1206896551724138 0.08620689655172414 0.017241379310344827 0.017241379310344827 0.017241379310344827 0.15517241379310345 0.017241379310344827 0.017241379310344827 0.017241379310344827 0.017241379310344827 
0.008620689655172414 0.008620689655172414 0.008620689655172414 0.008620689655172414 0.008620689655172414 0.008620689655172414 0.008620689655172414 0.008620689655172414 0.008620689655172414 0.008620689655172414 0.008620689655172414 0.008620689655172414 0.008620689655172414 0.008620689655172414 0.02586206896551724 0.008620689655172414 0.008620689655172414 0.008620689655172414 0.12931034482758622 0.16379310344827586 0.2672413793103448 0.008620689655172414 0.11206896551724138 0.04310344827586207 0.008620689655172414 0.02586206896551724 0.04310344827586207 0.008620689655172414 0.008620689655172414 0.008620689655172414 
0.006944444444444444 0.006944444444444444 0.006944444444444444 0.006944444444444444 0.006944444444444444 0.006944444444444444 0.006944444444444444 0.006944444444444444 0.006944444444444444 0.006944444444444444 0.006944444444444444 0.006944444444444444 0.006944444444444444 0.006944444444444444 0.006944444444444444 0.006944444444444444 0.006944444444444444 0.006944444444444444 0.034722222222222224 0.10416666666666667 0.0763888888888889 0.14583333333333334 0.034722222222222224 0.1736111111111111 0.0625 0.10416666666666667 0.0625 0.04861111111111111 0.006944444444444444 0.020833333333333332 
0.010416666666666666 0.010416666666666666 0.010416666666666666 0.010416666666666666 0.010416666666666666 0.010416666666666666 0.010416666666666666 0.010416666666666666 0.010416666666666666 0.010416666666666666 0.010416666666666666 0.010416666666666666 0.010416666666666666 0.010416666666666666 0.010416666666666666 0.010416666666666666 0.010416666666666666 0.07291666666666667 0.010416666666666666 0.13541666666666666 0.03125 0.010416666666666666 0.010416666666666666 0.17708333333333334 0.010416666666666666 0.010416666666666666 0.010416666666666666 0.3229166666666667 0.010416666666666666 0.010416666666666666 
0.005263157894736842 0.005263157894736842 0.005263157894736842 0.005263157894736842 0.005263157894736842 0.005263157894736842 0.005263157894736842 0.005263157894736842 0.005263157894736842 0.005263157894736842 0.005263157894736842 0.005263157894736842 0.005263157894736842 0.005263157894736842 0.005263157894736842 0.005263157894736842 0.005263157894736842 0.005263157894736842 0.005263157894736842 0.005263157894736842 0.14210526315789473 0.24736842105263157 0.12105263157894737 0.12105263157894737 0.23684210526315788 0.005263157894736842 0.005263157894736842 0.005263157894736842 0.005263157894736842 0.005263157894736842 
0.003472222222222222 0.003472222222222222 0.003472222222222222 0.003472222222222222 0.003472222222222222 0.003472222222222222 0.003472222222222222 0.003472222222222222 0.003472222222222222 0.003472222222222222 0.003472222222222222 0.003472222222222222 0.003472222222222222 0.003472222222222222 0.003472222222222222 0.003472222222222222 0.003472222222222222 0.003472222222222222 0.003472222222222222 0.003472222222222222 0.4131944444444444 0.12152777777777778 0.003472222222222222 0.11458333333333333 0.14930555555555555 0.09375 0.003472222222222222 0.024305555555555556 0.003472222222222222 0.003472222222222222 
0.020833333333333332 0.020833333333333332 0.020833333333333332 0.020833333333333332 0.020833333333333332 0.020833333333333332 0.020833333333333332 0.020833333333333332 0.020833333333333332 0.020833333333333332 0.020833333333333332 0.020833333333333332 0.020833333333333332 0.020833333333333332 0.020833333333333332 0.020833333333333332 0.020833333333333332 0.020833333333333332 0.020833333333333332 0.3958333333333333 0.020833333333333332 0.020833333333333332 0.020833333333333332 0.020833333333333332 0.020833333333333332 0.020833333333333332 0.020833333333333332 0.020833333333333332 0.020833333333333332 0.020833333333333332 
0.011627906976744186 0.011627906976744186 0.011627906976744186 0.011627906976744186 0.011627906976744186 0.011627906976744186 0.011627906976744186 0.011627906976744186 0.011627906976744186 0.011627906976744186 0.011627906976744186 0.011627906976744186 0.011627906976744186 0.011627906976744186 0.011627906976744186 0.011627906976744186 0.011627906976744186 0.011627906976744186 0.011627906976744186 0.011627906976744186 0.5232558139534884 0.1511627906976744 0.011627906976744186 0.011627906976744186 0.011627906976744186 0.011627906976744186 0.011627906976744186 0.011627906976744186 0.011627906976744186 0.011627906976744186 
0.012195121951219513 0.012195121951219513 0.012195121951219513 0.012195121951219513 0.012195121951219513 0.012195121951219513 0.012195121951219513 0.012195121951219513 0.012195121951219513 0.012195121951219513 0.012195121951219513 0.012195121951219513 0.012195121951219513 0.012195121951219513 0.012195121951219513 0.012195121951219513 0.012195121951219513 0.012195121951219513 0.012195121951219513 0.012195121951219513 0.6463414634146342 0.012195121951219513 0.012195121951219513 0.012195121951219513 0.012195121951219513 0.012195121951219513 0.012195121951219513 0.012195121951219513 0.012195121951219513 0.012195121951219513 
0.007575757575757576 0.007575757575757576 0.007575757575757576 0.007575757575757576 0.007575757575757576 0.007575757575757576 0.007575757575757576 0.007575757575757576 0.007575757575757576 0.007575757575757576 0.007575757575757576 0.007575757575757576 0.007575757575757576 0.007575757575757576 0.007575757575757576 0.007575757575757576 0.007575757575757576 0.4166666666666667 0.007575757575757576 0.007575757575757576 0.007575757575757576 0.007575757575757576 0.3712121212121212 0.007575757575757576 0.007575757575757576 0.007575757575757576 0.007575757575757576 0.007575757575757576 0.007575757575757576 0.007575757575757576 
0.03333333333333333 0.03333333333333333 0.03333333333333333 0.03333333333333333 0.03333333333333333 0.03333333333333333 0.03333333333333333 0.03333333333333333 0.03333333333333333 0.03333333333333333 0.03333333333333333 0.03333333333333333 0.03333333333333333 0.03333333333333333 0.03333333333333333 0.03333333333333333 0.03333333333333333 0.03333333333333333 0.03333333333333333 0.03333333333333333 0.03333333333333333 0.03333333333333333 0.03333333333333333 0.03333333333333333 0.03333333333333333 0.03333333333333333 0.03333333333333333 0.03333333333333333 0.03333333333333333 0.03333333333333333 
0.03333333333333333 0.03333333333333333 0.03333333333333333 0.03333333333333333 0.03333333333333333 0.03333333333333333 0.03333333333333333 0.03333333333333333 0.03333333333333333 0.03333333333333333 0.03333333333333333 0.03333333333333333 0.03333333333333333 0.03333333333333333 0.03333333333333333 0.03333333333333333 0.03333333333333333 0.03333333333333333 0.03333333333333333 0.03333333333333333 0.03333333333333333 0.03333333333333333 0.03333333333333333 0.03333333333333333 0.03333333333333333 0.03333333333333333 0.03333333333333333 0.03333333333333333 0.03333333333333333 0.03333333333333333 
0.03333333333333333 0.03333333333333333 0.03333333333333333 0.03333333333333333 0.03333333333333333 0.03333333333333333 0.03333333333333333 0.03333333333333333 0.03333333333333333 0.03333333333333333 0.03333333333333333 0.03333333333333333 0.03333333333333333 0.03333333333333333 0.03333333333333333 0.03333333333333333 0.03333333333333333 0.03333333333333333 0.03333333333333333 0.03333333333333333 0.03333333333333333 0.03333333333333333 0.03333333333333333 0.03333333333333333 0.03333333333333333 0.03333333333333333 0.03333333333333333 0.03333333333333333 0.03333333333333333 0.03333333333333333 
0.03333333333333333 0.03333333333333333 0.03333333333333333 0.03333333333333333 0.03333333333333333 0.03333333333333333 0.03333333333333333 0.03333333333333333 0.03333333333333333 0.03333333333333333 0.03333333333333333 0.03333333333333333 0.03333333333333333 0.03333333333333333 0.03333333333333333 0.03333333333333333 0.03333333333333333 0.03333333333333333 0.03333333333333333 0.03333333333333333 0.03333333333333333 0.03333333333333333 0.03333333333333333 0.03333333333333333 0.03333333333333333 0.03333333333333333 0.03333333333333333 0.03333333333333333 0.03333333333333333 0.03333333333333333 
0.03333333333333333 0.03333333333333333 0.03333333333333333 0.03333333333333333 0.03333333333333333 0.03333333333333333 0.03333333333333333 0.03333333333333333 0.03333333333333333 0.03333333333333333 0.03333333333333333 0.03333333333333333 0.03333333333333333 0.03333333333333333 0.03333333333333333 0.03333333333333333 0.03333333333333333 0.03333333333333333 0.03333333333333333 0.03333333333333333 0.03333333333333333 0.03333333333333333 0.03333333333333333 0.03333333333333333 0.03333333333333333 0.03333333333333333 0.03333333333333333 0.03333333333333333 0.03333333333333333 0.03333333333333333 
0.03333333333333333 0.03333333333333333 0.03333333333333333 0.03333333333333333 0.03333333333333333 0.03333333333333333 0.03333333333333333 0.03333333333333333 0.03333333333333333 0.03333333333333333 0.03333333333333333 0.03333333333333333 0.03333333333333333 0.03333333333333333 0.03333333333333333 0.03333333333333333 0.03333333333333333 0.03333333333333333 0.03333333333333333 0.03333333333333333 0.03333333333333333 0.03333333333333333 0.03333333333333333 0.03333333333333333 0.03333333333333333 0.03333333333333333 0.03333333333333333 0.03333333333333333 0.03333333333333333 0.03333333333333333 
0.03333333333333333 0.03333333333333333 0.03333333333333333 0.03333333333333333 0.03333333333333333 0.03333333333333333 0.03333333333333333 0.03333333333333333 0.03333333333333333 0.03333333333333333 0.03333333333333333 0.03333333333333333 0.03333333333333333 0.03333333333333333 0.03333333333333333 0.03333333333333333 0.03333333333333333 0.03333333333333333 0.03333333333333333 0.03333333333333333 0.03333333333333333 0.03333333333333333 0.03333333333333333 0.03333333333333333 0.03333333333333333 0.03333333333333333 0.03333333333333333 0.03333333333333333 0.03333333333333333 0.03333333333333333 
0.03333333333333333 0.03333333333333333 0.03333333333333333 0.03333333333333333 0.03333333333333333 0.03333333333333333 0.03333333333333333 0.03333333333333333 0.03333333333333333 0.03333333333333333 0.03333333333333333 0.03333333333333333 0.03333333333333333 0.03333333333333333 0.03333333333333333 0.03333333333333333 0.03333333333333333 0.03333333333333333 0.03333333333333333 0.03333333333333333 0.03333333333333333 0.03333333333333333 0.03333333333333333 0.03333333333333333 0.03333333333333333 0.03333333333333333 0.03333333333333333 0.03333333333333333 0.03333333333333333 0.03333333333333333 
0.03333333333333333 0.03333333333333333 0.03333333333333333 0.03333333333333333 0.03333333333333333 0.03333333333333333 0.03333333333333333 0.03333333333333333 0.03333333333333333 0.03333333333333333 0.03333333333333333 0.03333333333333333 0.03333333333333333 0.03333333333333333 0.03333333333333333 0.03333333333333333 0.03333333333333333 0.03333333333333333 0.03333333333333333 0.03333333333333333 0.03333333333333333 0.03333333333333333 0.03333333333333333 0.03333333333333333 0.03333333333333333 0.03333333333333333 0.03333333333333333 0.03333333333333333 0.03333333333333333 0.03333333333333333 
0.03333333333333333 0.03333333333333333 0.03333333333333333 0.03333333333333333 0.03333333333333333 0.03333333333333333 0.03333333333333333 0.03333333333333333 0.03333333333333333 0.03333333333333333 0.03333333333333333 0.03333333333333333 0.03333333333333333 0.03333333333333333 0.03333333333333333 0.03333333333333333 0.03333333333333333 0.03333333333333333 0.03333333333333333 0.03333333333333333 0.03333333333333333 0.03333333333333333 0.03333333333333333 0.03333333333333333 0.03333333333333333 0.03333333333333333 0.03333333333333333 0.03333333333333333 0.03333333333333333 0.03333333333333333 
0.03333333333333333 0.03333333333333333 0.03333333333333333 0.03333333333333333 0.03333333333333333 0.03333333333333333 0.03333333333333333 0.03333333333333333 0.03333333333333333 0.03333333333333333 0.03333333333333333 0.03333333333333333 0.03333333333333333 0.03333333333333333 0.03333333333333333 0.03333333333333333 0.03333333333333333 0.03333333333333333 0.03333333333333333 0.03333333333333333 0.03333333333333333 0.03333333333333333 0.03333333333333333 0.03333333333333333 0.03333333333333333 0.03333333333333333 0.03333333333333333 0.03333333333333333 0.03333333333333333 0.03333333333333333 
0.03333333333333333 0.03333333333333333 0.03333333333333333 0.03333333333333333 0.03333333333333333 0.03333333333333333 0.03333333333333333 0.03333333333333333 0.03333333333333333 0.03333333333333333 0.03333333333333333 0.03333333333333333 0.03333333333333333 0.03333333333333333 0.03333333333333333 0.03333333333333333 0.03333333333333333 0.03333333333333333 0.03333333333333333 0.03333333333333333 0.03333333333333333 0.03333333333333333 0.03333333333333333 0.03333333333333333 0.03333333333333333 0.03333333333333333 0.03333333333333333 0.03333333333333333 0.03333333333333333 0.03333333333333333 
0.03333333333333333 0.03333333333333333 0.03333333333333333 0.03333333333333333 0.03333333333333333 0.03333333333333333 0.03333333333333333 0.03333333333333333 0.03333333333333333 0.03333333333333333 0.03333333333333333 0.03333333333333333 0.03333333333333333 0.03333333333333333 0.03333333333333333 0.03333333333333333 0.03333333333333333 0.03333333333333333 0.03333333333333333 0.03333333333333333 0.03333333333333333 0.03333333333333333 0.03333333333333333 0.03333333333333333 0.03333333333333333 0.03333333333333333 0.03333333333333333 0.03333333333333333 0.03333333333333333 0.03333333333333333 
0.03333333333333333 0.03333333333333333 0.03333333333333333 0.03333333333333333 0.03333333333333333 0.03333333333333333 0.03333333333333333 0.03333333333333333 0.03333333333333333 0.03333333333333333 0.03333333333333333 0.03333333333333333 0.03333333333333333 0.03333333333333333 0.03333333333333333 0.03333333333333333 0.03333333333333333 0.03333333333333333 0.03333333333333333 0.03333333333333333 0.03333333333333333 0.03333333333333333 0.03333333333333333 0.03333333333333333 0.03333333333333333 0.03333333333333333 0.03333333333333333 0.03333333333333333 0.03333333333333333 0.03333333333333333 
0.03333333333333333 0.03333333333333333 0.03333333333333333 0.03333333333333333 0.03333333333333333 0.03333333333333333 0.03333333333333333 0.03333333333333333 0.03333333333333333 0.03333333333333333 0.03333333333333333 0.03333333333333333 0.03333333333333333 0.03333333333333333 0.03333333333333333 0.03333333333333333 0.03333333333333333 0.03333333333333333 0.03333333333333333 0.03333333333333333 0.03333333333333333 0.03333333333333333 0.03333333333333333 0.03333333333333333 0.03333333333333333 0.03333333333333333 0.03333333333333333 0.03333333333333333 0.03333333333333333 0.03333333333333333 
0.03333333333333333 0.03333333333333333 0.03333333333333333 0.03333333333333333 0.03333333333333333 0.03333333333333333 0.03333333333333333 0.03333333333333333 0.03333333333333333 0.03333333333333333 0.03333333333333333 0.03333333333333333 0.03333333333333333 0.03333333333333333 0.03333333333333333 0.03333333333333333 0.03333333333333333 0.03333333333333333 0.03333333333333333 0.03333333333333333 0.03333333333333333 0.03333333333333333 0.03333333333333333 0.03333333333333333 0.03333333333333333 0.03333333333333333 0.03333333333333333 0.03333333333333333 0.03333333333333333 0.03333333333333333 
0.03333333333333333 0.03333333333333333 0.03333333333333333 0.03333333333333333 0.03333333333333333 0.03333333333333333 0.03333333333333333 0.03333333333333333 0.03333333333333333 0.03333333333333333 0.03333333333333333 0.03333333333333333 0.03333333333333333 0.03333333333333333 0.03333333333333333 0.03333333333333333 0.03333333333333333 0.03333333333333333 0.03333333333333333 0.03333333333333333 0.03333333333333333 0.03333333333333333 0.03333333333333333 0.03333333333333333 0.03333333333333333 0.03333333333333333 0.03333333333333333 0.03333333333333333 0.03333333333333333 0.03333333333333333 
0.027777777777777776 0.027777777777777776 0.027777777777777776 0.027777777777777776 0.027777777777777776 0.027777777777777776 0.027777777777777776 0.027777777777777776 0.027777777777777776 0.027777777777777776 0.027777777777777776 0.027777777777777776 0.027777777777777776 0.027777777777777776 0.027777777777777776 0.027777777777777776 0.027777777777777776 0.027777777777777776 0.1388888888888889 0.08333333333333333 0.027777777777777776 0.027777777777777776 0.027777777777777776 0.027777777777777776 0.027777777777777776 0.027777777777777776 0.027777777777777776 0.027777777777777776 0.027777777777777776 0.027777777777777776 
0.029411764705882353 0.029411764705882353 0.029411764705882353 0.029411764705882353 0.029411764705882353 0.029411764705882353 0.029411764705882353 0.029411764705882353 0.029411764705882353 0.029411764705882353 0.029411764705882353 0.029411764705882353 0.029411764705882353 0.029411764705882353 0.029411764705882353 0.029411764705882353 0.029411764705882353 0.08823529411764706 0.08823529411764706 0.029411764705882353 0.029411764705882353 0.029411764705882353 0.029411764705882353 0.029411764705882353 0.029411764705882353 0.029411764705882353 0.029411764705882353 0.029411764705882353 0.029411764705882353 0.029411764705882353 
0.025 0.025 0.025 0.025 0.025 0.025 0.025 0.025 0.025 0.025 0.025 0.025 0.025 0.025 0.025 0.025 0.025 0.025 0.025 0.025 0.025 0.125 0.025 0.175 0.025 0.025 0.025 0.025 0.025 0.025 
0.016666666666666666 0.016666666666666666 0.016666666666666666 0.016666666666666666 0.016666666666666666 0.016666666666666666 0.016666666666666666 0.016666666666666666 0.016666666666666666 0.016666666666666666 0.016666666666666666 0.016666666666666666 0.016666666666666666 0.016666666666666666 0.016666666666666666 0.016666666666666666 0.016666666666666666 0.08333333333333333 0.05 0.08333333333333333 0.08333333333333333 0.08333333333333333 0.016666666666666666 0.05 0.016666666666666666 0.08333333333333333 0.016666666666666666 0.016666666666666666 0.11666666666666667 0.016666666666666666 
0.010869565217391304 0.010869565217391304 0.010869565217391304 0.010869565217391304 0.010869565217391304 0.010869565217391304 0.010869565217391304 0.010869565217391304 0.010869565217391304 0.010869565217391304 0.010869565217391304 0.010869565217391304 0.010869565217391304 0.010869565217391304 0.05434782608695652 0.010869565217391304 0.010869565217391304 0.010869565217391304 0.07608695652173914 0.16304347826086957 0.11956521739130435 0.09782608695652174 0.07608695652173914 0.09782608695652174 0.03260869565217391 0.03260869565217391 0.03260869565217391 0.010869565217391304 0.010869565217391304 0.010869565217391304 
0.008771929824561403 0.008771929824561403 0.008771929824561403 0.008771929824561403 0.008771929824561403 0.008771929824561403 0.008771929824561403 0.008771929824561403 0.008771929824561403 0.008771929824561403 0.008771929824561403 0.008771929824561403 0.008771929824561403 0.008771929824561403 0.008771929824561403 0.008771929824561403 0.008771929824561403 0.008771929824561403 0.07894736842105263 0.043859649122807015 0.06140350877192982 0.16666666666666666 0.043859649122807015 0.14912280701754385 0.043859649122807015 0.13157894736842105 0.06140350877192982 0.02631578947368421 0.02631578947368421 0.008771929824561403 
0.013888888888888888 0.013888888888888888 0.013888888888888888 0.013888888888888888 0.013888888888888888 0.013888888888888888 0.013888888888888888 0.013888888888888888 0.013888888888888888 0.013888888888888888 0.013888888888888888 0.013888888888888888 0.013888888888888888 0.013888888888888888 0.013888888888888888 0.013888888888888888 0.013888888888888888 0.125 0.013888888888888888 0.1527777777777778 0.013888888888888888 0.013888888888888888 0.041666666666666664 0.09722222222222222 0.013888888888888888 0.013888888888888888 0.041666666666666664 0.20833333333333334 0.013888888888888888 0.013888888888888888 
0.01 0.01 0.01 0.01 0.01 0.01 0.01 0.01 0.01 0.01 0.01 0.01 0.01 0.01 0.01 0.01 0.01 0.01 0.01 0.01 0.11 0.25 0.09 0.09 0.21 0.01 0.01 0.01 0.01 0.01 
0.00980392156862745 0.00980392156862745 0.00980392156862745 0.00980392156862745 0.00980392156862745 0.00980392156862745 0.00980392156862745 0.00980392156862745 0.00980392156862745 0.00980392156862745 0.00980392156862745 0.00980392156862745 0.00980392156862745 0.00980392156862745 0.00980392156862745 0.00980392156862745 0.00980392156862745 0.00980392156862745 0.00980392156862745 0.00980392156862745 0.30392156862745096 0.16666666666666666 0.00980392156862745 0.06862745098039216 0.12745098039215685 0.06862745098039216 0.00980392156862745 0.029411764705882353 0.00980392156862745 0.00980392156862745 
0.027777777777777776 0.027777777777777776 0.027777777777777776 0.027777777777777776 0.027777777777777776 0.027777777777777776 0.027777777777777776 0.027777777777777776 0.027777777777777776 0.027777777777777776 0.027777777777777776 0.027777777777777776 0.027777777777777776 0.027777777777777776 0.027777777777777776 0.027777777777777776 0.027777777777777776 0.027777777777777776 0.027777777777777776 0.19444444444444445 0.027777777777777776 0.027777777777777776 0.027777777777777776 0.027777777777777776 0.027777777777777776 0.027777777777777776 0.027777777777777776 0.027777777777777776 0.027777777777777776 0.027777777777777776 
0.022727272727272728 0.022727272727272728 0.022727272727272728 0.022727272727272728 0.022727272727272728 0.022727272727272728 0.022727272727272728 0.022727272727272728 0.022727272727272728 0.022727272727272728 0.022727272727272728 0.022727272727272728 0.022727272727272728 0.022727272727272728 0.022727272727272728 0.022727272727272728 0.022727272727272728 0.022727272727272728 0.022727272727272728 0.022727272727272728 0.1590909090909091 0.20454545454545456 0.022727272727272728 0.022727272727272728 0.022727272727272728 0.022727272727272728 0.022727272727272728 0.022727272727272728 0.022727272727272728 0.022727272727272728 
0.027777777777777776 0.027777777777777776 0.027777777777777776 0.027777777777777776 0.027777777777777776 0.027777777777777776 0.027777777777777776 0.027777777777777776 0.027777777777777776 0.027777777777777776 0.027777777777777776 0.027777777777777776 0.027777777777777776 0.027777777777777776 0.027777777777777776 0.027777777777777776 0.027777777777777776 0.027777777777777776 0.027777777777777776 0.027777777777777776 0.19444444444444445 0.027777777777777776 0.027777777777777776 0.027777777777777776 0.027777777777777776 0.027777777777777776 0.027777777777777776 0.027777777777777776 0.027777777777777776 0.027777777777777776 
0.017241379310344827 0.017241379310344827 0.017241379310344827 0.017241379310344827 0.017241379310344827 0.017241379310344827 0.017241379310344827 0.017241379310344827 0.017241379310344827 0.017241379310344827 0.017241379310344827 0.017241379310344827 0.017241379310344827 0.017241379310344827 0.017241379310344827 0.017241379310344827 0.017241379310344827 0.3275862068965517 0.017241379310344827 0.017241379310344827 0.017241379310344827 0.017241379310344827 0.1896551724137931 0.017241379310344827 0.017241379310344827 0.017241379310344827 0.017241379310344827 0.017241379310344827 0.017241379310344827 0.017241379310344827 
</TABLE>
</DEFINITION>
<DEFINITION>
<FOR>AVG0</FOR>
<GIVEN>W</GIVEN>
<GIVEN>RPI0</GIVEN>
<TABLE>
0.03333333333333333 0.03333333333333333 0.03333333333333333 0.03333333333333333 0.03333333333333333 0.03333333333333333 0.03333333333333333 0.03333333333333333 0.03333333333333333 0.03333333333333333 0.03333333333333333 0.03333333333333333 0.03333333333333333 0.03333333333333333 0.03333333333333333 0.03333333333333333 0.03333333333333333 0.03333333333333333 0.03333333333333333 0.03333333333333333 0.03333333333333333 0.03333333333333333 0.03333333333333333 0.03333333333333333 0.03333333333333333 0.03333333333333333 0.03333333333333333 0.03333333333333333 0.03333333333333333 0.03333333333333333 
0.03333333333333333 0.03333333333333333 0.03333333333333333 0.03333333333333333 0.03333333333333333 0.03333333333333333 0.03333333333333333 0.03333333333333333 0.03333333333333333 0.03333333333333333 0.03333333333333333 0.03333333333333333 0.03333333333333333 0.03333333333333333 0.03333333333333333 0.03333333333333333 0.03333333333333333 0.03333333333333333 0.03333333333333333 0.03333333333333333 0.03333333333333333 0.03333333333333333 0.03333333333333333 0.03333333333333333 0.03333333333333333 0.03333333333333333 0.03333333333333333 0.03333333333333333 0.03333333333333333 0.03333333333333333 
0.03333333333333333 0.03333333333333333 0.03333333333333333 0.03333333333333333 0.03333333333333333 0.03333333333333333 0.03333333333333333 0.03333333333333333 0.03333333333333333 0.03333333333333333 0.03333333333333333 0.03333333333333333 0.03333333333333333 0.03333333333333333 0.03333333333333333 0.03333333333333333 0.03333333333333333 0.03333333333333333 0.03333333333333333 0.03333333333333333 0.03333333333333333 0.03333333333333333 0.03333333333333333 0.03333333333333333 0.03333333333333333 0.03333333333333333 0.03333333333333333 0.03333333333333333 0.03333333333333333 0.03333333333333333 
0.03333333333333333 0.03333333333333333 0.03333333333333333 0.03333333333333333 0.03333333333333333 0.03333333333333333 0.03333333333333333 0.03333333333333333 0.03333333333333333 0.03333333333333333 0.03333333333333333 0.03333333333333333 0.03333333333333333 0.03333333333333333 0.03333333333333333 0.03333333333333333 0.03333333333333333 0.03333333333333333 0.03333333333333333 0.03333333333333333 0.03333333333333333 0.03333333333333333 0.03333333333333333 0.03333333333333333 0.03333333333333333 0.03333333333333333 0.03333333333333333 0.03333333333333333 0.03333333333333333 0.03333333333333333 
0.03333333333333333 0.03333333333333333 0.03333333333333333 0.03333333333333333 0.03333333333333333 0.03333333333333333 0.03333333333333333 0.03333333333333333 0.03333333333333333 0.03333333333333333 0.03333333333333333 0.03333333333333333 0.03333333333333333 0.03333333333333333 0.03333333333333333 0.03333333333333333 0.03333333333333333 0.03333333333333333 0.03333333333333333 0.03333333333333333 0.03333333333333333 0.03333333333333333 0.03333333333333333 0.03333333333333333 0.03333333333333333 0.03333333333333333 0.03333333333333333 0.03333333333333333 0.03333333333333333 0.03333333333333333 
0.03333333333333333 0.03333333333333333 0.03333333333333333 0.03333333333333333 0.03333333333333333 0.03333333333333333 0.03333333333333333 0.03333333333333333 0.03333333333333333 0.03333333333333333 0.03333333333333333 0.03333333333333333 0.03333333333333333 0.03333333333333333 0.03333333333333333 0.03333333333333333 0.03333333333333333 0.03333333333333333 0.03333333333333333 0.03333333333333333 0.03333333333333333 0.03333333333333333 0.03333333333333333 0.03333333333333333 0.03333333333333333 0.03333333333333333 0.03333333333333333 0.03333333333333333 0.03333333333333333 0.03333333333333333 
0.03333333333333333 0.03333333333333333 0.03333333333333333 0.03333333333333333 0.03333333333333333 0.03333333333333333 0.03333333333333333 0.03333333333333333 0.03333333333333333 0.03333333333333333 0.03333333333333333 0.03333333333333333 0.03333333333333333 0.03333333333333333 0.03333333333333333 0.03333333333333333 0.03333333333333333 0.03333333333333333 0.03333333333333333 0.03333333333333333 0.03333333333333333 0.03333333333333333 0.03333333333333333 0.03333333333333333 0.03333333333333333 0.03333333333333333 0.03333333333333333 0.03333333333333333 0.03333333333333333 0.03333333333333333 
0.03333333333333333 0.03333333333333333 0.03333333333333333 0.03333333333333333 0.03333333333333333 0.03333333333333333 0.03333333333333333 0.03333333333333333 0.03333333333333333 0.03333333333333333 0.03333333333333333 0.03333333333333333 0.03333333333333333 0.03333333333333333 0.03333333333333333 0.03333333333333333 0.03333333333333333 0.03333333333333333 0.03333333333333333 0.03333333333333333 0.03333333333333333 0.03333333333333333 0.03333333333333333 0.03333333333333333 0.03333333333333333 0.03333333333333333 0.03333333333333333 0.03333333333333333 0.03333333333333333 0.03333333333333333 
0.03333333333333333 0.03333333333333333 0.03333333333333333 0.03333333333333333 0.03333333333333333 0.03333333333333333 0.03333333333333333 0.03333333333333333 0.03333333333333333 0.03333333333333333 0.03333333333333333 0.03333333333333333 0.03333333333333333 0.03333333333333333 0.03333333333333333 0.03333333333333333 0.03333333333333333 0.03333333333333333 0.03333333333333333 0.03333333333333333 0.03333333333333333 0.03333333333333333 0.03333333333333333 0.03333333333333333 0.03333333333333333 0.03333333333333333 0.03333333333333333 0.03333333333333333 0.03333333333333333 0.03333333333333333 
0.03333333333333333 0.03333333333333333 0.03333333333333333 0.03333333333333333 0.03333333333333333 0.03333333333333333 0.03333333333333333 0.03333333333333333 0.03333333333333333 0.03333333333333333 0.03333333333333333 0.03333333333333333 0.03333333333333333 0.03333333333333333 0.03333333333333333 0.03333333333333333 0.03333333333333333 0.03333333333333333 0.03333333333333333 0.03333333333333333 0.03333333333333333 0.03333333333333333 0.03333333333333333 0.03333333333333333 0.03333333333333333 0.03333333333333333 0.03333333333333333 0.03333333333333333 0.03333333333333333 0.03333333333333333 
0.03333333333333333 0.03333333333333333 0.03333333333333333 0.03333333333333333 0.03333333333333333 0.03333333333333333 0.03333333333333333 0.03333333333333333 0.03333333333333333 0.03333333333333333 0.03333333333333333 0.03333333333333333 0.03333333333333333 0.03333333333333333 0.03333333333333333 0.03333333333333333 0.03333333333333333 0.03333333333333333 0.03333333333333333 0.03333333333333333 0.03333333333333333 0.03333333333333333 0.03333333333333333 0.03333333333333333 0.03333333333333333 0.03333333333333333 0.03333333333333333 0.03333333333333333 0.03333333333333333 0.03333333333333333 
0.03333333333333333 0.03333333333333333 0.03333333333333333 0.03333333333333333 0.03333333333333333 0.03333333333333333 0.03333333333333333 0.03333333333333333 0.03333333333333333 0.03333333333333333 0.03333333333333333 0.03333333333333333 0.03333333333333333 0.03333333333333333 0.03333333333333333 0.03333333333333333 0.03333333333333333 0.03333333333333333 0.03333333333333333 0.03333333333333333 0.03333333333333333 0.03333333333333333 0.03333333333333333 0.03333333333333333 0.03333333333333333 0.03333333333333333 0.03333333333333333 0.03333333333333333 0.03333333333333333 0.03333333333333333 
0.03333333333333333 0.03333333333333333 0.03333333333333333 0.03333333333333333 0.03333333333333333 0.03333333333333333 0.03333333333333333 0.03333333333333333 0.03333333333333333 0.03333333333333333 0.03333333333333333 0.03333333333333333 0.03333333333333333 0.03333333333333333 0.03333333333333333 0.03333333333333333 0.03333333333333333 0.03333333333333333 0.03333333333333333 0.03333333333333333 0.03333333333333333 0.03333333333333333 0.03333333333333333 0.03333333333333333 0.03333333333333333 0.03333333333333333 0.03333333333333333 0.03333333333333333 0.03333333333333333 0.03333333333333333 
0.03333333333333333 0.03333333333333333 0.03333333333333333 0.03333333333333333 0.03333333333333333 0.03333333333333333 0.03333333333333333 0.03333333333333333 0.03333333333333333 0.03333333333333333 0.03333333333333333 0.03333333333333333 0.03333333333333333 0.03333333333333333 0.03333333333333333 0.03333333333333333 0.03333333333333333 0.03333333333333333 0.03333333333333333 0.03333333333333333 0.03333333333333333 0.03333333333333333 0.03333333333333333 0.03333333333333333 0.03333333333333333 0.03333333333333333 0.03333333333333333 0.03333333333333333 0.03333333333333333 0.03333333333333333 
0.03333333333333333 0.03333333333333333 0.03333333333333333 0.03333333333333333 0.03333333333333333 0.03333333333333333 0.03333333333333333 0.03333333333333333 0.03333333333333333 0.03333333333333333 0.03333333333333333 0.03333333333333333 0.03333333333333333 0.03333333333333333 0.03333333333333333 0.03333333333333333 0.03333333333333333 0.03333333333333333 0.03333333333333333 0.03333333333333333 0.03333333333333333 0.03333333333333333 0.03333333333333333 0.03333333333333333 0.03333333333333333 0.03333333333333333 0.03333333333333333 0.03333333333333333 0.03333333333333333 0.03333333333333333 
0.03333333333333333 0.03333333333333333 0.03333333333333333 0.03333333333333333 0.03333333333333333 0.03333333333333333 0.03333333333333333 0.03333333333333333 0.03333333333333333 0.03333333333333333 0.03333333333333333 0.03333333333333333 0.03333333333333333 0.03333333333333333 0.03333333333333333 0.03333333333333333 0.03333333333333333 0.03333333333333333 0.03333333333333333 0.03333333333333333 0.03333333333333333 0.03333333333333333 0.03333333333333333 0.03333333333333333 0.03333333333333333 0.03333333333333333 0.03333333333333333 0.03333333333333333 0.03333333333333333 0.03333333333333333 
0.03333333333333333 0.03333333333333333 0.03333333333333333 0.03333333333333333 0.03333333333333333 0.03333333333333333 0.03333333333333333 0.03333333333333333 0.03333333333333333 0.03333333333333333 0.03333333333333333 0.03333333333333333 0.03333333333333333 0.03333333333333333 0.03333333333333333 0.03333333333333333 0.03333333333333333 0.03333333333333333 0.03333333333333333 0.03333333333333333 0.03333333333333333 0.03333333333333333 0.03333333333333333 0.03333333333333333 0.03333333333333333 0.03333333333333333 0.03333333333333333 0.03333333333333333 0.03333333333333333 0.03333333333333333 
0.03333333333333333 0.03333333333333333 0.03333333333333333 0.03333333333333333 0.03333333333333333 0.03333333333333333 0.03333333333333333 0.03333333333333333 0.03333333333333333 0.03333333333333333 0.03333333333333333 0.03333333333333333 0.03333333333333333 0.03333333333333333 0.03333333333333333 0.03333333333333333 0.03333333333333333 0.03333333333333333 0.03333333333333333 0.03333333333333333 0.03333333333333333 0.03333333333333333 0.03333333333333333 0.03333333333333333 0.03333333333333333 0.03333333333333333 0.03333333333333333 0.03333333333333333 0.03333333333333333 0.03333333333333333 
0.03125 0.03125 0.03125 0.03125 0.03125 0.03125 0.03125 0.03125 0.03125 0.03125 0.03125 0.03125 0.03125 0.03125 0.09375 0.03125 0.03125 0.03125 0.03125 0.03125 0.03125 0.03125 0.03125 0.03125 0.03125 0.03125 0.03125 0.03125 0.03125 0.03125 
0.025 0.025 0.025 0.025 0.025 0.025 0.025 0.025 0.025 0.025 0.025 0.025 0.025 0.025 0.025 0.025 0.225 0.075 0.025 0.025 0.025 0.025 0.025 0.025 0.025 0.025 0.025 0.025 0.025 0.025 
0.017241379310344827 0.017241379310344827 0.017241379310344827 0.017241379310344827 0.017241379310344827 0.017241379310344827 0.017241379310344827 0.017241379310344827 0.017241379310344827 0.017241379310344827 0.017241379310344827 0.017241379310344827 0.017241379310344827 0.017241379310344827 0.017241379310344827 0.017241379310344827 0.017241379310344827 0.39655172413793105 0.08620689655172414 0.05172413793103448 0.017241379310344827 0.017241379310344827 0.017241379310344827 0.017241379310344827 0.017241379310344827 0.017241379310344827 0.017241379310344827 0.017241379310344827 0.017241379310344827 0.017241379310344827 
0.008620689655172414 0.008620689655172414 0.008620689655172414 0.008620689655172414 0.008620689655172414 0.008620689655172414 0.008620689655172414 0.008620689655172414 0.008620689655172414 0.008620689655172414 0.008620689655172414 0.008620689655172414 0.008620689655172414 0.008620689655172414 0.008620689655172414 0.008620689655172414 0.008620689655172414 0.008620689655172414 0.19827586206896552 0.31896551724137934 0.25 0.008620689655172414 0.008620689655172414 0.008620689655172414 0.008620689655172414 0.008620689655172414 0.008620689655172414 0.008620689655172414 0.008620689655172414 0.008620689655172414 
0.006944444444444444 0.006944444444444444 0.006944444444444444 0.006944444444444444 0.006944444444444444 0.006944444444444444 0.006944444444444444 0.006944444444444444 0.006944444444444444 0.006944444444444444 0.006944444444444444 0.006944444444444444 0.006944444444444444 0.006944444444444444 0.006944444444444444 0.006944444444444444 0.006944444444444444 0.006944444444444444 0.006944444444444444 0.2847222222222222 0.3958333333333333 0.0763888888888889 0.0625 0.006944444444444444 0.006944444444444444 0.006944444444444444 0.006944444444444444 0.006944444444444444 0.006944444444444444 0.006944444444444444 
0.010416666666666666 0.010416666666666666 0.010416666666666666 0.010416666666666666 0.010416666666666666 0.010416666666666666 0.010416666666666666 0.010416666666666666 0.010416666666666666 0.010416666666666666 0.010416666666666666 0.010416666666666666 0.010416666666666666 0.010416666666666666 0.010416666666666666 0.010416666666666666 0.010416666666666666 0.010416666666666666 0.010416666666666666 0.010416666666666666 0.21875 0.4270833333333333 0.010416666666666666 0.07291666666666667 0.010416666666666666 0.010416666666666666 0.010416666666666666 0.010416666666666666 0.010416666666666666 0.010416666666666666 
0.005263157894736842 0.005263157894736842 0.005263157894736842 0.005263157894736842 0.005263157894736842 0.005263157894736842 0.005263157894736842 0.005263157894736842 0.005263157894736842 0.005263157894736842 0.005263157894736842 0.005263157894736842 0.005263157894736842 0.005263157894736842 0.005263157894736842 0.005263157894736842 0.005263157894736842 0.005263157894736842 0.005263157894736842 0.005263157894736842 0.005263157894736842 0.005263157894736842 0.39473684210526316 0.20526315789473684 0.2578947368421053 0.005263157894736842 0.005263157894736842 0.005263157894736842 0.005263157894736842 0.005263157894736842 
0.003472222222222222 0.003472222222222222 0.003472222222222222 0.003472222222222222 0.003472222222222222 0.003472222222222222 0.003472222222222222 0.003472222222222222 0.003472222222222222 0.003472222222222222 0.003472222222222222 0.003472222222222222 0.003472222222222222 0.003472222222222222 0.003472222222222222 0.003472222222222222 0.003472222222222222 0.003472222222222222 0.003472222222222222 0.003472222222222222 0.003472222222222222 0.003472222222222222 0.08680555555555555 0.5243055555555556 0.2326388888888889 0.06597222222222222 0.003472222222222222 0.003472222222222222 0.003472222222222222 0.003472222222222222 
0.020833333333333332 0.020833333333333332 0.020833333333333332 0.020833333333333332 0.020833333333333332 0.020833333333333332 0.020833333333333332 0.020833333333333332 0.020833333333333332 0.020833333333333332 0.020833333333333332 0.020833333333333332 0.020833333333333332 0.020833333333333332 0.020833333333333332 0.020833333333333332 0.020833333333333332 0.020833333333333332 0.020833333333333332 0.020833333333333332 0.020833333333333332 0.020833333333333332 0.020833333333333332 0.020833333333333332 0.3958333333333333 0.020833333333333332 0.020833333333333332 0.020833333333333332 0.020833333333333332 0.020833333333333332 
0.011627906976744186 0.011627906976744186 0.011627906976744186 0.011627906976744186 0.011627906976744186 0.011627906976744186 0.011627906976744186 0.011627906976744186 0.011627906976744186 0.011627906976744186 0.011627906976744186 0.011627906976744186 0.011627906976744186 0.011627906976744186 0.011627906976744186 0.011627906976744186 0.011627906976744186 0.011627906976744186 0.011627906976744186 0.011627906976744186 0.011627906976744186 0.011627906976744186 0.011627906976744186 0.011627906976744186 0.011627906976744186 0.011627906976744186 0.6627906976744186 0.011627906976744186 0.011627906976744186 0.011627906976744186 
0.012195121951219513 0.012195121951219513 0.012195121951219513 0.012195121951219513 0.012195121951219513 0.012195121951219513 0.012195121951219513 0.012195121951219513 0.012195121951219513 0.012195121951219513 0.012195121951219513 0.012195121951219513 0.012195121951219513 0.012195121951219513 0.012195121951219513 0.012195121951219513 0.012195121951219513 0.012195121951219513 0.012195121951219513 0.012195121951219513 0.012195121951219513 0.012195121951219513 0.012195121951219513 0.012195121951219513 0.012195121951219513 0.012195121951219513 0.012195121951219513 0.6463414634146342 0.012195121951219513 0.012195121951219513 
0.007575757575757576 0.007575757575757576 0.007575757575757576 0.007575757575757576 0.007575757575757576 0.007575757575757576 0.007575757575757576 0.007575757575757576 0.007575757575757576 0.007575757575757576 0.007575757575757576 0.007575757575757576 0.007575757575757576 0.007575757575757576 0.007575757575757576 0.007575757575757576 0.007575757575757576 0.007575757575757576 0.007575757575757576 0.007575757575757576 0.007575757575757576 0.007575757575757576 0.007575757575757576 0.007575757575757576 0.007575757575757576 0.007575757575757576 0.007575757575757576 0.007575757575757576 0.3712121212121212 0.4166666666666667 
0.03333333333333333 0.03333333333333333 0.03333333333333333 0.03333333333333333 0.03333333333333333 0.03333333333333333 0.03333333333333333 0.03333333333333333 0.03333333333333333 0.03333333333333333 0.03333333333333333 0.03333333333333333 0.03333333333333333 0.03333333333333333 0.03333333333333333 0.03333333333333333 0.03333333333333333 0.03333333333333333 0.03333333333333333 0.03333333333333333 0.03333333333333333 0.03333333333333333 0.03333333333333333 0.03333333333333333 0.03333333333333333 0.03333333333333333 0.03333333333333333 0.03333333333333333 0.03333333333333333 0.03333333333333333 
0.03333333333333333 0.03333333333333333 0.03333333333333333 0.03333333333333333 0.03333333333333333 0.03333333333333333 0.03333333333333333 0.03333333333333333 0.03333333333333333 0.03333333333333333 0.03333333333333333 0.03333333333333333 0.03333333333333333 0.03333333333333333 0.03333333333333333 0.03333333333333333 0.03333333333333333 0.03333333333333333 0.03333333333333333 0.03333333333333333 0.03333333333333333 0.03333333333333333 0.03333333333333333 0.03333333333333333 0.03333333333333333 0.03333333333333333 0.03333333333333333 0.03333333333333333 0.03333333333333333 0.03333333333333333 
0.03333333333333333 0.03333333333333333 0.03333333333333333 0.03333333333333333 0.03333333333333333 0.03333333333333333 0.03333333333333333 0.03333333333333333 0.03333333333333333 0.03333333333333333 0.03333333333333333 0.03333333333333333 0.03333333333333333 0.03333333333333333 0.03333333333333333 0.03333333333333333 0.03333333333333333 0.03333333333333333 0.03333333333333333 0.03333333333333333 0.03333333333333333 0.03333333333333333 0.03333333333333333 0.03333333333333333 0.03333333333333333 0.03333333333333333 0.03333333333333333 0.03333333333333333 0.03333333333333333 0.03333333333333333 
0.03333333333333333 0.03333333333333333 0.03333333333333333 0.03333333333333333 0.03333333333333333 0.03333333333333333 0.03333333333333333 0.03333333333333333 0.03333333333333333 0.03333333333333333 0.03333333333333333 0.03333333333333333 0.03333333333333333 0.03333333333333333 0.03333333333333333 0.03333333333333333 0.03333333333333333 0.03333333333333333 0.03333333333333333 0.03333333333333333 0.03333333333333333 0.03333333333333333 0.03333333333333333 0.03333333333333333 0.03333333333333333 0.03333333333333333 0.03333333333333333 0.03333333333333333 0.03333333333333333 0.03333333333333333 
0.03333333333333333 0.03333333333333333 0.03333333333333333 0.03333333333333333 0.03333333333333333 0.03333333333333333 0.03333333333333333 0.03333333333333333 0.03333333333333333 0.03333333333333333 0.03333333333333333 0.03333333333333333 0.03333333333333333 0.03333333333333333 0.03333333333333333 0.03333333333333333 0.03333333333333333 0.03333333333333333 0.03333333333333333 0.03333333333333333 0.03333333333333333 0.03333333333333333 0.03333333333333333 0.03333333333333333 0.03333333333333333 0.03333333333333333 0.03333333333333333 0.03333333333333333 0.03333333333333333 0.03333333333333333 
0.03333333333333333 0.03333333333333333 0.03333333333333333 0.03333333333333333 0.03333333333333333 0.03333333333333333 0.03333333333333333 0.03333333333333333 0.03333333333333333 0.03333333333333333 0.03333333333333333 0.03333333333333333 0.03333333333333333 0.03333333333333333 0.03333333333333333 0.03333333333333333 0.03333333333333333 0.03333333333333333 0.03333333333333333 0.03333333333333333 0.03333333333333333 0.03333333333333333 0.03333333333333333 0.03333333333333333 0.03333333333333333 0.03333333333333333 0.03333333333333333 0.03333333333333333 0.03333333333333333 0.03333333333333333 
0.03333333333333333 0.03333333333333333 0.03333333333333333 0.03333333333333333 0.03333333333333333 0.03333333333333333 0.03333333333333333 0.03333333333333333 0.03333333333333333 0.03333333333333333 0.03333333333333333 0.03333333333333333 0.03333333333333333 0.03333333333333333 0.03333333333333333 0.03333333333333333 0.03333333333333333 0.03333333333333333 0.03333333333333333 0.03333333333333333 0.03333333333333333 0.03333333333333333 0.03333333333333333 0.03333333333333333 0.03333333333333333 0.03333333333333333 0.03333333333333333 0.03333333333333333 0.03333333333333333 0.03333333333333333 
0.03333333333333333 0.03333333333333333 0.03333333333333333 0.03333333333333333 0.03333333333333333 0.03333333333333333 0.03333333333333333 0.03333333333333333 0.03333333333333333 0.03333333333333333 0.03333333333333333 0.03333333333333333 0.03333333333333333 0.03333333333333333 0.03333333333333333 0.03333333333333333 0.03333333333333333 0.03333333333333333 0.03333333333333333 0.03333333333333333 0.03333333333333333 0.03333333333333333 0.03333333333333333 0.03333333333333333 0.03333333333333333 0.03333333333333333 0.03333333333333333 0.03333333333333333 0.03333333333333333 0.03333333333333333 
0.03333333333333333 0.03333333333333333 0.03333333333333333 0.03333333333333333 0.03333333333333333 0.03333333333333333 0.03333333333333333 0.03333333333333333 0.03333333333333333 0.03333333333333333 0.03333333333333333 0.03333333333333333 0.03333333333333333 0.03333333333333333 0.03333333333333333 0.03333333333333333 0.03333333333333333 0.03333333333333333 0.03333333333333333 0.03333333333333333 0.03333333333333333 0.03333333333333333 0.03333333333333333 0.03333333333333333 0.03333333333333333 0.03333333333333333 0.03333333333333333 0.03333333333333333 0.03333333333333333 0.03333333333333333 
0.03333333333333333 0.03333333333333333 0.03333333333333333 0.03333333333333333 0.03333333333333333 0.03333333333333333 0.03333333333333333 0.03333333333333333 0.03333333333333333 0.03333333333333333 0.03333333333333333 0.03333333333333333 0.03333333333333333 0.03333333333333333 0.03333333333333333 0.03333333333333333 0.03333333333333333 0.03333333333333333 0.03333333333333333 0.03333333333333333 0.03333333333333333 0.03333333333333333 0.03333333333333333 0.03333333333333333 0.03333333333333333 0.03333333333333333 0.03333333333333333 0.03333333333333333 0.03333333333333333 0.03333333333333333 
0.03333333333333333 0.03333333333333333 0.03333333333333333 0.03333333333333333 0.03333333333333333 0.03333333333333333 0.03333333333333333 0.03333333333333333 0.03333333333333333 0.03333333333333333 0.03333333333333333 0.03333333333333333 0.03333333333333333 0.03333333333333333 0.03333333333333333 0.03333333333333333 0.03333333333333333 0.03333333333333333 0.03333333333333333 0.03333333333333333 0.03333333333333333 0.03333333333333333 0.03333333333333333 0.03333333333333333 0.03333333333333333 0.03333333333333333 0.03333333333333333 0.03333333333333333 0.03333333333333333 0.03333333333333333 
0.03333333333333333 0.03333333333333333 0.03333333333333333 0.03333333333333333 0.03333333333333333 0.03333333333333333 0.03333333333333333 0.03333333333333333 0.03333333333333333 0.03333333333333333 0.03333333333333333 0.03333333333333333 0.03333333333333333 0.03333333333333333 0.03333333333333333 0.03333333333333333 0.03333333333333333 0.03333333333333333 0.03333333333333333 0.03333333333333333 0.03333333333333333 0.03333333333333333 0.03333333333333333 0.03333333333333333 0.03333333333333333 0.03333333333333333 0.03333333333333333 0.03333333333333333 0.03333333333333333 0.03333333333333333 
0.03333333333333333 0.03333333333333333 0.03333333333333333 0.03333333333333333 0.03333333333333333 0.03333333333333333 0.03333333333333333 0.03333333333333333 0.03333333333333333 0.03333333333333333 0.03333333333333333 0.03333333333333333 0.03333333333333333 0.03333333333333333 0.03333333333333333 0.03333333333333333 0.03333333333333333 0.03333333333333333 0.03333333333333333 0.03333333333333333 0.03333333333333333 0.03333333333333333 0.03333333333333333 0.03333333333333333 0.03333333333333333 0.03333333333333333 0.03333333333333333 0.03333333333333333 0.03333333333333333 0.03333333333333333 
0.03333333333333333 0.03333333333333333 0.03333333333333333 0.03333333333333333 0.03333333333333333 0.03333333333333333 0.03333333333333333 0.03333333333333333 0.03333333333333333 0.03333333333333333 0.03333333333333333 0.03333333333333333 0.03333333333333333 0.03333333333333333 0.03333333333333333 0.03333333333333333 0.03333333333333333 0.03333333333333333 0.03333333333333333 0.03333333333333333 0.03333333333333333 0.03333333333333333 0.03333333333333333 0.03333333333333333 0.03333333333333333 0.03333333333333333 0.03333333333333333 0.03333333333333333 0.03333333333333333 0.03333333333333333 
0.03333333333333333 0.03333333333333333 0.03333333333333333 0.03333333333333333 0.03333333333333333 0.03333333333333333 0.03333333333333333 0.03333333333333333 0.03333333333333333 0.03333333333333333 0.03333333333333333 0.03333333333333333 0.03333333333333333 0.03333333333333333 0.03333333333333333 0.03333333333333333 0.03333333333333333 0.03333333333333333 0.03333333333333333 0.03333333333333333 0.03333333333333333 0.03333333333333333 0.03333333333333333 0.03333333333333333 0.03333333333333333 0.03333333333333333 0.03333333333333333 0.03333333333333333 0.03333333333333333 0.03333333333333333 
0.03333333333333333 0.03333333333333333 0.03333333333333333 0.03333333333333333 0.03333333333333333 0.03333333333333333 0.03333333333333333 0.03333333333333333 0.03333333333333333 0.03333333333333333 0.03333333333333333 0.03333333333333333 0.03333333333333333 0.03333333333333333 0.03333333333333333 0.03333333333333333 0.03333333333333333 0.03333333333333333 0.03333333333333333 0.03333333333333333 0.03333333333333333 0.03333333333333333 0.03333333333333333 0.03333333333333333 0.03333333333333333 0.03333333333333333 0.03333333333333333 0.03333333333333333 0.03333333333333333 0.03333333333333333 
0.03333333333333333 0.03333333333333333 0.03333333333333333 0.03333333333333333 0.03333333333333333 0.03333333333333333 0.03333333333333333 0.03333333333333333 0.03333333333333333 0.03333333333333333 0.03333333333333333 0.03333333333333333 0.03333333333333333 0.03333333333333333 0.03333333333333333 0.03333333333333333 0.03333333333333333 0.03333333333333333 0.03333333333333333 0.03333333333333333 0.03333333333333333 0.03333333333333333 0.03333333333333333 0.03333333333333333 0.03333333333333333 0.03333333333333333 0.03333333333333333 0.03333333333333333 0.03333333333333333 0.03333333333333333 
0.027777777777777776 0.027777777777777776 0.027777777777777776 0.027777777777777776 0.027777777777777776 0.027777777777777776 0.027777777777777776 0.027777777777777776 0.027777777777777776 0.027777777777777776 0.027777777777777776 0.027777777777777776 0.027777777777777776 0.08333333333333333 0.08333333333333333 0.027777777777777776 0.08333333333333333 0.027777777777777776 0.027777777777777776 0.027777777777777776 0.027777777777777776 0.027777777777777776 0.027777777777777776 0.027777777777777776 0.027777777777777776 0.027777777777777776 0.027777777777777776 0.027777777777777776 0.027777777777777776 0.027777777777777776 
0.029411764705882353 0.029411764705882353 0.029411764705882353 0.029411764705882353 0.029411764705882353 0.029411764705882353 0.029411764705882353 0.029411764705882353 0.029411764705882353 0.029411764705882353 0.029411764705882353 0.029411764705882353 0.029411764705882353 0.029411764705882353 0.029411764705882353 0.14705882352941177 0.029411764705882353 0.029411764705882353 0.029411764705882353 0.029411764705882353 0.029411764705882353 0.029411764705882353 0.029411764705882353 0.029411764705882353 0.029411764705882353 0.029411764705882353 0.029411764705882353 0.029411764705882353 0.029411764705882353 0.029411764705882353 
0.025 0.025 0.025 0.025 0.025 0.025 0.025 0.025 0.025 0.025 0.025 0.025 0.025 0.025 0.025 0.025 0.125 0.125 0.075 0.025 0.025 0.025 0.025 0.025 0.025 0.025 0.025 0.025 0.025 0.025 
0.016666666666666666 0.016666666666666666 0.016666666666666666 0.016666666666666666 0.016666666666666666 0.016666666666666666 0.016666666666666666 0.016666666666666666 0.016666666666666666 0.016666666666666666 0.016666666666666666 0.016666666666666666 0.016666666666666666 0.016666666666666666 0.016666666666666666 0.016666666666666666 0.016666666666666666 0.25 0.2833333333333333 0.016666666666666666 0.016666666666666666 0.016666666666666666 0.016666666666666666 0.016666666666666666 0.016666666666666666 0.016666666666666666 0.016666666666666666 0.016666666666666666 0.016666666666666666 0.016666666666666666 
0.010869565217391304 0.010869565217391304 0.010869565217391304 0.010869565217391304 0.010869565217391304 0.010869565217391304 0.010869565217391304 0.010869565217391304 0.010869565217391304 0.010869565217391304 0.010869565217391304 0.010869565217391304 0.010869565217391304 0.010869565217391304 0.010869565217391304 0.010869565217391304 0.010869565217391304 0.010869565217391304 0.18478260869565216 0.33695652173913043 0.18478260869565216 0.010869565217391304 0.010869565217391304 0.010869565217391304 0.010869565217391304 0.010869565217391304 0.010869565217391304 0.010869565217391304 0.010869565217391304 0.010869565217391304 
0.008771929824561403 0.008771929824561403 0.008771929824561403 0.008771929824561403 0.008771929824561403 0.008771929824561403 0.008771929824561403 0.008771929824561403 0.008771929824561403 0.008771929824561403 0.008771929824561403 0.008771929824561403 0.008771929824561403 0.008771929824561403 0.008771929824561403 0.008771929824561403 0.008771929824561403 0.008771929824561403 0.008771929824561403 0.16666666666666666 0.5 0.06140350877192982 0.043859649122807015 0.008771929824561403 0.008771929824561403 0.008771929824561403 0.008771929824561403 0.008771929824561403 0.008771929824561403 0.008771929824561403 
0.013888888888888888 0.013888888888888888 0.013888888888888888 0.013888888888888888 0.013888888888888888 0.013888888888888888 0.013888888888888888 0.013888888888888888 0.013888888888888888 0.013888888888888888 0.013888888888888888 0.013888888888888888 0.013888888888888888 0.013888888888888888 0.013888888888888888 0.013888888888888888 0.013888888888888888 0.013888888888888888 0.013888888888888888 0.013888888888888888 0.09722222222222222 0.3472222222222222 0.041666666666666664 0.1527777777777778 0.013888888888888888 0.013888888888888888 0.013888888888888888 0.013888888888888888 0.013888888888888888 0.013888888888888888 
0.01 0.01 0.01 0.01 0.01 0.01 0.01 0.01 0.01 0.01 0.01 0.01 0.01 0.01 0.01 0.01 0.01 0.01 0.01 0.01 0.01 0.01 0.31 0.23 0.19 0.01 0.01 0.01 0.01 0.01 
0.00980392156862745 0.00980392156862745 0.00980392156862745 0.00980392156862745 0.00980392156862745 0.00980392156862745 0.00980392156862745 0.00980392156862745 0.00980392156862745 0.00980392156862745 0.00980392156862745 0.00980392156862745 0.00980392156862745 0.00980392156862745 0.00980392156862745 0.00980392156862745 0.00980392156862745 0.00980392156862745 0.00980392156862745 0.00980392156862745 0.00980392156862745 0.00980392156862745 0.10784313725490197 0.38235294117647056 0.12745098039215685 0.12745098039215685 0.00980392156862745 0.00980392156862745 0.00980392156862745 0.00980392156862745 
0.027777777777777776 0.027777777777777776 0.027777777777777776 0.027777777777777776 0.027777777777777776 0.027777777777777776 0.027777777777777776 0.027777777777777776 0.027777777777777776 0.027777777777777776 0.027777777777777776 0.027777777777777776 0.027777777777777776 0.027777777777777776 0.027777777777777776 0.027777777777777776 0.027777777777777776 0.027777777777777776 0.027777777777777776 0.027777777777777776 0.027777777777777776 0.027777777777777776 0.027777777777777776 0.027777777777777776 0.19444444444444445 0.027777777777777776 0.027777777777777776 0.027777777777777776 0.027777777777777776 0.027777777777777776 
0.022727272727272728 0.022727272727272728 0.022727272727272728 0.022727272727272728 0.022727272727272728 0.022727272727272728 0.022727272727272728 0.022727272727272728 0.022727272727272728 0.022727272727272728 0.022727272727272728 0.022727272727272728 0.022727272727272728 0.022727272727272728 0.022727272727272728 0.022727272727272728 0.022727272727272728 0.022727272727272728 0.022727272727272728 0.022727272727272728 0.022727272727272728 0.022727272727272728 0.022727272727272728 0.022727272727272728 0.022727272727272728 0.022727272727272728 0.3409090909090909 0.022727272727272728 0.022727272727272728 0.022727272727272728 
0.027777777777777776 0.027777777777777776 0.027777777777777776 0.027777777777777776 0.027777777777777776 0.027777777777777776 0.027777777777777776 0.027777777777777776 0.027777777777777776 0.027777777777777776 0.027777777777777776 0.027777777777777776 0.027777777777777776 0.027777777777777776 0.027777777777777776 0.027777777777777776 0.027777777777777776 0.027777777777777776 0.027777777777777776 0.027777777777777776 0.027777777777777776 0.027777777777777776 0.027777777777777776 0.027777777777777776 0.027777777777777776 0.027777777777777776 0.027777777777777776 0.19444444444444445 0.027777777777777776 0.027777777777777776 
0.017241379310344827 0.017241379310344827 0.017241379310344827 0.017241379310344827 0.017241379310344827 0.017241379310344827 0.017241379310344827 0.017241379310344827 0.017241379310344827 0.017241379310344827 0.017241379310344827 0.017241379310344827 0.017241379310344827 0.017241379310344827 0.017241379310344827 0.017241379310344827 0.017241379310344827 0.017241379310344827 0.017241379310344827 0.017241379310344827 0.017241379310344827 0.017241379310344827 0.017241379310344827 0.017241379310344827 0.017241379310344827 0.017241379310344827 0.017241379310344827 0.017241379310344827 0.1896551724137931 0.3275862068965517 
</TABLE>
</DEFINITION>
<DEFINITION>
<FOR>RPI1</FOR>
<GIVEN>W</GIVEN>
<TABLE>
0.0010183299389002036 0.0010183299389002036 0.0010183299389002036 0.0010183299389002036 0.0010183299389002036 0.0010183299389002036 0.0010183299389002036 0.0010183299389002036 0.0010183299389002036 0.0010183299389002036 0.0010183299389002036 0.0010183299389002036 0.0010183299389002036 0.0010183299389002036 0.0050916496945010185 0.007128309572301426 0.03767820773930754 0.06415478615071284 0.07433808553971487 0.12118126272912423 0.09063136456211812 0.1354378818737271 0.14765784114052954 0.05804480651731161 0.0845213849287169 0.10488798370672098 0.013238289205702648 0.017311608961303463 0.01120162932790224 0.013238289205702648 
0.0021551724137931034 0.0021551724137931034 0.0021551724137931034 0.0021551724137931034 0.0021551724137931034 0.0021551724137931034 0.0021551724137931034 0.0021551724137931034 0.0021551724137931034 0.0021551724137931034 0.0021551724137931034 0.0021551724137931034 0.0021551724137931034 0.0021551724137931034 0.0021551724137931034 0.0021551724137931034 0.00646551724137931 0.015086206896551725 0.028017241379310345 0.04956896551724138 0.08405172413793104 0.1788793103448276 0.14439655172413793 0.08836206896551724 0.09698275862068965 0.16163793103448276 0.023706896551724137 0.036637931034482756 0.028017241379310345 0.023706896551724137 
</TABLE>
</DEFINITION>
<DEFINITION>
<FOR>PYTH1</FOR>
<GIVEN>W</GIVEN>
<TABLE>
0.03360488798370672 0.015274949083503055 0.0050916496945010185 0.003054989816700611 0.0010183299389002036 0.007128309572301426 0.007128309572301426 0.0050916496945010185 0.003054989816700611 0.0010183299389002036 0.009164969450101833 0.0010183299389002036 0.01120162932790224 0.0050916496945010185 0.0050916496945010185 0.003054989816700611 0.0050916496945010185 0.0010183299389002036 0.0050916496945010185 0.0010183299389002036 0.0010183299389002036 0.013238289205702648 0.013238289205702648 0.015274949083503055 0.007128309572301426 0.01120162932790224 0.017311608961303463 0.021384928716904276 0.03971486761710794 0.7321792260692465 
0.010775862068965518 0.0021551724137931034 0.0021551724137931034 0.0021551724137931034 0.0021551724137931034 0.0021551724137931034 0.0021551724137931034 0.0021551724137931034 0.0021551724137931034 0.0021551724137931034 0.0021551724137931034 0.0021551724137931034 0.00646551724137931 0.0021551724137931034 0.0021551724137931034 0.0021551724137931034 0.0021551724137931034 0.0021551724137931034 0.0021551724137931034 0.0021551724137931034 0.0021551724137931034 0.00646551724137931 0.010775862068965518 0.01939655172413793 0.00646551724137931 0.00646551724137931 0.00646551724137931 0.015086206896551725 0.00646551724137931 0.8642241379310345 
</TABLE>
</DEFINITION>
<DEFINITION>
<FOR>CWG1</FOR>
<GIVEN>W</GIVEN>
<TABLE>
0.0010183299389002036 0.0010183299389002036 0.0010183299389002036 0.0010183299389002036 0.003054989816700611 0.0010183299389002036 0.0010183299389002036 0.0010183299389002036 0.0010183299389002036 0.0010183299389002036 0.0010183299389002036 0.0050916496945010185 0.0010183299389002036 0.003054989816700611 0.007128309572301426 0.015274949083503055 0.025458248472505093 0.035641547861507125 0.04378818737270876 0.11914460285132383 0.159877800407332 0.14765784114052954 0.07230142566191446 0.12118126272912423 0.0845213849287169 0.04175152749490835 0.03767820773930754 0.045824847250509164 0.013238289205702648 0.007128309572301426 
0.0021551724137931034 0.0021551724137931034 0.0021551724137931034 0.0021551724137931034 0.0021551724137931034 0.0021551724137931034 0.0021551724137931034 0.0021551724137931034 0.0021551724137931034 0.0021551724137931034 0.0021551724137931034 0.0021551724137931034 0.0021551724137931034 0.0021551724137931034 0.0021551724137931034 0.0021551724137931034 0.00646551724137931 0.032327586206896554 0.05818965517241379 0.10560344827586207 0.19181034482758622 0.16163793103448276 0.04956896551724138 0.11853448275862069 0.07112068965517242 0.0668103448275862 0.023706896551724137 0.04956896551724138 0.01939655172413793 0.010775862068965518 
</TABLE>
</DEFINITION>
<DEFINITION>
<FOR>AVG1</FOR>
<GIVEN>W</GIVEN>
<GIVEN>RPI1</GIVEN>
<TABLE>
0.03333333333333333 0.03333333333333333 0.03333333333333333 0.03333333333333333 0.03333333333333333 0.03333333333333333 0.03333333333333333 0.03333333333333333 0.03333333333333333 0.03333333333333333 0.03333333333333333 0.03333333333333333 0.03333333333333333 0.03333333333333333 0.03333333333333333 0.03333333333333333 0.03333333333333333 0.03333333333333333 0.03333333333333333 0.03333333333333333 0.03333333333333333 0.03333333333333333 0.03333333333333333 0.03333333333333333 0.03333333333333333 0.03333333333333333 0.03333333333333333 0.03333333333333333 0.03333333333333333 0.03333333333333333 
0.03333333333333333 0.03333333333333333 0.03333333333333333 0.03333333333333333 0.03333333333333333 0.03333333333333333 0.03333333333333333 0.03333333333333333 0.03333333333333333 0.03333333333333333 0.03333333333333333 0.03333333333333333 0.03333333333333333 0.03333333333333333 0.03333333333333333 0.03333333333333333 0.03333333333333333 0.03333333333333333 0.03333333333333333 0.03333333333333333 0.03333333333333333 0.03333333333333333 0.03333333333333333 0.03333333333333333 0.03333333333333333 0.03333333333333333 0.03333333333333333 0.03333333333333333 0.03333333333333333 0.03333333333333333 
0.03333333333333333 0.03333333333333333 0.03333333333333333 0.03333333333333333 0.03333333333333333 0.03333333333333333 0.03333333333333333 0.03333333333333333 0.03333333333333333 0.03333333333333333 0.03333333333333333 0.03333333333333333 0.03333333333333333 0.03333333333333333 0.03333333333333333 0.03333333333333333 0.03333333333333333 0.03333333333333333 0.03333333333333333 0.03333333333333333 0.03333333333333333 0.03333333333333333 0.03333333333333333 0.03333333333333333 0.03333333333333333 0.03333333333333333 0.03333333333333333 0.03333333333333333 0.03333333333333333 0.03333333333333333 
0.03333333333333333 0.03333333333333333 0.03333333333333333 0.03333333333333333 0.03333333333333333 0.03333333333333333 0.03333333333333333 0.03333333333333333 0.03333333333333333 0.03333333333333333 0.03333333333333333 0.03333333333333333 0.03333333333333333 0.03333333333333333 0.03333333333333333 0.03333333333333333 0.03333333333333333 0.03333333333333333 0.03333333333333333 0.03333333333333333 0.03333333333333333 0.03333333333333333 0.03333333333333333 0.03333333333333333 0.03333333333333333 0.03333333333333333 0.03333333333333333 0.03333333333333333 0.03333333333333333 0.03333333333333333 
0.03333333333333333 0.03333333333333333 0.03333333333333333 0.03333333333333333 0.03333333333333333 0.03333333333333333 0.03333333333333333 0.03333333333333333 0.03333333333333333 0.03333333333333333 0.03333333333333333 0.03333333333333333 0.03333333333333333 0.03333333333333333 0.03333333333333333 0.03333333333333333 0.03333333333333333 0.03333333333333333 0.03333333333333333 0.03333333333333333 0.03333333333333333 0.03333333333333333 0.03333333333333333 0.03333333333333333 0.03333333333333333 0.03333333333333333 0.03333333333333333 0.03333333333333333 0.03333333333333333 0.03333333333333333 
0.03333333333333333 0.03333333333333333 0.03333333333333333 0.03333333333333333 0.03333333333333333 0.03333333333333333 0.03333333333333333 0.03333333333333333 0.03333333333333333 0.03333333333333333 0.03333333333333333 0.03333333333333333 0.03333333333333333 0.03333333333333333 0.03333333333333333 0.03333333333333333 0.03333333333333333 0.03333333333333333 0.03333333333333333 0.03333333333333333 0.03333333333333333 0.03333333333333333 0.03333333333333333 0.03333333333333333 0.03333333333333333 0.03333333333333333 0.03333333333333333 0.03333333333333333 0.03333333333333333 0.03333333333333333 
0.03333333333333333 0.03333333333333333 0.03333333333333333 0.03333333333333333 0.03333333333333333 0.03333333333333333 0.03333333333333333 0.03333333333333333 0.03333333333333333 0.03333333333333333 0.03333333333333333 0.03333333333333333 0.03333333333333333 0.03333333333333333 0.03333333333333333 0.03333333333333333 0.03333333333333333 0.03333333333333333 0.03333333333333333 0.03333333333333333 0.03333333333333333 0.03333333333333333 0.03333333333333333 0.03333333333333333 0.03333333333333333 0.03333333333333333 0.03333333333333333 0.03333333333333333 0.03333333333333333 0.03333333333333333 
0.03333333333333333 0.03333333333333333 0.03333333333333333 0.03333333333333333 0.03333333333333333 0.03333333333333333 0.03333333333333333 0.03333333333333333 0.03333333333333333 0.03333333333333333 0.03333333333333333 0.03333333333333333 0.03333333333333333 0.03333333333333333 0.03333333333333333 0.03333333333333333 0.03333333333333333 0.03333333333333333 0.03333333333333333 0.03333333333333333 0.03333333333333333 0.03333333333333333 0.03333333333333333 0.03333333333333333 0.03333333333333333 0.03333333333333333 0.03333333333333333 0.03333333333333333 0.03333333333333333 0.03333333333333333 
0.03333333333333333 0.03333333333333333 0.03333333333333333 0.03333333333333333 0.03333333333333333 0.03333333333333333 0.03333333333333333 0.03333333333333333 0.03333333333333333 0.03333333333333333 0.03333333333333333 0.03333333333333333 0.03333333333333333 0.03333333333333333 0.03333333333333333 0.03333333333333333 0.03333333333333333 0.03333333333333333 0.03333333333333333 0.03333333333333333 0.03333333333333333 0.03333333333333333 0.03333333333333333 0.03333333333333333 0.03333333333333333 0.03333333333333333 0.03333333333333333 0.03333333333333333 0.03333333333333333 0.03333333333333333 
0.03333333333333333 0.03333333333333333 0.03333333333333333 0.03333333333333333 0.03333333333333333 0.03333333333333333 0.03333333333333333 0.03333333333333333 0.03333333333333333 0.03333333333333333 0.03333333333333333 0.03333333333333333 0.03333333333333333 0.03333333333333333 0.03333333333333333 0.03333333333333333 0.03333333333333333 0.03333333333333333 0.03333333333333333 0.03333333333333333 0.03333333333333333 0.03333333333333333 0.03333333333333333 0.03333333333333333 0.03333333333333333 0.03333333333333333 0.03333333333333333 0.03333333333333333 0.03333333333333333 0.03333333333333333 
0.03333333333333333 0.03333333333333333 0.03333333333333333 0.03333333333333333 0.03333333333333333 0.03333333333333333 0.03333333333333333 0.03333333333333333 0.03333333333333333 0.03333333333333333 0.03333333333333333 0.03333333333333333 0.03333333333333333 0.03333333333333333 0.03333333333333333 0.03333333333333333 0.03333333333333333 0.03333333333333333 0.03333333333333333 0.03333333333333333 0.03333333333333333 0.03333333333333333 0.03333333333333333 0.03333333333333333 0.03333333333333333 0.03333333333333333 0.03333333333333333 0.03333333333333333 0.03333333333333333 0.03333333333333333 
0.03333333333333333 0.03333333333333333 0.03333333333333333 0.03333333333333333 0.03333333333333333 0.03333333333333333 0.03333333333333333 0.03333333333333333 0.03333333333333333 0.03333333333333333 0.03333333333333333 0.03333333333333333 0.03333333333333333 0.03333333333333333 0.03333333333333333 0.03333333333333333 0.03333333333333333 0.03333333333333333 0.03333333333333333 0.03333333333333333 0.03333333333333333 0.03333333333333333 0.03333333333333333 0.03333333333333333 0.03333333333333333 0.03333333333333333 0.03333333333333333 0.03333333333333333 0.03333333333333333 0.03333333333333333 
0.03333333333333333 0.03333333333333333 0.03333333333333333 0.03333333333333333 0.03333333333333333 0.03333333333333333 0.03333333333333333 0.03333333333333333 0.03333333333333333 0.03333333333333333 0.03333333333333333 0.03333333333333333 0.03333333333333333 0.03333333333333333 0.03333333333333333 0.03333333333333333 0.03333333333333333 0.03333333333333333 0.03333333333333333 0.03333333333333333 0.03333333333333333 0.03333333333333333 0.03333333333333333 0.03333333333333333 0.03333333333333333 0.03333333333333333 0.03333333333333333 0.03333333333333333 0.03333333333333333 0.03333333333333333 
0.03333333333333333 0.03333333333333333 0.03333333333333333 0.03333333333333333 0.03333333333333333 0.03333333333333333 0.03333333333333333 0.03333333333333333 0.03333333333333333 0.03333333333333333 0.03333333333333333 0.03333333333333333 0.03333333333333333 0.03333333333333333 0.03333333333333333 0.03333333333333333 0.03333333333333333 0.03333333333333333 0.03333333333333333 0.03333333333333333 0.03333333333333333 0.03333333333333333 0.03333333333333333 0.03333333333333333 0.03333333333333333 0.03333333333333333 0.03333333333333333 0.03333333333333333 0.03333333333333333 0.03333333333333333 
0.029411764705882353 0.029411764705882353 0.029411764705882353 0.029411764705882353 0.029411764705882353 0.08823529411764706 0.029411764705882353 0.08823529411764706 0.029411764705882353 0.029411764705882353 0.029411764705882353 0.029411764705882353 0.029411764705882353 0.029411764705882353 0.029411764705882353 0.029411764705882353 0.029411764705882353 0.029411764705882353 0.029411764705882353 0.029411764705882353 0.029411764705882353 0.029411764705882353 0.029411764705882353 0.029411764705882353 0.029411764705882353 0.029411764705882353 0.029411764705882353 0.029411764705882353 0.029411764705882353 0.029411764705882353 
0.027777777777777776 0.027777777777777776 0.027777777777777776 0.027777777777777776 0.027777777777777776 0.027777777777777776 0.027777777777777776 0.027777777777777776 0.027777777777777776 0.08333333333333333 0.08333333333333333 0.027777777777777776 0.08333333333333333 0.027777777777777776 0.027777777777777776 0.027777777777777776 0.027777777777777776 0.027777777777777776 0.027777777777777776 0.027777777777777776 0.027777777777777776 0.027777777777777776 0.027777777777777776 0.027777777777777776 0.027777777777777776 0.027777777777777776 0.027777777777777776 0.027777777777777776 0.027777777777777776 0.027777777777777776 
0.015151515151515152 0.015151515151515152 0.015151515151515152 0.015151515151515152 0.015151515151515152 0.015151515151515152 0.015151515151515152 0.015151515151515152 0.015151515151515152 0.015151515151515152 0.015151515151515152 0.13636363636363635 0.13636363636363635 0.19696969696969696 0.10606060606060606 0.045454545454545456 0.015151515151515152 0.015151515151515152 0.015151515151515152 0.015151515151515152 0.015151515151515152 0.015151515151515152 0.015151515151515152 0.015151515151515152 0.015151515151515152 0.015151515151515152 0.015151515151515152 0.015151515151515152 0.015151515151515152 0.015151515151515152 
0.010869565217391304 0.010869565217391304 0.010869565217391304 0.010869565217391304 0.010869565217391304 0.010869565217391304 0.010869565217391304 0.010869565217391304 0.010869565217391304 0.010869565217391304 0.010869565217391304 0.010869565217391304 0.010869565217391304 0.11956521739130435 0.2717391304347826 0.22826086956521738 0.09782608695652174 0.010869565217391304 0.010869565217391304 0.010869565217391304 0.010869565217391304 0.010869565217391304 0.010869565217391304 0.010869565217391304 0.010869565217391304 0.010869565217391304 0.010869565217391304 0.010869565217391304 0.010869565217391304 0.010869565217391304 
0.00980392156862745 0.00980392156862745 0.00980392156862745 0.00980392156862745 0.00980392156862745 0.00980392156862745 0.00980392156862745 0.00980392156862745 0.00980392156862745 0.00980392156862745 0.00980392156862745 0.00980392156862745 0.00980392156862745 0.029411764705882353 0.06862745098039216 0.14705882352941177 0.3431372549019608 0.12745098039215685 0.049019607843137254 0.00980392156862745 0.00980392156862745 0.00980392156862745 0.00980392156862745 0.00980392156862745 0.00980392156862745 0.00980392156862745 0.00980392156862745 0.00980392156862745 0.00980392156862745 0.00980392156862745 
0.006756756756756757 0.006756756756756757 0.006756756756756757 0.006756756756756757 0.006756756756756757 0.006756756756756757 0.006756756756756757 0.006756756756756757 0.006756756756756757 0.006756756756756757 0.006756756756756757 0.006756756756756757 0.006756756756756757 0.006756756756756757 0.006756756756756757 0.006756756756756757 0.27702702702702703 0.38513513513513514 0.14189189189189189 0.006756756756756757 0.02027027027027027 0.006756756756756757 0.006756756756756757 0.006756756756756757 0.006756756756756757 0.006756756756756757 0.006756756756756757 0.006756756756756757 0.006756756756756757 0.006756756756756757 
0.00847457627118644 0.00847457627118644 0.00847457627118644 0.00847457627118644 0.00847457627118644 0.00847457627118644 0.00847457627118644 0.00847457627118644 0.00847457627118644 0.00847457627118644 0.00847457627118644 0.00847457627118644 0.00847457627118644 0.00847457627118644 0.00847457627118644 0.00847457627118644 0.059322033898305086 0.2627118644067797 0.2966101694915254 0.16101694915254236 0.00847457627118644 0.00847457627118644 0.00847457627118644 0.00847457627118644 0.00847457627118644 0.00847457627118644 0.00847457627118644 0.00847457627118644 0.00847457627118644 0.00847457627118644 
0.006172839506172839 0.006172839506172839 0.006172839506172839 0.006172839506172839 0.006172839506172839 0.006172839506172839 0.006172839506172839 0.006172839506172839 0.006172839506172839 0.006172839506172839 0.006172839506172839 0.006172839506172839 0.006172839506172839 0.006172839506172839 0.006172839506172839 0.006172839506172839 0.006172839506172839 0.006172839506172839 0.17901234567901234 0.41358024691358025 0.24074074074074073 0.006172839506172839 0.006172839506172839 0.006172839506172839 0.006172839506172839 0.006172839506172839 0.006172839506172839 0.006172839506172839 0.006172839506172839 0.006172839506172839 
0.005747126436781609 0.005747126436781609 0.005747126436781609 0.005747126436781609 0.005747126436781609 0.005747126436781609 0.005747126436781609 0.005747126436781609 0.005747126436781609 0.005747126436781609 0.005747126436781609 0.005747126436781609 0.005747126436781609 0.005747126436781609 0.005747126436781609 0.005747126436781609 0.005747126436781609 0.005747126436781609 0.005747126436781609 0.2471264367816092 0.40804597701149425 0.16666666666666666 0.028735632183908046 0.005747126436781609 0.005747126436781609 0.005747126436781609 0.005747126436781609 0.005747126436781609 0.005747126436781609 0.005747126436781609 
0.011627906976744186 0.011627906976744186 0.011627906976744186 0.011627906976744186 0.011627906976744186 0.011627906976744186 0.011627906976744186 0.011627906976744186 0.011627906976744186 0.011627906976744186 0.011627906976744186 0.011627906976744186 0.011627906976744186 0.011627906976744186 0.011627906976744186 0.011627906976744186 0.011627906976744186 0.011627906976744186 0.011627906976744186 0.011627906976744186 0.12790697674418605 0.313953488372093 0.08139534883720931 0.1744186046511628 0.011627906976744186 0.011627906976744186 0.011627906976744186 0.011627906976744186 0.011627906976744186 0.011627906976744186 
0.008928571428571428 0.008928571428571428 0.008928571428571428 0.008928571428571428 0.008928571428571428 0.008928571428571428 0.008928571428571428 0.008928571428571428 0.008928571428571428 0.008928571428571428 0.008928571428571428 0.008928571428571428 0.008928571428571428 0.008928571428571428 0.008928571428571428 0.008928571428571428 0.008928571428571428 0.008928571428571428 0.008928571428571428 0.008928571428571428 0.008928571428571428 0.008928571428571428 0.3482142857142857 0.25892857142857145 0.15178571428571427 0.008928571428571428 0.008928571428571428 0.008928571428571428 0.008928571428571428 0.008928571428571428 
0.007575757575757576 0.007575757575757576 0.007575757575757576 0.007575757575757576 0.007575757575757576 0.007575757575757576 0.007575757575757576 0.007575757575757576 0.007575757575757576 0.007575757575757576 0.007575757575757576 0.007575757575757576 0.007575757575757576 0.007575757575757576 0.007575757575757576 0.007575757575757576 0.007575757575757576 0.007575757575757576 0.007575757575757576 0.007575757575757576 0.007575757575757576 0.007575757575757576 0.1893939393939394 0.44696969696969696 0.12878787878787878 0.03787878787878788 0.007575757575757576 0.007575757575757576 0.007575757575757576 0.007575757575757576 
