<?xml version="1.0"?>
<!-- DTD for the XMLBIF 0.3 format -->
<!DOCTYPE BIF [
	<!ELEMENT BIF ( NETWORK )*>
	      <!ATTLIST BIF VERSION CDATA #REQUIRED>
	<!ELEMENT NETWORK ( NAME, ( PROPERTY | VARIABLE | DEFINITION )* )>
	<!ELEMENT NAME (#PCDATA)>
	<!ELEMENT VARIABLE ( NAME, ( OUTCOME |  PROPERTY )* ) >
	      <!ATTLIST VARIABLE TYPE (nature|decision|utility) "nature">
	<!ELEMENT OUTCOME (#PCDATA)>
	<!ELEMENT DEFINITION ( FOR | GIVEN | TABLE | PROPERTY )* >
	<!ELEMENT FOR (#PCDATA)>
	<!ELEMENT GIVEN (#PCDATA)>
	<!ELEMENT TABLE (#PCDATA)>
	<!ELEMENT PROPERTY (#PCDATA)>
]>


<BIF VERSION="0.3">
<NETWORK>
<NAME>training_data-weka.filters.supervised.attribute.Discretize-Rfirst-last</NAME>
<VARIABLE TYPE="nature">
<NAME>R6CH_RPI0</NAME>
<OUTCOME>&apos;All&apos;</OUTCOME>
<PROPERTY>position = (0,0)</PROPERTY>
</VARIABLE>
<VARIABLE TYPE="nature">
<NAME>R6CH_PYTH0</NAME>
<OUTCOME>&apos;All&apos;</OUTCOME>
<PROPERTY>position = (50,0)</PROPERTY>
</VARIABLE>
<VARIABLE TYPE="nature">
<NAME>R6CH_CWG0</NAME>
<OUTCOME>&apos;All&apos;</OUTCOME>
<PROPERTY>position = (100,0)</PROPERTY>
</VARIABLE>
<VARIABLE TYPE="nature">
<NAME>R6CH_AVG0</NAME>
<OUTCOME>&apos;All&apos;</OUTCOME>
<PROPERTY>position = (150,0)</PROPERTY>
</VARIABLE>
<VARIABLE TYPE="nature">
<NAME>R6CH_RPI1</NAME>
<OUTCOME>&apos;All&apos;</OUTCOME>
<PROPERTY>position = (200,0)</PROPERTY>
</VARIABLE>
<VARIABLE TYPE="nature">
<NAME>R6CH_PYTH1</NAME>
<OUTCOME>&apos;All&apos;</OUTCOME>
<PROPERTY>position = (250,0)</PROPERTY>
</VARIABLE>
<VARIABLE TYPE="nature">
<NAME>R6CH_CWG1</NAME>
<OUTCOME>&apos;All&apos;</OUTCOME>
<PROPERTY>position = (300,0)</PROPERTY>
</VARIABLE>
<VARIABLE TYPE="nature">
<NAME>R6CH_AVG1</NAME>
<OUTCOME>&apos;All&apos;</OUTCOME>
<PROPERTY>position = (350,0)</PROPERTY>
</VARIABLE>
<VARIABLE TYPE="nature">
<NAME>R6CH_W</NAME>
<OUTCOME>R6CH_h</OUTCOME>
<OUTCOME>R6CH_l</OUTCOME>
<PROPERTY>position = (400,0)</PROPERTY>
</VARIABLE>
<VARIABLE TYPE="nature">
<NAME>R5WX_RPI0</NAME>
<OUTCOME>&apos;All&apos;</OUTCOME>
<PROPERTY>position = (450,0)</PROPERTY>
</VARIABLE>
<VARIABLE TYPE="nature">
<NAME>R5WX_PYTH0</NAME>
<OUTCOME>&apos;All&apos;</OUTCOME>
<PROPERTY>position = (0,50)</PROPERTY>
</VARIABLE>
<VARIABLE TYPE="nature">
<NAME>R5WX_CWG0</NAME>
<OUTCOME>&apos;All&apos;</OUTCOME>
<PROPERTY>position = (50,50)</PROPERTY>
</VARIABLE>
<VARIABLE TYPE="nature">
<NAME>R5WX_AVG0</NAME>
<OUTCOME>&apos;All&apos;</OUTCOME>
<PROPERTY>position = (100,50)</PROPERTY>
</VARIABLE>
<VARIABLE TYPE="nature">
<NAME>R5WX_RPI1</NAME>
<OUTCOME>&apos;All&apos;</OUTCOME>
<PROPERTY>position = (150,50)</PROPERTY>
</VARIABLE>
<VARIABLE TYPE="nature">
<NAME>R5WX_PYTH1</NAME>
<OUTCOME>&apos;All&apos;</OUTCOME>
<PROPERTY>position = (200,50)</PROPERTY>
</VARIABLE>
<VARIABLE TYPE="nature">
<NAME>R5WX_CWG1</NAME>
<OUTCOME>&apos;All&apos;</OUTCOME>
<PROPERTY>position = (250,50)</PROPERTY>
</VARIABLE>
<VARIABLE TYPE="nature">
<NAME>R5WX_AVG1</NAME>
<OUTCOME>&apos;All&apos;</OUTCOME>
<PROPERTY>position = (300,50)</PROPERTY>
</VARIABLE>
<VARIABLE TYPE="nature">
<NAME>R5WX_W</NAME>
<OUTCOME>R5WX_l</OUTCOME>
<OUTCOME>R5WX_h</OUTCOME>
<PROPERTY>position = (350,50)</PROPERTY>
</VARIABLE>
<VARIABLE TYPE="nature">
<NAME>R5YZ_RPI0</NAME>
<OUTCOME>&apos;All&apos;</OUTCOME>
<PROPERTY>position = (400,50)</PROPERTY>
</VARIABLE>
<VARIABLE TYPE="nature">
<NAME>R5YZ_PYTH0</NAME>
<OUTCOME>&apos;All&apos;</OUTCOME>
<PROPERTY>position = (450,50)</PROPERTY>
</VARIABLE>
<VARIABLE TYPE="nature">
<NAME>R5YZ_CWG0</NAME>
<OUTCOME>&apos;All&apos;</OUTCOME>
<PROPERTY>position = (0,100)</PROPERTY>
</VARIABLE>
<VARIABLE TYPE="nature">
<NAME>R5YZ_AVG0</NAME>
<OUTCOME>&apos;All&apos;</OUTCOME>
<PROPERTY>position = (50,100)</PROPERTY>
</VARIABLE>
<VARIABLE TYPE="nature">
<NAME>R5YZ_RPI1</NAME>
<OUTCOME>&apos;All&apos;</OUTCOME>
<PROPERTY>position = (100,100)</PROPERTY>
</VARIABLE>
<VARIABLE TYPE="nature">
<NAME>R5YZ_PYTH1</NAME>
<OUTCOME>&apos;All&apos;</OUTCOME>
<PROPERTY>position = (150,100)</PROPERTY>
</VARIABLE>
<VARIABLE TYPE="nature">
<NAME>R5YZ_CWG1</NAME>
<OUTCOME>&apos;All&apos;</OUTCOME>
<PROPERTY>position = (200,100)</PROPERTY>
</VARIABLE>
<VARIABLE TYPE="nature">
<NAME>R5YZ_AVG1</NAME>
<OUTCOME>&apos;All&apos;</OUTCOME>
<PROPERTY>position = (250,100)</PROPERTY>
</VARIABLE>
<VARIABLE TYPE="nature">
<NAME>R5YZ_W</NAME>
<OUTCOME>R5YZ_l</OUTCOME>
<OUTCOME>R5YZ_h</OUTCOME>
<PROPERTY>position = (300,100)</PROPERTY>
</VARIABLE>
<VARIABLE TYPE="nature">
<NAME>R4W1_RPI0</NAME>
<OUTCOME>&apos;All&apos;</OUTCOME>
<PROPERTY>position = (350,100)</PROPERTY>
</VARIABLE>
<VARIABLE TYPE="nature">
<NAME>R4W1_PYTH0</NAME>
<OUTCOME>&apos;All&apos;</OUTCOME>
<PROPERTY>position = (400,100)</PROPERTY>
</VARIABLE>
<VARIABLE TYPE="nature">
<NAME>R4W1_CWG0</NAME>
<OUTCOME>&apos;All&apos;</OUTCOME>
<PROPERTY>position = (450,100)</PROPERTY>
</VARIABLE>
<VARIABLE TYPE="nature">
<NAME>R4W1_AVG0</NAME>
<OUTCOME>&apos;All&apos;</OUTCOME>
<PROPERTY>position = (0,150)</PROPERTY>
</VARIABLE>
<VARIABLE TYPE="nature">
<NAME>R4W1_RPI1</NAME>
<OUTCOME>&apos;All&apos;</OUTCOME>
<PROPERTY>position = (50,150)</PROPERTY>
</VARIABLE>
<VARIABLE TYPE="nature">
<NAME>R4W1_PYTH1</NAME>
<OUTCOME>&apos;All&apos;</OUTCOME>
<PROPERTY>position = (100,150)</PROPERTY>
</VARIABLE>
<VARIABLE TYPE="nature">
<NAME>R4W1_CWG1</NAME>
<OUTCOME>&apos;All&apos;</OUTCOME>
<PROPERTY>position = (150,150)</PROPERTY>
</VARIABLE>
<VARIABLE TYPE="nature">
<NAME>R4W1_AVG1</NAME>
<OUTCOME>&apos;All&apos;</OUTCOME>
<PROPERTY>position = (200,150)</PROPERTY>
</VARIABLE>
<VARIABLE TYPE="nature">
<NAME>R4W1_W</NAME>
<OUTCOME>R4W1_h</OUTCOME>
<OUTCOME>R4W1_l</OUTCOME>
<PROPERTY>position = (250,150)</PROPERTY>
</VARIABLE>
<VARIABLE TYPE="nature">
<NAME>R4X1_RPI0</NAME>
<OUTCOME>&apos;All&apos;</OUTCOME>
<PROPERTY>position = (300,150)</PROPERTY>
</VARIABLE>
<VARIABLE TYPE="nature">
<NAME>R4X1_PYTH0</NAME>
<OUTCOME>&apos;All&apos;</OUTCOME>
<PROPERTY>position = (350,150)</PROPERTY>
</VARIABLE>
<VARIABLE TYPE="nature">
<NAME>R4X1_CWG0</NAME>
<OUTCOME>&apos;All&apos;</OUTCOME>
<PROPERTY>position = (400,150)</PROPERTY>
</VARIABLE>
<VARIABLE TYPE="nature">
<NAME>R4X1_AVG0</NAME>
<OUTCOME>&apos;All&apos;</OUTCOME>
<PROPERTY>position = (450,150)</PROPERTY>
</VARIABLE>
<VARIABLE TYPE="nature">
<NAME>R4X1_RPI1</NAME>
<OUTCOME>&apos;All&apos;</OUTCOME>
<PROPERTY>position = (0,200)</PROPERTY>
</VARIABLE>
<VARIABLE TYPE="nature">
<NAME>R4X1_PYTH1</NAME>
<OUTCOME>&apos;All&apos;</OUTCOME>
<PROPERTY>position = (50,200)</PROPERTY>
</VARIABLE>
<VARIABLE TYPE="nature">
<NAME>R4X1_CWG1</NAME>
<OUTCOME>&apos;All&apos;</OUTCOME>
<PROPERTY>position = (100,200)</PROPERTY>
</VARIABLE>
<VARIABLE TYPE="nature">
<NAME>R4X1_AVG1</NAME>
<OUTCOME>&apos;All&apos;</OUTCOME>
<PROPERTY>position = (150,200)</PROPERTY>
</VARIABLE>
<VARIABLE TYPE="nature">
<NAME>R4X1_W</NAME>
<OUTCOME>R4X1_h</OUTCOME>
<OUTCOME>R4X1_l</OUTCOME>
<PROPERTY>position = (200,200)</PROPERTY>
</VARIABLE>
<VARIABLE TYPE="nature">
<NAME>R4Y1_RPI0</NAME>
<OUTCOME>&apos;All&apos;</OUTCOME>
<PROPERTY>position = (250,200)</PROPERTY>
</VARIABLE>
<VARIABLE TYPE="nature">
<NAME>R4Y1_PYTH0</NAME>
<OUTCOME>&apos;All&apos;</OUTCOME>
<PROPERTY>position = (300,200)</PROPERTY>
</VARIABLE>
<VARIABLE TYPE="nature">
<NAME>R4Y1_CWG0</NAME>
<OUTCOME>&apos;All&apos;</OUTCOME>
<PROPERTY>position = (350,200)</PROPERTY>
</VARIABLE>
<VARIABLE TYPE="nature">
<NAME>R4Y1_AVG0</NAME>
<OUTCOME>&apos;All&apos;</OUTCOME>
<PROPERTY>position = (400,200)</PROPERTY>
</VARIABLE>
<VARIABLE TYPE="nature">
<NAME>R4Y1_RPI1</NAME>
<OUTCOME>&apos;All&apos;</OUTCOME>
<PROPERTY>position = (450,200)</PROPERTY>
</VARIABLE>
<VARIABLE TYPE="nature">
<NAME>R4Y1_PYTH1</NAME>
<OUTCOME>&apos;All&apos;</OUTCOME>
<PROPERTY>position = (0,250)</PROPERTY>
</VARIABLE>
<VARIABLE TYPE="nature">
<NAME>R4Y1_CWG1</NAME>
<OUTCOME>&apos;All&apos;</OUTCOME>
<PROPERTY>position = (50,250)</PROPERTY>
</VARIABLE>
<VARIABLE TYPE="nature">
<NAME>R4Y1_AVG1</NAME>
<OUTCOME>&apos;All&apos;</OUTCOME>
<PROPERTY>position = (100,250)</PROPERTY>
</VARIABLE>
<VARIABLE TYPE="nature">
<NAME>R4Y1_W</NAME>
<OUTCOME>R4Y1_h</OUTCOME>
<OUTCOME>R4Y1_l</OUTCOME>
<PROPERTY>position = (150,250)</PROPERTY>
</VARIABLE>
<VARIABLE TYPE="nature">
<NAME>R4Z1_RPI0</NAME>
<OUTCOME>&apos;All&apos;</OUTCOME>
<PROPERTY>position = (200,250)</PROPERTY>
</VARIABLE>
<VARIABLE TYPE="nature">
<NAME>R4Z1_PYTH0</NAME>
<OUTCOME>&apos;All&apos;</OUTCOME>
<PROPERTY>position = (250,250)</PROPERTY>
</VARIABLE>
<VARIABLE TYPE="nature">
<NAME>R4Z1_CWG0</NAME>
<OUTCOME>&apos;All&apos;</OUTCOME>
<PROPERTY>position = (300,250)</PROPERTY>
</VARIABLE>
<VARIABLE TYPE="nature">
<NAME>R4Z1_AVG0</NAME>
<OUTCOME>&apos;All&apos;</OUTCOME>
<PROPERTY>position = (350,250)</PROPERTY>
</VARIABLE>
<VARIABLE TYPE="nature">
<NAME>R4Z1_RPI1</NAME>
<OUTCOME>&apos;All&apos;</OUTCOME>
<PROPERTY>position = (400,250)</PROPERTY>
</VARIABLE>
<VARIABLE TYPE="nature">
<NAME>R4Z1_PYTH1</NAME>
<OUTCOME>&apos;All&apos;</OUTCOME>
<PROPERTY>position = (450,250)</PROPERTY>
</VARIABLE>
<VARIABLE TYPE="nature">
<NAME>R4Z1_CWG1</NAME>
<OUTCOME>&apos;All&apos;</OUTCOME>
<PROPERTY>position = (0,300)</PROPERTY>
</VARIABLE>
<VARIABLE TYPE="nature">
<NAME>R4Z1_AVG1</NAME>
<OUTCOME>&apos;All&apos;</OUTCOME>
<PROPERTY>position = (50,300)</PROPERTY>
</VARIABLE>
<VARIABLE TYPE="nature">
<NAME>R4Z1_W</NAME>
<OUTCOME>R4Z1_h</OUTCOME>
<OUTCOME>R4Z1_l</OUTCOME>
<PROPERTY>position = (100,300)</PROPERTY>
</VARIABLE>
<VARIABLE TYPE="nature">
<NAME>R3W1_RPI0</NAME>
<OUTCOME>&apos;All&apos;</OUTCOME>
<PROPERTY>position = (150,300)</PROPERTY>
</VARIABLE>
<VARIABLE TYPE="nature">
<NAME>R3W1_PYTH0</NAME>
<OUTCOME>&apos;All&apos;</OUTCOME>
<PROPERTY>position = (200,300)</PROPERTY>
</VARIABLE>
<VARIABLE TYPE="nature">
<NAME>R3W1_CWG0</NAME>
<OUTCOME>&apos;All&apos;</OUTCOME>
<PROPERTY>position = (250,300)</PROPERTY>
</VARIABLE>
<VARIABLE TYPE="nature">
<NAME>R3W1_AVG0</NAME>
<OUTCOME>&apos;All&apos;</OUTCOME>
<PROPERTY>position = (300,300)</PROPERTY>
</VARIABLE>
<VARIABLE TYPE="nature">
<NAME>R3W1_RPI1</NAME>
<OUTCOME>&apos;All&apos;</OUTCOME>
<PROPERTY>position = (350,300)</PROPERTY>
</VARIABLE>
<VARIABLE TYPE="nature">
<NAME>R3W1_PYTH1</NAME>
<OUTCOME>&apos;All&apos;</OUTCOME>
<PROPERTY>position = (400,300)</PROPERTY>
</VARIABLE>
<VARIABLE TYPE="nature">
<NAME>R3W1_CWG1</NAME>
<OUTCOME>&apos;All&apos;</OUTCOME>
<PROPERTY>position = (450,300)</PROPERTY>
</VARIABLE>
<VARIABLE TYPE="nature">
<NAME>R3W1_AVG1</NAME>
<OUTCOME>&apos;All&apos;</OUTCOME>
<PROPERTY>position = (0,350)</PROPERTY>
</VARIABLE>
<VARIABLE TYPE="nature">
<NAME>R3W1_W</NAME>
<OUTCOME>R3W1_h</OUTCOME>
<OUTCOME>R3W1_l</OUTCOME>
<PROPERTY>position = (50,350)</PROPERTY>
</VARIABLE>
<VARIABLE TYPE="nature">
<NAME>R3W2_RPI0</NAME>
<OUTCOME>&apos;All&apos;</OUTCOME>
<PROPERTY>position = (100,350)</PROPERTY>
</VARIABLE>
<VARIABLE TYPE="nature">
<NAME>R3W2_PYTH0</NAME>
<OUTCOME>&apos;All&apos;</OUTCOME>
<PROPERTY>position = (150,350)</PROPERTY>
</VARIABLE>
<VARIABLE TYPE="nature">
<NAME>R3W2_CWG0</NAME>
<OUTCOME>&apos;All&apos;</OUTCOME>
<PROPERTY>position = (200,350)</PROPERTY>
</VARIABLE>
<VARIABLE TYPE="nature">
<NAME>R3W2_AVG0</NAME>
<OUTCOME>&apos;All&apos;</OUTCOME>
<PROPERTY>position = (250,350)</PROPERTY>
</VARIABLE>
<VARIABLE TYPE="nature">
<NAME>R3W2_RPI1</NAME>
<OUTCOME>&apos;All&apos;</OUTCOME>
<PROPERTY>position = (300,350)</PROPERTY>
</VARIABLE>
<VARIABLE TYPE="nature">
<NAME>R3W2_PYTH1</NAME>
<OUTCOME>&apos;All&apos;</OUTCOME>
<PROPERTY>position = (350,350)</PROPERTY>
</VARIABLE>
<VARIABLE TYPE="nature">
<NAME>R3W2_CWG1</NAME>
<OUTCOME>&apos;(-inf-24]&apos;</OUTCOME>
<OUTCOME>&apos;(24-inf)&apos;</OUTCOME>
<PROPERTY>position = (400,350)</PROPERTY>
</VARIABLE>
<VARIABLE TYPE="nature">
<NAME>R3W2_AVG1</NAME>
<OUTCOME>&apos;All&apos;</OUTCOME>
<PROPERTY>position = (450,350)</PROPERTY>
</VARIABLE>
<VARIABLE TYPE="nature">
<NAME>R3W2_W</NAME>
<OUTCOME>R3W2_h</OUTCOME>
<OUTCOME>R3W2_l</OUTCOME>
<PROPERTY>position = (0,400)</PROPERTY>
</VARIABLE>
<VARIABLE TYPE="nature">
<NAME>R3X1_RPI0</NAME>
<OUTCOME>&apos;All&apos;</OUTCOME>
<PROPERTY>position = (50,400)</PROPERTY>
</VARIABLE>
<VARIABLE TYPE="nature">
<NAME>R3X1_PYTH0</NAME>
<OUTCOME>&apos;All&apos;</OUTCOME>
<PROPERTY>position = (100,400)</PROPERTY>
</VARIABLE>
<VARIABLE TYPE="nature">
<NAME>R3X1_CWG0</NAME>
<OUTCOME>&apos;All&apos;</OUTCOME>
<PROPERTY>position = (150,400)</PROPERTY>
</VARIABLE>
<VARIABLE TYPE="nature">
<NAME>R3X1_AVG0</NAME>
<OUTCOME>&apos;All&apos;</OUTCOME>
<PROPERTY>position = (200,400)</PROPERTY>
</VARIABLE>
<VARIABLE TYPE="nature">
<NAME>R3X1_RPI1</NAME>
<OUTCOME>&apos;All&apos;</OUTCOME>
<PROPERTY>position = (250,400)</PROPERTY>
</VARIABLE>
<VARIABLE TYPE="nature">
<NAME>R3X1_PYTH1</NAME>
<OUTCOME>&apos;All&apos;</OUTCOME>
<PROPERTY>position = (300,400)</PROPERTY>
</VARIABLE>
<VARIABLE TYPE="nature">
<NAME>R3X1_CWG1</NAME>
<OUTCOME>&apos;All&apos;</OUTCOME>
<PROPERTY>position = (350,400)</PROPERTY>
</VARIABLE>
<VARIABLE TYPE="nature">
<NAME>R3X1_AVG1</NAME>
<OUTCOME>&apos;All&apos;</OUTCOME>
<PROPERTY>position = (400,400)</PROPERTY>
</VARIABLE>
<VARIABLE TYPE="nature">
<NAME>R3X1_W</NAME>
<OUTCOME>R3X1_h</OUTCOME>
<OUTCOME>R3X1_l</OUTCOME>
<PROPERTY>position = (450,400)</PROPERTY>
</VARIABLE>
<VARIABLE TYPE="nature">
<NAME>R3X2_RPI0</NAME>
<OUTCOME>&apos;All&apos;</OUTCOME>
<PROPERTY>position = (0,450)</PROPERTY>
</VARIABLE>
<VARIABLE TYPE="nature">
<NAME>R3X2_PYTH0</NAME>
<OUTCOME>&apos;All&apos;</OUTCOME>
<PROPERTY>position = (50,450)</PROPERTY>
</VARIABLE>
<VARIABLE TYPE="nature">
<NAME>R3X2_CWG0</NAME>
<OUTCOME>&apos;All&apos;</OUTCOME>
<PROPERTY>position = (100,450)</PROPERTY>
</VARIABLE>
<VARIABLE TYPE="nature">
<NAME>R3X2_AVG0</NAME>
<OUTCOME>&apos;All&apos;</OUTCOME>
<PROPERTY>position = (150,450)</PROPERTY>
</VARIABLE>
<VARIABLE TYPE="nature">
<NAME>R3X2_RPI1</NAME>
<OUTCOME>&apos;All&apos;</OUTCOME>
<PROPERTY>position = (200,450)</PROPERTY>
</VARIABLE>
<VARIABLE TYPE="nature">
<NAME>R3X2_PYTH1</NAME>
<OUTCOME>&apos;All&apos;</OUTCOME>
<PROPERTY>position = (250,450)</PROPERTY>
</VARIABLE>
<VARIABLE TYPE="nature">
<NAME>R3X2_CWG1</NAME>
<OUTCOME>&apos;All&apos;</OUTCOME>
<PROPERTY>position = (300,450)</PROPERTY>
</VARIABLE>
<VARIABLE TYPE="nature">
<NAME>R3X2_AVG1</NAME>
<OUTCOME>&apos;All&apos;</OUTCOME>
<PROPERTY>position = (350,450)</PROPERTY>
</VARIABLE>
<VARIABLE TYPE="nature">
<NAME>R3X2_W</NAME>
<OUTCOME>R3X2_h</OUTCOME>
<OUTCOME>R3X2_l</OUTCOME>
<PROPERTY>position = (400,450)</PROPERTY>
</VARIABLE>
<VARIABLE TYPE="nature">
<NAME>R3Y1_RPI0</NAME>
<OUTCOME>&apos;All&apos;</OUTCOME>
<PROPERTY>position = (450,450)</PROPERTY>
</VARIABLE>
<VARIABLE TYPE="nature">
<NAME>R3Y1_PYTH0</NAME>
<OUTCOME>&apos;All&apos;</OUTCOME>
<PROPERTY>position = (0,500)</PROPERTY>
</VARIABLE>
<VARIABLE TYPE="nature">
<NAME>R3Y1_CWG0</NAME>
<OUTCOME>&apos;All&apos;</OUTCOME>
<PROPERTY>position = (50,500)</PROPERTY>
</VARIABLE>
<VARIABLE TYPE="nature">
<NAME>R3Y1_AVG0</NAME>
<OUTCOME>&apos;All&apos;</OUTCOME>
<PROPERTY>position = (100,500)</PROPERTY>
</VARIABLE>
<VARIABLE TYPE="nature">
<NAME>R3Y1_RPI1</NAME>
<OUTCOME>&apos;All&apos;</OUTCOME>
<PROPERTY>position = (150,500)</PROPERTY>
</VARIABLE>
<VARIABLE TYPE="nature">
<NAME>R3Y1_PYTH1</NAME>
<OUTCOME>&apos;All&apos;</OUTCOME>
<PROPERTY>position = (200,500)</PROPERTY>
</VARIABLE>
<VARIABLE TYPE="nature">
<NAME>R3Y1_CWG1</NAME>
<OUTCOME>&apos;All&apos;</OUTCOME>
<PROPERTY>position = (250,500)</PROPERTY>
</VARIABLE>
<VARIABLE TYPE="nature">
<NAME>R3Y1_AVG1</NAME>
<OUTCOME>&apos;All&apos;</OUTCOME>
<PROPERTY>position = (300,500)</PROPERTY>
</VARIABLE>
<VARIABLE TYPE="nature">
<NAME>R3Y1_W</NAME>
<OUTCOME>R3Y1_l</OUTCOME>
<OUTCOME>R3Y1_h</OUTCOME>
<PROPERTY>position = (350,500)</PROPERTY>
</VARIABLE>
<VARIABLE TYPE="nature">
<NAME>R3Y2_RPI0</NAME>
<OUTCOME>&apos;All&apos;</OUTCOME>
<PROPERTY>position = (400,500)</PROPERTY>
</VARIABLE>
<VARIABLE TYPE="nature">
<NAME>R3Y2_PYTH0</NAME>
<OUTCOME>&apos;All&apos;</OUTCOME>
<PROPERTY>position = (450,500)</PROPERTY>
</VARIABLE>
<VARIABLE TYPE="nature">
<NAME>R3Y2_CWG0</NAME>
<OUTCOME>&apos;All&apos;</OUTCOME>
<PROPERTY>position = (0,550)</PROPERTY>
</VARIABLE>
<VARIABLE TYPE="nature">
<NAME>R3Y2_AVG0</NAME>
<OUTCOME>&apos;All&apos;</OUTCOME>
<PROPERTY>position = (50,550)</PROPERTY>
</VARIABLE>
<VARIABLE TYPE="nature">
<NAME>R3Y2_RPI1</NAME>
<OUTCOME>&apos;All&apos;</OUTCOME>
<PROPERTY>position = (100,550)</PROPERTY>
</VARIABLE>
<VARIABLE TYPE="nature">
<NAME>R3Y2_PYTH1</NAME>
<OUTCOME>&apos;All&apos;</OUTCOME>
<PROPERTY>position = (150,550)</PROPERTY>
</VARIABLE>
<VARIABLE TYPE="nature">
<NAME>R3Y2_CWG1</NAME>
<OUTCOME>&apos;All&apos;</OUTCOME>
<PROPERTY>position = (200,550)</PROPERTY>
</VARIABLE>
<VARIABLE TYPE="nature">
<NAME>R3Y2_AVG1</NAME>
<OUTCOME>&apos;All&apos;</OUTCOME>
<PROPERTY>position = (250,550)</PROPERTY>
</VARIABLE>
<VARIABLE TYPE="nature">
<NAME>R3Y2_W</NAME>
<OUTCOME>R3Y2_h</OUTCOME>
<OUTCOME>R3Y2_l</OUTCOME>
<PROPERTY>position = (300,550)</PROPERTY>
</VARIABLE>
<VARIABLE TYPE="nature">
<NAME>R3Z1_RPI0</NAME>
<OUTCOME>&apos;All&apos;</OUTCOME>
<PROPERTY>position = (350,550)</PROPERTY>
</VARIABLE>
<VARIABLE TYPE="nature">
<NAME>R3Z1_PYTH0</NAME>
<OUTCOME>&apos;All&apos;</OUTCOME>
<PROPERTY>position = (400,550)</PROPERTY>
</VARIABLE>
<VARIABLE TYPE="nature">
<NAME>R3Z1_CWG0</NAME>
<OUTCOME>&apos;All&apos;</OUTCOME>
<PROPERTY>position = (450,550)</PROPERTY>
</VARIABLE>
<VARIABLE TYPE="nature">
<NAME>R3Z1_AVG0</NAME>
<OUTCOME>&apos;All&apos;</OUTCOME>
<PROPERTY>position = (0,600)</PROPERTY>
</VARIABLE>
<VARIABLE TYPE="nature">
<NAME>R3Z1_RPI1</NAME>
<OUTCOME>&apos;All&apos;</OUTCOME>
<PROPERTY>position = (50,600)</PROPERTY>
</VARIABLE>
<VARIABLE TYPE="nature">
<NAME>R3Z1_PYTH1</NAME>
<OUTCOME>&apos;All&apos;</OUTCOME>
<PROPERTY>position = (100,600)</PROPERTY>
</VARIABLE>
<VARIABLE TYPE="nature">
<NAME>R3Z1_CWG1</NAME>
<OUTCOME>&apos;All&apos;</OUTCOME>
<PROPERTY>position = (150,600)</PROPERTY>
</VARIABLE>
<VARIABLE TYPE="nature">
<NAME>R3Z1_AVG1</NAME>
<OUTCOME>&apos;All&apos;</OUTCOME>
<PROPERTY>position = (200,600)</PROPERTY>
</VARIABLE>
<VARIABLE TYPE="nature">
<NAME>R3Z1_W</NAME>
<OUTCOME>R3Z1_l</OUTCOME>
<OUTCOME>R3Z1_h</OUTCOME>
<PROPERTY>position = (250,600)</PROPERTY>
</VARIABLE>
<VARIABLE TYPE="nature">
<NAME>R3Z2_RPI0</NAME>
<OUTCOME>&apos;All&apos;</OUTCOME>
<PROPERTY>position = (300,600)</PROPERTY>
</VARIABLE>
<VARIABLE TYPE="nature">
<NAME>R3Z2_PYTH0</NAME>
<OUTCOME>&apos;All&apos;</OUTCOME>
<PROPERTY>position = (350,600)</PROPERTY>
</VARIABLE>
<VARIABLE TYPE="nature">
<NAME>R3Z2_CWG0</NAME>
<OUTCOME>&apos;All&apos;</OUTCOME>
<PROPERTY>position = (400,600)</PROPERTY>
</VARIABLE>
<VARIABLE TYPE="nature">
<NAME>R3Z2_AVG0</NAME>
<OUTCOME>&apos;All&apos;</OUTCOME>
<PROPERTY>position = (450,600)</PROPERTY>
</VARIABLE>
<VARIABLE TYPE="nature">
<NAME>R3Z2_RPI1</NAME>
<OUTCOME>&apos;All&apos;</OUTCOME>
<PROPERTY>position = (0,650)</PROPERTY>
</VARIABLE>
<VARIABLE TYPE="nature">
<NAME>R3Z2_PYTH1</NAME>
<OUTCOME>&apos;All&apos;</OUTCOME>
<PROPERTY>position = (50,650)</PROPERTY>
</VARIABLE>
<VARIABLE TYPE="nature">
<NAME>R3Z2_CWG1</NAME>
<OUTCOME>&apos;All&apos;</OUTCOME>
<PROPERTY>position = (100,650)</PROPERTY>
</VARIABLE>
<VARIABLE TYPE="nature">
<NAME>R3Z2_AVG1</NAME>
<OUTCOME>&apos;All&apos;</OUTCOME>
<PROPERTY>position = (150,650)</PROPERTY>
</VARIABLE>
<VARIABLE TYPE="nature">
<NAME>R3Z2_W</NAME>
<OUTCOME>R3Z2_h</OUTCOME>
<OUTCOME>R3Z2_l</OUTCOME>
<PROPERTY>position = (200,650)</PROPERTY>
</VARIABLE>
<VARIABLE TYPE="nature">
<NAME>R2W1_RPI0</NAME>
<OUTCOME>&apos;All&apos;</OUTCOME>
<PROPERTY>position = (250,650)</PROPERTY>
</VARIABLE>
<VARIABLE TYPE="nature">
<NAME>R2W1_PYTH0</NAME>
<OUTCOME>&apos;All&apos;</OUTCOME>
<PROPERTY>position = (300,650)</PROPERTY>
</VARIABLE>
<VARIABLE TYPE="nature">
<NAME>R2W1_CWG0</NAME>
<OUTCOME>&apos;All&apos;</OUTCOME>
<PROPERTY>position = (350,650)</PROPERTY>
</VARIABLE>
<VARIABLE TYPE="nature">
<NAME>R2W1_AVG0</NAME>
<OUTCOME>&apos;All&apos;</OUTCOME>
<PROPERTY>position = (400,650)</PROPERTY>
</VARIABLE>
<VARIABLE TYPE="nature">
<NAME>R2W1_RPI1</NAME>
<OUTCOME>&apos;All&apos;</OUTCOME>
<PROPERTY>position = (450,650)</PROPERTY>
</VARIABLE>
<VARIABLE TYPE="nature">
<NAME>R2W1_PYTH1</NAME>
<OUTCOME>&apos;All&apos;</OUTCOME>
<PROPERTY>position = (0,700)</PROPERTY>
</VARIABLE>
<VARIABLE TYPE="nature">
<NAME>R2W1_CWG1</NAME>
<OUTCOME>&apos;All&apos;</OUTCOME>
<PROPERTY>position = (50,700)</PROPERTY>
</VARIABLE>
<VARIABLE TYPE="nature">
<NAME>R2W1_AVG1</NAME>
<OUTCOME>&apos;All&apos;</OUTCOME>
<PROPERTY>position = (100,700)</PROPERTY>
</VARIABLE>
<VARIABLE TYPE="nature">
<NAME>R2W1_W</NAME>
<OUTCOME>R2W1_h</OUTCOME>
<PROPERTY>position = (150,700)</PROPERTY>
</VARIABLE>
<VARIABLE TYPE="nature">
<NAME>R2W4_RPI0</NAME>
<OUTCOME>&apos;All&apos;</OUTCOME>
<PROPERTY>position = (200,700)</PROPERTY>
</VARIABLE>
<VARIABLE TYPE="nature">
<NAME>R2W4_PYTH0</NAME>
<OUTCOME>&apos;All&apos;</OUTCOME>
<PROPERTY>position = (250,700)</PROPERTY>
</VARIABLE>
<VARIABLE TYPE="nature">
<NAME>R2W4_CWG0</NAME>
<OUTCOME>&apos;All&apos;</OUTCOME>
<PROPERTY>position = (300,700)</PROPERTY>
</VARIABLE>
<VARIABLE TYPE="nature">
<NAME>R2W4_AVG0</NAME>
<OUTCOME>&apos;All&apos;</OUTCOME>
<PROPERTY>position = (350,700)</PROPERTY>
</VARIABLE>
<VARIABLE TYPE="nature">
<NAME>R2W4_RPI1</NAME>
<OUTCOME>&apos;All&apos;</OUTCOME>
<PROPERTY>position = (400,700)</PROPERTY>
</VARIABLE>
<VARIABLE TYPE="nature">
<NAME>R2W4_PYTH1</NAME>
<OUTCOME>&apos;All&apos;</OUTCOME>
<PROPERTY>position = (450,700)</PROPERTY>
</VARIABLE>
<VARIABLE TYPE="nature">
<NAME>R2W4_CWG1</NAME>
<OUTCOME>&apos;All&apos;</OUTCOME>
<PROPERTY>position = (0,750)</PROPERTY>
</VARIABLE>
<VARIABLE TYPE="nature">
<NAME>R2W4_AVG1</NAME>
<OUTCOME>&apos;All&apos;</OUTCOME>
<PROPERTY>position = (50,750)</PROPERTY>
</VARIABLE>
<VARIABLE TYPE="nature">
<NAME>R2W4_W</NAME>
<OUTCOME>R2W4_l</OUTCOME>
<OUTCOME>R2W4_h</OUTCOME>
<PROPERTY>position = (100,750)</PROPERTY>
</VARIABLE>
<VARIABLE TYPE="nature">
<NAME>R2W2_RPI0</NAME>
<OUTCOME>&apos;All&apos;</OUTCOME>
<PROPERTY>position = (150,750)</PROPERTY>
</VARIABLE>
<VARIABLE TYPE="nature">
<NAME>R2W2_PYTH0</NAME>
<OUTCOME>&apos;All&apos;</OUTCOME>
<PROPERTY>position = (200,750)</PROPERTY>
</VARIABLE>
<VARIABLE TYPE="nature">
<NAME>R2W2_CWG0</NAME>
<OUTCOME>&apos;All&apos;</OUTCOME>
<PROPERTY>position = (250,750)</PROPERTY>
</VARIABLE>
<VARIABLE TYPE="nature">
<NAME>R2W2_AVG0</NAME>
<OUTCOME>&apos;All&apos;</OUTCOME>
<PROPERTY>position = (300,750)</PROPERTY>
</VARIABLE>
<VARIABLE TYPE="nature">
<NAME>R2W2_RPI1</NAME>
<OUTCOME>&apos;All&apos;</OUTCOME>
<PROPERTY>position = (350,750)</PROPERTY>
</VARIABLE>
<VARIABLE TYPE="nature">
<NAME>R2W2_PYTH1</NAME>
<OUTCOME>&apos;All&apos;</OUTCOME>
<PROPERTY>position = (400,750)</PROPERTY>
</VARIABLE>
<VARIABLE TYPE="nature">
<NAME>R2W2_CWG1</NAME>
<OUTCOME>&apos;All&apos;</OUTCOME>
<PROPERTY>position = (450,750)</PROPERTY>
</VARIABLE>
<VARIABLE TYPE="nature">
<NAME>R2W2_AVG1</NAME>
<OUTCOME>&apos;All&apos;</OUTCOME>
<PROPERTY>position = (0,800)</PROPERTY>
</VARIABLE>
<VARIABLE TYPE="nature">
<NAME>R2W2_W</NAME>
<OUTCOME>R2W2_h</OUTCOME>
<OUTCOME>R2W2_l</OUTCOME>
<PROPERTY>position = (50,800)</PROPERTY>
</VARIABLE>
<VARIABLE TYPE="nature">
<NAME>R2W3_RPI0</NAME>
<OUTCOME>&apos;All&apos;</OUTCOME>
<PROPERTY>position = (100,800)</PROPERTY>
</VARIABLE>
<VARIABLE TYPE="nature">
<NAME>R2W3_PYTH0</NAME>
<OUTCOME>&apos;All&apos;</OUTCOME>
<PROPERTY>position = (150,800)</PROPERTY>
</VARIABLE>
<VARIABLE TYPE="nature">
<NAME>R2W3_CWG0</NAME>
<OUTCOME>&apos;All&apos;</OUTCOME>
<PROPERTY>position = (200,800)</PROPERTY>
</VARIABLE>
<VARIABLE TYPE="nature">
<NAME>R2W3_AVG0</NAME>
<OUTCOME>&apos;All&apos;</OUTCOME>
<PROPERTY>position = (250,800)</PROPERTY>
</VARIABLE>
<VARIABLE TYPE="nature">
<NAME>R2W3_RPI1</NAME>
<OUTCOME>&apos;All&apos;</OUTCOME>
<PROPERTY>position = (300,800)</PROPERTY>
</VARIABLE>
<VARIABLE TYPE="nature">
<NAME>R2W3_PYTH1</NAME>
<OUTCOME>&apos;All&apos;</OUTCOME>
<PROPERTY>position = (350,800)</PROPERTY>
</VARIABLE>
<VARIABLE TYPE="nature">
<NAME>R2W3_CWG1</NAME>
<OUTCOME>&apos;All&apos;</OUTCOME>
<PROPERTY>position = (400,800)</PROPERTY>
</VARIABLE>
<VARIABLE TYPE="nature">
<NAME>R2W3_AVG1</NAME>
<OUTCOME>&apos;All&apos;</OUTCOME>
<PROPERTY>position = (450,800)</PROPERTY>
</VARIABLE>
<VARIABLE TYPE="nature">
<NAME>R2W3_W</NAME>
<OUTCOME>R2W3_h</OUTCOME>
<OUTCOME>R2W3_l</OUTCOME>
<PROPERTY>position = (0,850)</PROPERTY>
</VARIABLE>
<VARIABLE TYPE="nature">
<NAME>R2X1_RPI0</NAME>
<OUTCOME>&apos;All&apos;</OUTCOME>
<PROPERTY>position = (50,850)</PROPERTY>
</VARIABLE>
<VARIABLE TYPE="nature">
<NAME>R2X1_PYTH0</NAME>
<OUTCOME>&apos;All&apos;</OUTCOME>
<PROPERTY>position = (100,850)</PROPERTY>
</VARIABLE>
<VARIABLE TYPE="nature">
<NAME>R2X1_CWG0</NAME>
<OUTCOME>&apos;All&apos;</OUTCOME>
<PROPERTY>position = (150,850)</PROPERTY>
</VARIABLE>
<VARIABLE TYPE="nature">
<NAME>R2X1_AVG0</NAME>
<OUTCOME>&apos;All&apos;</OUTCOME>
<PROPERTY>position = (200,850)</PROPERTY>
</VARIABLE>
<VARIABLE TYPE="nature">
<NAME>R2X1_RPI1</NAME>
<OUTCOME>&apos;All&apos;</OUTCOME>
<PROPERTY>position = (250,850)</PROPERTY>
</VARIABLE>
<VARIABLE TYPE="nature">
<NAME>R2X1_PYTH1</NAME>
<OUTCOME>&apos;All&apos;</OUTCOME>
<PROPERTY>position = (300,850)</PROPERTY>
</VARIABLE>
<VARIABLE TYPE="nature">
<NAME>R2X1_CWG1</NAME>
<OUTCOME>&apos;All&apos;</OUTCOME>
<PROPERTY>position = (350,850)</PROPERTY>
</VARIABLE>
<VARIABLE TYPE="nature">
<NAME>R2X1_AVG1</NAME>
<OUTCOME>&apos;All&apos;</OUTCOME>
<PROPERTY>position = (400,850)</PROPERTY>
</VARIABLE>
<VARIABLE TYPE="nature">
<NAME>R2X1_W</NAME>
<OUTCOME>R2X1_h</OUTCOME>
<OUTCOME>R2X1_l</OUTCOME>
<PROPERTY>position = (450,850)</PROPERTY>
</VARIABLE>
<VARIABLE TYPE="nature">
<NAME>R2X4_RPI0</NAME>
<OUTCOME>&apos;All&apos;</OUTCOME>
<PROPERTY>position = (0,900)</PROPERTY>
</VARIABLE>
<VARIABLE TYPE="nature">
<NAME>R2X4_PYTH0</NAME>
<OUTCOME>&apos;All&apos;</OUTCOME>
<PROPERTY>position = (50,900)</PROPERTY>
</VARIABLE>
<VARIABLE TYPE="nature">
<NAME>R2X4_CWG0</NAME>
<OUTCOME>&apos;All&apos;</OUTCOME>
<PROPERTY>position = (100,900)</PROPERTY>
</VARIABLE>
<VARIABLE TYPE="nature">
<NAME>R2X4_AVG0</NAME>
<OUTCOME>&apos;All&apos;</OUTCOME>
<PROPERTY>position = (150,900)</PROPERTY>
</VARIABLE>
<VARIABLE TYPE="nature">
<NAME>R2X4_RPI1</NAME>
<OUTCOME>&apos;All&apos;</OUTCOME>
<PROPERTY>position = (200,900)</PROPERTY>
</VARIABLE>
<VARIABLE TYPE="nature">
<NAME>R2X4_PYTH1</NAME>
<OUTCOME>&apos;All&apos;</OUTCOME>
<PROPERTY>position = (250,900)</PROPERTY>
</VARIABLE>
<VARIABLE TYPE="nature">
<NAME>R2X4_CWG1</NAME>
<OUTCOME>&apos;All&apos;</OUTCOME>
<PROPERTY>position = (300,900)</PROPERTY>
</VARIABLE>
<VARIABLE TYPE="nature">
<NAME>R2X4_AVG1</NAME>
<OUTCOME>&apos;All&apos;</OUTCOME>
<PROPERTY>position = (350,900)</PROPERTY>
</VARIABLE>
<VARIABLE TYPE="nature">
<NAME>R2X4_W</NAME>
<OUTCOME>R2X4_h</OUTCOME>
<OUTCOME>R2X4_l</OUTCOME>
<PROPERTY>position = (400,900)</PROPERTY>
</VARIABLE>
<VARIABLE TYPE="nature">
<NAME>R2X2_RPI0</NAME>
<OUTCOME>&apos;All&apos;</OUTCOME>
<PROPERTY>position = (450,900)</PROPERTY>
</VARIABLE>
<VARIABLE TYPE="nature">
<NAME>R2X2_PYTH0</NAME>
<OUTCOME>&apos;All&apos;</OUTCOME>
<PROPERTY>position = (0,950)</PROPERTY>
</VARIABLE>
<VARIABLE TYPE="nature">
<NAME>R2X2_CWG0</NAME>
<OUTCOME>&apos;All&apos;</OUTCOME>
<PROPERTY>position = (50,950)</PROPERTY>
</VARIABLE>
<VARIABLE TYPE="nature">
<NAME>R2X2_AVG0</NAME>
<OUTCOME>&apos;All&apos;</OUTCOME>
<PROPERTY>position = (100,950)</PROPERTY>
</VARIABLE>
<VARIABLE TYPE="nature">
<NAME>R2X2_RPI1</NAME>
<OUTCOME>&apos;(-inf-24.5]&apos;</OUTCOME>
<OUTCOME>&apos;(24.5-inf)&apos;</OUTCOME>
<PROPERTY>position = (150,950)</PROPERTY>
</VARIABLE>
<VARIABLE TYPE="nature">
<NAME>R2X2_PYTH1</NAME>
<OUTCOME>&apos;All&apos;</OUTCOME>
<PROPERTY>position = (200,950)</PROPERTY>
</VARIABLE>
<VARIABLE TYPE="nature">
<NAME>R2X2_CWG1</NAME>
<OUTCOME>&apos;All&apos;</OUTCOME>
<PROPERTY>position = (250,950)</PROPERTY>
</VARIABLE>
<VARIABLE TYPE="nature">
<NAME>R2X2_AVG1</NAME>
<OUTCOME>&apos;All&apos;</OUTCOME>
<PROPERTY>position = (300,950)</PROPERTY>
</VARIABLE>
<VARIABLE TYPE="nature">
<NAME>R2X2_W</NAME>
<OUTCOME>R2X2_h</OUTCOME>
<OUTCOME>R2X2_l</OUTCOME>
<PROPERTY>position = (350,950)</PROPERTY>
</VARIABLE>
<VARIABLE TYPE="nature">
<NAME>R2X3_RPI0</NAME>
<OUTCOME>&apos;All&apos;</OUTCOME>
<PROPERTY>position = (400,950)</PROPERTY>
</VARIABLE>
<VARIABLE TYPE="nature">
<NAME>R2X3_PYTH0</NAME>
<OUTCOME>&apos;All&apos;</OUTCOME>
<PROPERTY>position = (450,950)</PROPERTY>
</VARIABLE>
<VARIABLE TYPE="nature">
<NAME>R2X3_CWG0</NAME>
<OUTCOME>&apos;All&apos;</OUTCOME>
<PROPERTY>position = (0,1000)</PROPERTY>
</VARIABLE>
<VARIABLE TYPE="nature">
<NAME>R2X3_AVG0</NAME>
<OUTCOME>&apos;All&apos;</OUTCOME>
<PROPERTY>position = (50,1000)</PROPERTY>
</VARIABLE>
<VARIABLE TYPE="nature">
<NAME>R2X3_RPI1</NAME>
<OUTCOME>&apos;All&apos;</OUTCOME>
<PROPERTY>position = (100,1000)</PROPERTY>
</VARIABLE>
<VARIABLE TYPE="nature">
<NAME>R2X3_PYTH1</NAME>
<OUTCOME>&apos;All&apos;</OUTCOME>
<PROPERTY>position = (150,1000)</PROPERTY>
</VARIABLE>
<VARIABLE TYPE="nature">
<NAME>R2X3_CWG1</NAME>
<OUTCOME>&apos;All&apos;</OUTCOME>
<PROPERTY>position = (200,1000)</PROPERTY>
</VARIABLE>
<VARIABLE TYPE="nature">
<NAME>R2X3_AVG1</NAME>
<OUTCOME>&apos;All&apos;</OUTCOME>
<PROPERTY>position = (250,1000)</PROPERTY>
</VARIABLE>
<VARIABLE TYPE="nature">
<NAME>R2X3_W</NAME>
<OUTCOME>R2X3_l</OUTCOME>
<OUTCOME>R2X3_h</OUTCOME>
<PROPERTY>position = (300,1000)</PROPERTY>
</VARIABLE>
<VARIABLE TYPE="nature">
<NAME>R2Y1_RPI0</NAME>
<OUTCOME>&apos;All&apos;</OUTCOME>
<PROPERTY>position = (350,1000)</PROPERTY>
</VARIABLE>
<VARIABLE TYPE="nature">
<NAME>R2Y1_PYTH0</NAME>
<OUTCOME>&apos;All&apos;</OUTCOME>
<PROPERTY>position = (400,1000)</PROPERTY>
</VARIABLE>
<VARIABLE TYPE="nature">
<NAME>R2Y1_CWG0</NAME>
<OUTCOME>&apos;All&apos;</OUTCOME>
<PROPERTY>position = (450,1000)</PROPERTY>
</VARIABLE>
<VARIABLE TYPE="nature">
<NAME>R2Y1_AVG0</NAME>
<OUTCOME>&apos;All&apos;</OUTCOME>
<PROPERTY>position = (0,1050)</PROPERTY>
</VARIABLE>
<VARIABLE TYPE="nature">
<NAME>R2Y1_RPI1</NAME>
<OUTCOME>&apos;All&apos;</OUTCOME>
<PROPERTY>position = (50,1050)</PROPERTY>
</VARIABLE>
<VARIABLE TYPE="nature">
<NAME>R2Y1_PYTH1</NAME>
<OUTCOME>&apos;All&apos;</OUTCOME>
<PROPERTY>position = (100,1050)</PROPERTY>
</VARIABLE>
<VARIABLE TYPE="nature">
<NAME>R2Y1_CWG1</NAME>
<OUTCOME>&apos;All&apos;</OUTCOME>
<PROPERTY>position = (150,1050)</PROPERTY>
</VARIABLE>
<VARIABLE TYPE="nature">
<NAME>R2Y1_AVG1</NAME>
<OUTCOME>&apos;All&apos;</OUTCOME>
<PROPERTY>position = (200,1050)</PROPERTY>
</VARIABLE>
<VARIABLE TYPE="nature">
<NAME>R2Y1_W</NAME>
<OUTCOME>R2Y1_h</OUTCOME>
<OUTCOME>R2Y1_l</OUTCOME>
<PROPERTY>position = (250,1050)</PROPERTY>
</VARIABLE>
<VARIABLE TYPE="nature">
<NAME>R2Y4_RPI0</NAME>
<OUTCOME>&apos;All&apos;</OUTCOME>
<PROPERTY>position = (300,1050)</PROPERTY>
</VARIABLE>
<VARIABLE TYPE="nature">
<NAME>R2Y4_PYTH0</NAME>
<OUTCOME>&apos;All&apos;</OUTCOME>
<PROPERTY>position = (350,1050)</PROPERTY>
</VARIABLE>
<VARIABLE TYPE="nature">
<NAME>R2Y4_CWG0</NAME>
<OUTCOME>&apos;All&apos;</OUTCOME>
<PROPERTY>position = (400,1050)</PROPERTY>
</VARIABLE>
<VARIABLE TYPE="nature">
<NAME>R2Y4_AVG0</NAME>
<OUTCOME>&apos;All&apos;</OUTCOME>
<PROPERTY>position = (450,1050)</PROPERTY>
</VARIABLE>
<VARIABLE TYPE="nature">
<NAME>R2Y4_RPI1</NAME>
<OUTCOME>&apos;All&apos;</OUTCOME>
<PROPERTY>position = (0,1100)</PROPERTY>
</VARIABLE>
<VARIABLE TYPE="nature">
<NAME>R2Y4_PYTH1</NAME>
<OUTCOME>&apos;All&apos;</OUTCOME>
<PROPERTY>position = (50,1100)</PROPERTY>
</VARIABLE>
<VARIABLE TYPE="nature">
<NAME>R2Y4_CWG1</NAME>
<OUTCOME>&apos;All&apos;</OUTCOME>
<PROPERTY>position = (100,1100)</PROPERTY>
</VARIABLE>
<VARIABLE TYPE="nature">
<NAME>R2Y4_AVG1</NAME>
<OUTCOME>&apos;All&apos;</OUTCOME>
<PROPERTY>position = (150,1100)</PROPERTY>
</VARIABLE>
<VARIABLE TYPE="nature">
<NAME>R2Y4_W</NAME>
<OUTCOME>R2Y4_l</OUTCOME>
<OUTCOME>R2Y4_h</OUTCOME>
<PROPERTY>position = (200,1100)</PROPERTY>
</VARIABLE>
<VARIABLE TYPE="nature">
<NAME>R2Y2_RPI0</NAME>
<OUTCOME>&apos;All&apos;</OUTCOME>
<PROPERTY>position = (250,1100)</PROPERTY>
</VARIABLE>
<VARIABLE TYPE="nature">
<NAME>R2Y2_PYTH0</NAME>
<OUTCOME>&apos;All&apos;</OUTCOME>
<PROPERTY>position = (300,1100)</PROPERTY>
</VARIABLE>
<VARIABLE TYPE="nature">
<NAME>R2Y2_CWG0</NAME>
<OUTCOME>&apos;All&apos;</OUTCOME>
<PROPERTY>position = (350,1100)</PROPERTY>
</VARIABLE>
<VARIABLE TYPE="nature">
<NAME>R2Y2_AVG0</NAME>
<OUTCOME>&apos;All&apos;</OUTCOME>
<PROPERTY>position = (400,1100)</PROPERTY>
</VARIABLE>
<VARIABLE TYPE="nature">
<NAME>R2Y2_RPI1</NAME>
<OUTCOME>&apos;All&apos;</OUTCOME>
<PROPERTY>position = (450,1100)</PROPERTY>
</VARIABLE>
<VARIABLE TYPE="nature">
<NAME>R2Y2_PYTH1</NAME>
<OUTCOME>&apos;All&apos;</OUTCOME>
<PROPERTY>position = (0,1150)</PROPERTY>
</VARIABLE>
<VARIABLE TYPE="nature">
<NAME>R2Y2_CWG1</NAME>
<OUTCOME>&apos;All&apos;</OUTCOME>
<PROPERTY>position = (50,1150)</PROPERTY>
</VARIABLE>
<VARIABLE TYPE="nature">
<NAME>R2Y2_AVG1</NAME>
<OUTCOME>&apos;All&apos;</OUTCOME>
<PROPERTY>position = (100,1150)</PROPERTY>
</VARIABLE>
<VARIABLE TYPE="nature">
<NAME>R2Y2_W</NAME>
<OUTCOME>R2Y2_h</OUTCOME>
<OUTCOME>R2Y2_l</OUTCOME>
<PROPERTY>position = (150,1150)</PROPERTY>
</VARIABLE>
<VARIABLE TYPE="nature">
<NAME>R2Y3_RPI0</NAME>
<OUTCOME>&apos;All&apos;</OUTCOME>
<PROPERTY>position = (200,1150)</PROPERTY>
</VARIABLE>
<VARIABLE TYPE="nature">
<NAME>R2Y3_PYTH0</NAME>
<OUTCOME>&apos;All&apos;</OUTCOME>
<PROPERTY>position = (250,1150)</PROPERTY>
</VARIABLE>
<VARIABLE TYPE="nature">
<NAME>R2Y3_CWG0</NAME>
<OUTCOME>&apos;All&apos;</OUTCOME>
<PROPERTY>position = (300,1150)</PROPERTY>
</VARIABLE>
<VARIABLE TYPE="nature">
<NAME>R2Y3_AVG0</NAME>
<OUTCOME>&apos;All&apos;</OUTCOME>
<PROPERTY>position = (350,1150)</PROPERTY>
</VARIABLE>
<VARIABLE TYPE="nature">
<NAME>R2Y3_RPI1</NAME>
<OUTCOME>&apos;All&apos;</OUTCOME>
<PROPERTY>position = (400,1150)</PROPERTY>
</VARIABLE>
<VARIABLE TYPE="nature">
<NAME>R2Y3_PYTH1</NAME>
<OUTCOME>&apos;All&apos;</OUTCOME>
<PROPERTY>position = (450,1150)</PROPERTY>
</VARIABLE>
<VARIABLE TYPE="nature">
<NAME>R2Y3_CWG1</NAME>
<OUTCOME>&apos;All&apos;</OUTCOME>
<PROPERTY>position = (0,1200)</PROPERTY>
</VARIABLE>
<VARIABLE TYPE="nature">
<NAME>R2Y3_AVG1</NAME>
<OUTCOME>&apos;All&apos;</OUTCOME>
<PROPERTY>position = (50,1200)</PROPERTY>
</VARIABLE>
<VARIABLE TYPE="nature">
<NAME>R2Y3_W</NAME>
<OUTCOME>R2Y3_h</OUTCOME>
<OUTCOME>R2Y3_l</OUTCOME>
<PROPERTY>position = (100,1200)</PROPERTY>
</VARIABLE>
<VARIABLE TYPE="nature">
<NAME>R2Z1_RPI0</NAME>
<OUTCOME>&apos;All&apos;</OUTCOME>
<PROPERTY>position = (150,1200)</PROPERTY>
</VARIABLE>
<VARIABLE TYPE="nature">
<NAME>R2Z1_PYTH0</NAME>
<OUTCOME>&apos;All&apos;</OUTCOME>
<PROPERTY>position = (200,1200)</PROPERTY>
</VARIABLE>
<VARIABLE TYPE="nature">
<NAME>R2Z1_CWG0</NAME>
<OUTCOME>&apos;All&apos;</OUTCOME>
<PROPERTY>position = (250,1200)</PROPERTY>
</VARIABLE>
<VARIABLE TYPE="nature">
<NAME>R2Z1_AVG0</NAME>
<OUTCOME>&apos;All&apos;</OUTCOME>
<PROPERTY>position = (300,1200)</PROPERTY>
</VARIABLE>
<VARIABLE TYPE="nature">
<NAME>R2Z1_RPI1</NAME>
<OUTCOME>&apos;All&apos;</OUTCOME>
<PROPERTY>position = (350,1200)</PROPERTY>
</VARIABLE>
<VARIABLE TYPE="nature">
<NAME>R2Z1_PYTH1</NAME>
<OUTCOME>&apos;All&apos;</OUTCOME>
<PROPERTY>position = (400,1200)</PROPERTY>
</VARIABLE>
<VARIABLE TYPE="nature">
<NAME>R2Z1_CWG1</NAME>
<OUTCOME>&apos;All&apos;</OUTCOME>
<PROPERTY>position = (450,1200)</PROPERTY>
</VARIABLE>
<VARIABLE TYPE="nature">
<NAME>R2Z1_AVG1</NAME>
<OUTCOME>&apos;All&apos;</OUTCOME>
<PROPERTY>position = (0,1250)</PROPERTY>
</VARIABLE>
<VARIABLE TYPE="nature">
<NAME>R2Z1_W</NAME>
<OUTCOME>R2Z1_l</OUTCOME>
<OUTCOME>R2Z1_h</OUTCOME>
<PROPERTY>position = (50,1250)</PROPERTY>
</VARIABLE>
<VARIABLE TYPE="nature">
<NAME>R2Z4_RPI0</NAME>
<OUTCOME>&apos;All&apos;</OUTCOME>
<PROPERTY>position = (100,1250)</PROPERTY>
</VARIABLE>
<VARIABLE TYPE="nature">
<NAME>R2Z4_PYTH0</NAME>
<OUTCOME>&apos;All&apos;</OUTCOME>
<PROPERTY>position = (150,1250)</PROPERTY>
</VARIABLE>
<VARIABLE TYPE="nature">
<NAME>R2Z4_CWG0</NAME>
<OUTCOME>&apos;All&apos;</OUTCOME>
<PROPERTY>position = (200,1250)</PROPERTY>
</VARIABLE>
<VARIABLE TYPE="nature">
<NAME>R2Z4_AVG0</NAME>
<OUTCOME>&apos;All&apos;</OUTCOME>
<PROPERTY>position = (250,1250)</PROPERTY>
</VARIABLE>
<VARIABLE TYPE="nature">
<NAME>R2Z4_RPI1</NAME>
<OUTCOME>&apos;All&apos;</OUTCOME>
<PROPERTY>position = (300,1250)</PROPERTY>
</VARIABLE>
<VARIABLE TYPE="nature">
<NAME>R2Z4_PYTH1</NAME>
<OUTCOME>&apos;All&apos;</OUTCOME>
<PROPERTY>position = (350,1250)</PROPERTY>
</VARIABLE>
<VARIABLE TYPE="nature">
<NAME>R2Z4_CWG1</NAME>
<OUTCOME>&apos;All&apos;</OUTCOME>
<PROPERTY>position = (400,1250)</PROPERTY>
</VARIABLE>
<VARIABLE TYPE="nature">
<NAME>R2Z4_AVG1</NAME>
<OUTCOME>&apos;All&apos;</OUTCOME>
<PROPERTY>position = (450,1250)</PROPERTY>
</VARIABLE>
<VARIABLE TYPE="nature">
<NAME>R2Z4_W</NAME>
<OUTCOME>R2Z4_h</OUTCOME>
<OUTCOME>R2Z4_l</OUTCOME>
<PROPERTY>position = (0,1300)</PROPERTY>
</VARIABLE>
<VARIABLE TYPE="nature">
<NAME>R2Z2_RPI0</NAME>
<OUTCOME>&apos;All&apos;</OUTCOME>
<PROPERTY>position = (50,1300)</PROPERTY>
</VARIABLE>
<VARIABLE TYPE="nature">
<NAME>R2Z2_PYTH0</NAME>
<OUTCOME>&apos;All&apos;</OUTCOME>
<PROPERTY>position = (100,1300)</PROPERTY>
</VARIABLE>
<VARIABLE TYPE="nature">
<NAME>R2Z2_CWG0</NAME>
<OUTCOME>&apos;All&apos;</OUTCOME>
<PROPERTY>position = (150,1300)</PROPERTY>
</VARIABLE>
<VARIABLE TYPE="nature">
<NAME>R2Z2_AVG0</NAME>
<OUTCOME>&apos;All&apos;</OUTCOME>
<PROPERTY>position = (200,1300)</PROPERTY>
</VARIABLE>
<VARIABLE TYPE="nature">
<NAME>R2Z2_RPI1</NAME>
<OUTCOME>&apos;All&apos;</OUTCOME>
<PROPERTY>position = (250,1300)</PROPERTY>
</VARIABLE>
<VARIABLE TYPE="nature">
<NAME>R2Z2_PYTH1</NAME>
<OUTCOME>&apos;All&apos;</OUTCOME>
<PROPERTY>position = (300,1300)</PROPERTY>
</VARIABLE>
<VARIABLE TYPE="nature">
<NAME>R2Z2_CWG1</NAME>
<OUTCOME>&apos;All&apos;</OUTCOME>
<PROPERTY>position = (350,1300)</PROPERTY>
</VARIABLE>
<VARIABLE TYPE="nature">
<NAME>R2Z2_AVG1</NAME>
<OUTCOME>&apos;All&apos;</OUTCOME>
<PROPERTY>position = (400,1300)</PROPERTY>
</VARIABLE>
<VARIABLE TYPE="nature">
<NAME>R2Z2_W</NAME>
<OUTCOME>R2Z2_h</OUTCOME>
<OUTCOME>R2Z2_l</OUTCOME>
<PROPERTY>position = (450,1300)</PROPERTY>
</VARIABLE>
<VARIABLE TYPE="nature">
<NAME>R2Z3_RPI0</NAME>
<OUTCOME>&apos;All&apos;</OUTCOME>
<PROPERTY>position = (0,1350)</PROPERTY>
</VARIABLE>
<VARIABLE TYPE="nature">
<NAME>R2Z3_PYTH0</NAME>
<OUTCOME>&apos;All&apos;</OUTCOME>
<PROPERTY>position = (50,1350)</PROPERTY>
</VARIABLE>
<VARIABLE TYPE="nature">
<NAME>R2Z3_CWG0</NAME>
<OUTCOME>&apos;All&apos;</OUTCOME>
<PROPERTY>position = (100,1350)</PROPERTY>
</VARIABLE>
<VARIABLE TYPE="nature">
<NAME>R2Z3_AVG0</NAME>
<OUTCOME>&apos;All&apos;</OUTCOME>
<PROPERTY>position = (150,1350)</PROPERTY>
</VARIABLE>
<VARIABLE TYPE="nature">
<NAME>R2Z3_RPI1</NAME>
<OUTCOME>&apos;(-inf-20]&apos;</OUTCOME>
<OUTCOME>&apos;(20-inf)&apos;</OUTCOME>
<PROPERTY>position = (200,1350)</PROPERTY>
</VARIABLE>
<VARIABLE TYPE="nature">
<NAME>R2Z3_PYTH1</NAME>
<OUTCOME>&apos;(-inf-28.5]&apos;</OUTCOME>
<OUTCOME>&apos;(28.5-inf)&apos;</OUTCOME>
<PROPERTY>position = (250,1350)</PROPERTY>
</VARIABLE>
<VARIABLE TYPE="nature">
<NAME>R2Z3_CWG1</NAME>
<OUTCOME>&apos;All&apos;</OUTCOME>
<PROPERTY>position = (300,1350)</PROPERTY>
</VARIABLE>
<VARIABLE TYPE="nature">
<NAME>R2Z3_AVG1</NAME>
<OUTCOME>&apos;(-inf-17.5]&apos;</OUTCOME>
<OUTCOME>&apos;(17.5-inf)&apos;</OUTCOME>
<PROPERTY>position = (350,1350)</PROPERTY>
</VARIABLE>
<VARIABLE TYPE="nature">
<NAME>R2Z3_W</NAME>
<OUTCOME>R2Z3_h</OUTCOME>
<OUTCOME>R2Z3_l</OUTCOME>
<PROPERTY>position = (400,1350)</PROPERTY>
</VARIABLE>
<VARIABLE TYPE="nature">
<NAME>R1W1_RPI0</NAME>
<OUTCOME>&apos;All&apos;</OUTCOME>
<PROPERTY>position = (450,1350)</PROPERTY>
</VARIABLE>
<VARIABLE TYPE="nature">
<NAME>R1W1_PYTH0</NAME>
<OUTCOME>&apos;All&apos;</OUTCOME>
<PROPERTY>position = (0,1400)</PROPERTY>
</VARIABLE>
<VARIABLE TYPE="nature">
<NAME>R1W1_CWG0</NAME>
<OUTCOME>&apos;All&apos;</OUTCOME>
<PROPERTY>position = (50,1400)</PROPERTY>
</VARIABLE>
<VARIABLE TYPE="nature">
<NAME>R1W1_AVG0</NAME>
<OUTCOME>&apos;All&apos;</OUTCOME>
<PROPERTY>position = (100,1400)</PROPERTY>
</VARIABLE>
<VARIABLE TYPE="nature">
<NAME>R1W1_RPI1</NAME>
<OUTCOME>&apos;All&apos;</OUTCOME>
<PROPERTY>position = (150,1400)</PROPERTY>
</VARIABLE>
<VARIABLE TYPE="nature">
<NAME>R1W1_PYTH1</NAME>
<OUTCOME>&apos;All&apos;</OUTCOME>
<PROPERTY>position = (200,1400)</PROPERTY>
</VARIABLE>
<VARIABLE TYPE="nature">
<NAME>R1W1_CWG1</NAME>
<OUTCOME>&apos;All&apos;</OUTCOME>
<PROPERTY>position = (250,1400)</PROPERTY>
</VARIABLE>
<VARIABLE TYPE="nature">
<NAME>R1W1_AVG1</NAME>
<OUTCOME>&apos;All&apos;</OUTCOME>
<PROPERTY>position = (300,1400)</PROPERTY>
</VARIABLE>
<VARIABLE TYPE="nature">
<NAME>R1W1_W</NAME>
<OUTCOME>R1W1_h</OUTCOME>
<PROPERTY>position = (350,1400)</PROPERTY>
</VARIABLE>
<VARIABLE TYPE="nature">
<NAME>R1W8_RPI0</NAME>
<OUTCOME>&apos;All&apos;</OUTCOME>
<PROPERTY>position = (400,1400)</PROPERTY>
</VARIABLE>
<VARIABLE TYPE="nature">
<NAME>R1W8_PYTH0</NAME>
<OUTCOME>&apos;All&apos;</OUTCOME>
<PROPERTY>position = (450,1400)</PROPERTY>
</VARIABLE>
<VARIABLE TYPE="nature">
<NAME>R1W8_CWG0</NAME>
<OUTCOME>&apos;All&apos;</OUTCOME>
<PROPERTY>position = (0,1450)</PROPERTY>
</VARIABLE>
<VARIABLE TYPE="nature">
<NAME>R1W8_AVG0</NAME>
<OUTCOME>&apos;All&apos;</OUTCOME>
<PROPERTY>position = (50,1450)</PROPERTY>
</VARIABLE>
<VARIABLE TYPE="nature">
<NAME>R1W8_RPI1</NAME>
<OUTCOME>&apos;All&apos;</OUTCOME>
<PROPERTY>position = (100,1450)</PROPERTY>
</VARIABLE>
<VARIABLE TYPE="nature">
<NAME>R1W8_PYTH1</NAME>
<OUTCOME>&apos;All&apos;</OUTCOME>
<PROPERTY>position = (150,1450)</PROPERTY>
</VARIABLE>
<VARIABLE TYPE="nature">
<NAME>R1W8_CWG1</NAME>
<OUTCOME>&apos;All&apos;</OUTCOME>
<PROPERTY>position = (200,1450)</PROPERTY>
</VARIABLE>
<VARIABLE TYPE="nature">
<NAME>R1W8_AVG1</NAME>
<OUTCOME>&apos;All&apos;</OUTCOME>
<PROPERTY>position = (250,1450)</PROPERTY>
</VARIABLE>
<VARIABLE TYPE="nature">
<NAME>R1W8_W</NAME>
<OUTCOME>R1W8_l</OUTCOME>
<OUTCOME>R1W8_h</OUTCOME>
<PROPERTY>position = (300,1450)</PROPERTY>
</VARIABLE>
<VARIABLE TYPE="nature">
<NAME>R1W4_RPI0</NAME>
<OUTCOME>&apos;All&apos;</OUTCOME>
<PROPERTY>position = (350,1450)</PROPERTY>
</VARIABLE>
<VARIABLE TYPE="nature">
<NAME>R1W4_PYTH0</NAME>
<OUTCOME>&apos;All&apos;</OUTCOME>
<PROPERTY>position = (400,1450)</PROPERTY>
</VARIABLE>
<VARIABLE TYPE="nature">
<NAME>R1W4_CWG0</NAME>
<OUTCOME>&apos;All&apos;</OUTCOME>
<PROPERTY>position = (450,1450)</PROPERTY>
</VARIABLE>
<VARIABLE TYPE="nature">
<NAME>R1W4_AVG0</NAME>
<OUTCOME>&apos;All&apos;</OUTCOME>
<PROPERTY>position = (0,1500)</PROPERTY>
</VARIABLE>
<VARIABLE TYPE="nature">
<NAME>R1W4_RPI1</NAME>
<OUTCOME>&apos;All&apos;</OUTCOME>
<PROPERTY>position = (50,1500)</PROPERTY>
</VARIABLE>
<VARIABLE TYPE="nature">
<NAME>R1W4_PYTH1</NAME>
<OUTCOME>&apos;All&apos;</OUTCOME>
<PROPERTY>position = (100,1500)</PROPERTY>
</VARIABLE>
<VARIABLE TYPE="nature">
<NAME>R1W4_CWG1</NAME>
<OUTCOME>&apos;All&apos;</OUTCOME>
<PROPERTY>position = (150,1500)</PROPERTY>
</VARIABLE>
<VARIABLE TYPE="nature">
<NAME>R1W4_AVG1</NAME>
<OUTCOME>&apos;All&apos;</OUTCOME>
<PROPERTY>position = (200,1500)</PROPERTY>
</VARIABLE>
<VARIABLE TYPE="nature">
<NAME>R1W4_W</NAME>
<OUTCOME>R1W4_h</OUTCOME>
<PROPERTY>position = (250,1500)</PROPERTY>
</VARIABLE>
<VARIABLE TYPE="nature">
<NAME>R1W5_RPI0</NAME>
<OUTCOME>&apos;All&apos;</OUTCOME>
<PROPERTY>position = (300,1500)</PROPERTY>
</VARIABLE>
<VARIABLE TYPE="nature">
<NAME>R1W5_PYTH0</NAME>
<OUTCOME>&apos;All&apos;</OUTCOME>
<PROPERTY>position = (350,1500)</PROPERTY>
</VARIABLE>
<VARIABLE TYPE="nature">
<NAME>R1W5_CWG0</NAME>
<OUTCOME>&apos;All&apos;</OUTCOME>
<PROPERTY>position = (400,1500)</PROPERTY>
</VARIABLE>
<VARIABLE TYPE="nature">
<NAME>R1W5_AVG0</NAME>
<OUTCOME>&apos;All&apos;</OUTCOME>
<PROPERTY>position = (450,1500)</PROPERTY>
</VARIABLE>
<VARIABLE TYPE="nature">
<NAME>R1W5_RPI1</NAME>
<OUTCOME>&apos;All&apos;</OUTCOME>
<PROPERTY>position = (0,1550)</PROPERTY>
</VARIABLE>
<VARIABLE TYPE="nature">
<NAME>R1W5_PYTH1</NAME>
<OUTCOME>&apos;All&apos;</OUTCOME>
<PROPERTY>position = (50,1550)</PROPERTY>
</VARIABLE>
<VARIABLE TYPE="nature">
<NAME>R1W5_CWG1</NAME>
<OUTCOME>&apos;All&apos;</OUTCOME>
<PROPERTY>position = (100,1550)</PROPERTY>
</VARIABLE>
<VARIABLE TYPE="nature">
<NAME>R1W5_AVG1</NAME>
<OUTCOME>&apos;All&apos;</OUTCOME>
<PROPERTY>position = (150,1550)</PROPERTY>
</VARIABLE>
<VARIABLE TYPE="nature">
<NAME>R1W5_W</NAME>
<OUTCOME>R1W5_l</OUTCOME>
<OUTCOME>R1W5_h</OUTCOME>
<PROPERTY>position = (200,1550)</PROPERTY>
</VARIABLE>
<VARIABLE TYPE="nature">
<NAME>R1W2_RPI0</NAME>
<OUTCOME>&apos;All&apos;</OUTCOME>
<PROPERTY>position = (250,1550)</PROPERTY>
</VARIABLE>
<VARIABLE TYPE="nature">
<NAME>R1W2_PYTH0</NAME>
<OUTCOME>&apos;All&apos;</OUTCOME>
<PROPERTY>position = (300,1550)</PROPERTY>
</VARIABLE>
<VARIABLE TYPE="nature">
<NAME>R1W2_CWG0</NAME>
<OUTCOME>&apos;All&apos;</OUTCOME>
<PROPERTY>position = (350,1550)</PROPERTY>
</VARIABLE>
<VARIABLE TYPE="nature">
<NAME>R1W2_AVG0</NAME>
<OUTCOME>&apos;All&apos;</OUTCOME>
<PROPERTY>position = (400,1550)</PROPERTY>
</VARIABLE>
<VARIABLE TYPE="nature">
<NAME>R1W2_RPI1</NAME>
<OUTCOME>&apos;All&apos;</OUTCOME>
<PROPERTY>position = (450,1550)</PROPERTY>
</VARIABLE>
<VARIABLE TYPE="nature">
<NAME>R1W2_PYTH1</NAME>
<OUTCOME>&apos;All&apos;</OUTCOME>
<PROPERTY>position = (0,1600)</PROPERTY>
</VARIABLE>
<VARIABLE TYPE="nature">
<NAME>R1W2_CWG1</NAME>
<OUTCOME>&apos;All&apos;</OUTCOME>
<PROPERTY>position = (50,1600)</PROPERTY>
</VARIABLE>
<VARIABLE TYPE="nature">
<NAME>R1W2_AVG1</NAME>
<OUTCOME>&apos;All&apos;</OUTCOME>
<PROPERTY>position = (100,1600)</PROPERTY>
</VARIABLE>
<VARIABLE TYPE="nature">
<NAME>R1W2_W</NAME>
<OUTCOME>R1W2_h</OUTCOME>
<OUTCOME>R1W2_l</OUTCOME>
<PROPERTY>position = (150,1600)</PROPERTY>
</VARIABLE>
<VARIABLE TYPE="nature">
<NAME>R1W7_RPI0</NAME>
<OUTCOME>&apos;All&apos;</OUTCOME>
<PROPERTY>position = (200,1600)</PROPERTY>
</VARIABLE>
<VARIABLE TYPE="nature">
<NAME>R1W7_PYTH0</NAME>
<OUTCOME>&apos;All&apos;</OUTCOME>
<PROPERTY>position = (250,1600)</PROPERTY>
</VARIABLE>
<VARIABLE TYPE="nature">
<NAME>R1W7_CWG0</NAME>
<OUTCOME>&apos;All&apos;</OUTCOME>
<PROPERTY>position = (300,1600)</PROPERTY>
</VARIABLE>
<VARIABLE TYPE="nature">
<NAME>R1W7_AVG0</NAME>
<OUTCOME>&apos;All&apos;</OUTCOME>
<PROPERTY>position = (350,1600)</PROPERTY>
</VARIABLE>
<VARIABLE TYPE="nature">
<NAME>R1W7_RPI1</NAME>
<OUTCOME>&apos;All&apos;</OUTCOME>
<PROPERTY>position = (400,1600)</PROPERTY>
</VARIABLE>
<VARIABLE TYPE="nature">
<NAME>R1W7_PYTH1</NAME>
<OUTCOME>&apos;All&apos;</OUTCOME>
<PROPERTY>position = (450,1600)</PROPERTY>
</VARIABLE>
<VARIABLE TYPE="nature">
<NAME>R1W7_CWG1</NAME>
<OUTCOME>&apos;All&apos;</OUTCOME>
<PROPERTY>position = (0,1650)</PROPERTY>
</VARIABLE>
<VARIABLE TYPE="nature">
<NAME>R1W7_AVG1</NAME>
<OUTCOME>&apos;All&apos;</OUTCOME>
<PROPERTY>position = (50,1650)</PROPERTY>
</VARIABLE>
<VARIABLE TYPE="nature">
<NAME>R1W7_W</NAME>
<OUTCOME>R1W7_h</OUTCOME>
<OUTCOME>R1W7_l</OUTCOME>
<PROPERTY>position = (100,1650)</PROPERTY>
</VARIABLE>
<VARIABLE TYPE="nature">
<NAME>R1W3_RPI0</NAME>
<OUTCOME>&apos;All&apos;</OUTCOME>
<PROPERTY>position = (150,1650)</PROPERTY>
</VARIABLE>
<VARIABLE TYPE="nature">
<NAME>R1W3_PYTH0</NAME>
<OUTCOME>&apos;All&apos;</OUTCOME>
<PROPERTY>position = (200,1650)</PROPERTY>
</VARIABLE>
<VARIABLE TYPE="nature">
<NAME>R1W3_CWG0</NAME>
<OUTCOME>&apos;All&apos;</OUTCOME>
<PROPERTY>position = (250,1650)</PROPERTY>
</VARIABLE>
<VARIABLE TYPE="nature">
<NAME>R1W3_AVG0</NAME>
<OUTCOME>&apos;All&apos;</OUTCOME>
<PROPERTY>position = (300,1650)</PROPERTY>
</VARIABLE>
<VARIABLE TYPE="nature">
<NAME>R1W3_RPI1</NAME>
<OUTCOME>&apos;All&apos;</OUTCOME>
<PROPERTY>position = (350,1650)</PROPERTY>
</VARIABLE>
<VARIABLE TYPE="nature">
<NAME>R1W3_PYTH1</NAME>
<OUTCOME>&apos;All&apos;</OUTCOME>
<PROPERTY>position = (400,1650)</PROPERTY>
</VARIABLE>
<VARIABLE TYPE="nature">
<NAME>R1W3_CWG1</NAME>
<OUTCOME>&apos;All&apos;</OUTCOME>
<PROPERTY>position = (450,1650)</PROPERTY>
</VARIABLE>
<VARIABLE TYPE="nature">
<NAME>R1W3_AVG1</NAME>
<OUTCOME>&apos;All&apos;</OUTCOME>
<PROPERTY>position = (0,1700)</PROPERTY>
</VARIABLE>
<VARIABLE TYPE="nature">
<NAME>R1W3_W</NAME>
<OUTCOME>R1W3_h</OUTCOME>
<OUTCOME>R1W3_l</OUTCOME>
<PROPERTY>position = (50,1700)</PROPERTY>
</VARIABLE>
<VARIABLE TYPE="nature">
<NAME>R1W6_RPI0</NAME>
<OUTCOME>&apos;All&apos;</OUTCOME>
<PROPERTY>position = (100,1700)</PROPERTY>
</VARIABLE>
<VARIABLE TYPE="nature">
<NAME>R1W6_PYTH0</NAME>
<OUTCOME>&apos;All&apos;</OUTCOME>
<PROPERTY>position = (150,1700)</PROPERTY>
</VARIABLE>
<VARIABLE TYPE="nature">
<NAME>R1W6_CWG0</NAME>
<OUTCOME>&apos;All&apos;</OUTCOME>
<PROPERTY>position = (200,1700)</PROPERTY>
</VARIABLE>
<VARIABLE TYPE="nature">
<NAME>R1W6_AVG0</NAME>
<OUTCOME>&apos;All&apos;</OUTCOME>
<PROPERTY>position = (250,1700)</PROPERTY>
</VARIABLE>
<VARIABLE TYPE="nature">
<NAME>R1W6_RPI1</NAME>
<OUTCOME>&apos;All&apos;</OUTCOME>
<PROPERTY>position = (300,1700)</PROPERTY>
</VARIABLE>
<VARIABLE TYPE="nature">
<NAME>R1W6_PYTH1</NAME>
<OUTCOME>&apos;All&apos;</OUTCOME>
<PROPERTY>position = (350,1700)</PROPERTY>
</VARIABLE>
<VARIABLE TYPE="nature">
<NAME>R1W6_CWG1</NAME>
<OUTCOME>&apos;All&apos;</OUTCOME>
<PROPERTY>position = (400,1700)</PROPERTY>
</VARIABLE>
<VARIABLE TYPE="nature">
<NAME>R1W6_AVG1</NAME>
<OUTCOME>&apos;All&apos;</OUTCOME>
<PROPERTY>position = (450,1700)</PROPERTY>
</VARIABLE>
<VARIABLE TYPE="nature">
<NAME>R1W6_W</NAME>
<OUTCOME>R1W6_h</OUTCOME>
<OUTCOME>R1W6_l</OUTCOME>
<PROPERTY>position = (0,1750)</PROPERTY>
</VARIABLE>
<VARIABLE TYPE="nature">
<NAME>R1X1_RPI0</NAME>
<OUTCOME>&apos;All&apos;</OUTCOME>
<PROPERTY>position = (50,1750)</PROPERTY>
</VARIABLE>
<VARIABLE TYPE="nature">
<NAME>R1X1_PYTH0</NAME>
<OUTCOME>&apos;All&apos;</OUTCOME>
<PROPERTY>position = (100,1750)</PROPERTY>
</VARIABLE>
<VARIABLE TYPE="nature">
<NAME>R1X1_CWG0</NAME>
<OUTCOME>&apos;All&apos;</OUTCOME>
<PROPERTY>position = (150,1750)</PROPERTY>
</VARIABLE>
<VARIABLE TYPE="nature">
<NAME>R1X1_AVG0</NAME>
<OUTCOME>&apos;All&apos;</OUTCOME>
<PROPERTY>position = (200,1750)</PROPERTY>
</VARIABLE>
<VARIABLE TYPE="nature">
<NAME>R1X1_RPI1</NAME>
<OUTCOME>&apos;All&apos;</OUTCOME>
<PROPERTY>position = (250,1750)</PROPERTY>
</VARIABLE>
<VARIABLE TYPE="nature">
<NAME>R1X1_PYTH1</NAME>
<OUTCOME>&apos;All&apos;</OUTCOME>
<PROPERTY>position = (300,1750)</PROPERTY>
</VARIABLE>
<VARIABLE TYPE="nature">
<NAME>R1X1_CWG1</NAME>
<OUTCOME>&apos;All&apos;</OUTCOME>
<PROPERTY>position = (350,1750)</PROPERTY>
</VARIABLE>
<VARIABLE TYPE="nature">
<NAME>R1X1_AVG1</NAME>
<OUTCOME>&apos;All&apos;</OUTCOME>
<PROPERTY>position = (400,1750)</PROPERTY>
</VARIABLE>
<VARIABLE TYPE="nature">
<NAME>R1X1_W</NAME>
<OUTCOME>R1X1_h</OUTCOME>
<PROPERTY>position = (450,1750)</PROPERTY>
</VARIABLE>
<VARIABLE TYPE="nature">
<NAME>R1X8_RPI0</NAME>
<OUTCOME>&apos;All&apos;</OUTCOME>
<PROPERTY>position = (0,1800)</PROPERTY>
</VARIABLE>
<VARIABLE TYPE="nature">
<NAME>R1X8_PYTH0</NAME>
<OUTCOME>&apos;All&apos;</OUTCOME>
<PROPERTY>position = (50,1800)</PROPERTY>
</VARIABLE>
<VARIABLE TYPE="nature">
<NAME>R1X8_CWG0</NAME>
<OUTCOME>&apos;All&apos;</OUTCOME>
<PROPERTY>position = (100,1800)</PROPERTY>
</VARIABLE>
<VARIABLE TYPE="nature">
<NAME>R1X8_AVG0</NAME>
<OUTCOME>&apos;All&apos;</OUTCOME>
<PROPERTY>position = (150,1800)</PROPERTY>
</VARIABLE>
<VARIABLE TYPE="nature">
<NAME>R1X8_RPI1</NAME>
<OUTCOME>&apos;All&apos;</OUTCOME>
<PROPERTY>position = (200,1800)</PROPERTY>
</VARIABLE>
<VARIABLE TYPE="nature">
<NAME>R1X8_PYTH1</NAME>
<OUTCOME>&apos;All&apos;</OUTCOME>
<PROPERTY>position = (250,1800)</PROPERTY>
</VARIABLE>
<VARIABLE TYPE="nature">
<NAME>R1X8_CWG1</NAME>
<OUTCOME>&apos;All&apos;</OUTCOME>
<PROPERTY>position = (300,1800)</PROPERTY>
</VARIABLE>
<VARIABLE TYPE="nature">
<NAME>R1X8_AVG1</NAME>
<OUTCOME>&apos;All&apos;</OUTCOME>
<PROPERTY>position = (350,1800)</PROPERTY>
</VARIABLE>
<VARIABLE TYPE="nature">
<NAME>R1X8_W</NAME>
<OUTCOME>R1X8_l</OUTCOME>
<OUTCOME>R1X8_h</OUTCOME>
<PROPERTY>position = (400,1800)</PROPERTY>
</VARIABLE>
<VARIABLE TYPE="nature">
<NAME>R1X4_RPI0</NAME>
<OUTCOME>&apos;All&apos;</OUTCOME>
<PROPERTY>position = (450,1800)</PROPERTY>
</VARIABLE>
<VARIABLE TYPE="nature">
<NAME>R1X4_PYTH0</NAME>
<OUTCOME>&apos;All&apos;</OUTCOME>
<PROPERTY>position = (0,1850)</PROPERTY>
</VARIABLE>
<VARIABLE TYPE="nature">
<NAME>R1X4_CWG0</NAME>
<OUTCOME>&apos;All&apos;</OUTCOME>
<PROPERTY>position = (50,1850)</PROPERTY>
</VARIABLE>
<VARIABLE TYPE="nature">
<NAME>R1X4_AVG0</NAME>
<OUTCOME>&apos;All&apos;</OUTCOME>
<PROPERTY>position = (100,1850)</PROPERTY>
</VARIABLE>
<VARIABLE TYPE="nature">
<NAME>R1X4_RPI1</NAME>
<OUTCOME>&apos;All&apos;</OUTCOME>
<PROPERTY>position = (150,1850)</PROPERTY>
</VARIABLE>
<VARIABLE TYPE="nature">
<NAME>R1X4_PYTH1</NAME>
<OUTCOME>&apos;All&apos;</OUTCOME>
<PROPERTY>position = (200,1850)</PROPERTY>
</VARIABLE>
<VARIABLE TYPE="nature">
<NAME>R1X4_CWG1</NAME>
<OUTCOME>&apos;All&apos;</OUTCOME>
<PROPERTY>position = (250,1850)</PROPERTY>
</VARIABLE>
<VARIABLE TYPE="nature">
<NAME>R1X4_AVG1</NAME>
<OUTCOME>&apos;All&apos;</OUTCOME>
<PROPERTY>position = (300,1850)</PROPERTY>
</VARIABLE>
<VARIABLE TYPE="nature">
<NAME>R1X4_W</NAME>
<OUTCOME>R1X4_h</OUTCOME>
<OUTCOME>R1X4_l</OUTCOME>
<PROPERTY>position = (350,1850)</PROPERTY>
</VARIABLE>
<VARIABLE TYPE="nature">
<NAME>R1X5_RPI0</NAME>
<OUTCOME>&apos;All&apos;</OUTCOME>
<PROPERTY>position = (400,1850)</PROPERTY>
</VARIABLE>
<VARIABLE TYPE="nature">
<NAME>R1X5_PYTH0</NAME>
<OUTCOME>&apos;All&apos;</OUTCOME>
<PROPERTY>position = (450,1850)</PROPERTY>
</VARIABLE>
<VARIABLE TYPE="nature">
<NAME>R1X5_CWG0</NAME>
<OUTCOME>&apos;All&apos;</OUTCOME>
<PROPERTY>position = (0,1900)</PROPERTY>
</VARIABLE>
<VARIABLE TYPE="nature">
<NAME>R1X5_AVG0</NAME>
<OUTCOME>&apos;All&apos;</OUTCOME>
<PROPERTY>position = (50,1900)</PROPERTY>
</VARIABLE>
<VARIABLE TYPE="nature">
<NAME>R1X5_RPI1</NAME>
<OUTCOME>&apos;All&apos;</OUTCOME>
<PROPERTY>position = (100,1900)</PROPERTY>
</VARIABLE>
<VARIABLE TYPE="nature">
<NAME>R1X5_PYTH1</NAME>
<OUTCOME>&apos;All&apos;</OUTCOME>
<PROPERTY>position = (150,1900)</PROPERTY>
</VARIABLE>
<VARIABLE TYPE="nature">
<NAME>R1X5_CWG1</NAME>
<OUTCOME>&apos;All&apos;</OUTCOME>
<PROPERTY>position = (200,1900)</PROPERTY>
</VARIABLE>
<VARIABLE TYPE="nature">
<NAME>R1X5_AVG1</NAME>
<OUTCOME>&apos;All&apos;</OUTCOME>
<PROPERTY>position = (250,1900)</PROPERTY>
</VARIABLE>
<VARIABLE TYPE="nature">
<NAME>R1X5_W</NAME>
<OUTCOME>R1X5_h</OUTCOME>
<OUTCOME>R1X5_l</OUTCOME>
<PROPERTY>position = (300,1900)</PROPERTY>
</VARIABLE>
<VARIABLE TYPE="nature">
<NAME>R1X2_RPI0</NAME>
<OUTCOME>&apos;All&apos;</OUTCOME>
<PROPERTY>position = (350,1900)</PROPERTY>
</VARIABLE>
<VARIABLE TYPE="nature">
<NAME>R1X2_PYTH0</NAME>
<OUTCOME>&apos;All&apos;</OUTCOME>
<PROPERTY>position = (400,1900)</PROPERTY>
</VARIABLE>
<VARIABLE TYPE="nature">
<NAME>R1X2_CWG0</NAME>
<OUTCOME>&apos;All&apos;</OUTCOME>
<PROPERTY>position = (450,1900)</PROPERTY>
</VARIABLE>
<VARIABLE TYPE="nature">
<NAME>R1X2_AVG0</NAME>
<OUTCOME>&apos;All&apos;</OUTCOME>
<PROPERTY>position = (0,1950)</PROPERTY>
</VARIABLE>
<VARIABLE TYPE="nature">
<NAME>R1X2_RPI1</NAME>
<OUTCOME>&apos;All&apos;</OUTCOME>
<PROPERTY>position = (50,1950)</PROPERTY>
</VARIABLE>
<VARIABLE TYPE="nature">
<NAME>R1X2_PYTH1</NAME>
<OUTCOME>&apos;All&apos;</OUTCOME>
<PROPERTY>position = (100,1950)</PROPERTY>
</VARIABLE>
<VARIABLE TYPE="nature">
<NAME>R1X2_CWG1</NAME>
<OUTCOME>&apos;All&apos;</OUTCOME>
<PROPERTY>position = (150,1950)</PROPERTY>
</VARIABLE>
<VARIABLE TYPE="nature">
<NAME>R1X2_AVG1</NAME>
<OUTCOME>&apos;All&apos;</OUTCOME>
<PROPERTY>position = (200,1950)</PROPERTY>
</VARIABLE>
<VARIABLE TYPE="nature">
<NAME>R1X2_W</NAME>
<OUTCOME>R1X2_h</OUTCOME>
<PROPERTY>position = (250,1950)</PROPERTY>
</VARIABLE>
<VARIABLE TYPE="nature">
<NAME>R1X7_RPI0</NAME>
<OUTCOME>&apos;All&apos;</OUTCOME>
<PROPERTY>position = (300,1950)</PROPERTY>
</VARIABLE>
<VARIABLE TYPE="nature">
<NAME>R1X7_PYTH0</NAME>
<OUTCOME>&apos;All&apos;</OUTCOME>
<PROPERTY>position = (350,1950)</PROPERTY>
</VARIABLE>
<VARIABLE TYPE="nature">
<NAME>R1X7_CWG0</NAME>
<OUTCOME>&apos;All&apos;</OUTCOME>
<PROPERTY>position = (400,1950)</PROPERTY>
</VARIABLE>
<VARIABLE TYPE="nature">
<NAME>R1X7_AVG0</NAME>
<OUTCOME>&apos;All&apos;</OUTCOME>
<PROPERTY>position = (450,1950)</PROPERTY>
</VARIABLE>
<VARIABLE TYPE="nature">
<NAME>R1X7_RPI1</NAME>
<OUTCOME>&apos;All&apos;</OUTCOME>
<PROPERTY>position = (0,2000)</PROPERTY>
</VARIABLE>
<VARIABLE TYPE="nature">
<NAME>R1X7_PYTH1</NAME>
<OUTCOME>&apos;(-inf-27]&apos;</OUTCOME>
<OUTCOME>&apos;(27-inf)&apos;</OUTCOME>
<PROPERTY>position = (50,2000)</PROPERTY>
</VARIABLE>
<VARIABLE TYPE="nature">
<NAME>R1X7_CWG1</NAME>
<OUTCOME>&apos;All&apos;</OUTCOME>
<PROPERTY>position = (100,2000)</PROPERTY>
</VARIABLE>
<VARIABLE TYPE="nature">
<NAME>R1X7_AVG1</NAME>
<OUTCOME>&apos;(-inf-17]&apos;</OUTCOME>
<OUTCOME>&apos;(17-inf)&apos;</OUTCOME>
<PROPERTY>position = (150,2000)</PROPERTY>
</VARIABLE>
<VARIABLE TYPE="nature">
<NAME>R1X7_W</NAME>
<OUTCOME>R1X7_l</OUTCOME>
<OUTCOME>R1X7_h</OUTCOME>
<PROPERTY>position = (200,2000)</PROPERTY>
</VARIABLE>
<VARIABLE TYPE="nature">
<NAME>R1X3_RPI0</NAME>
<OUTCOME>&apos;All&apos;</OUTCOME>
<PROPERTY>position = (250,2000)</PROPERTY>
</VARIABLE>
<VARIABLE TYPE="nature">
<NAME>R1X3_PYTH0</NAME>
<OUTCOME>&apos;All&apos;</OUTCOME>
<PROPERTY>position = (300,2000)</PROPERTY>
</VARIABLE>
<VARIABLE TYPE="nature">
<NAME>R1X3_CWG0</NAME>
<OUTCOME>&apos;All&apos;</OUTCOME>
<PROPERTY>position = (350,2000)</PROPERTY>
</VARIABLE>
<VARIABLE TYPE="nature">
<NAME>R1X3_AVG0</NAME>
<OUTCOME>&apos;All&apos;</OUTCOME>
<PROPERTY>position = (400,2000)</PROPERTY>
</VARIABLE>
<VARIABLE TYPE="nature">
<NAME>R1X3_RPI1</NAME>
<OUTCOME>&apos;All&apos;</OUTCOME>
<PROPERTY>position = (450,2000)</PROPERTY>
</VARIABLE>
<VARIABLE TYPE="nature">
<NAME>R1X3_PYTH1</NAME>
<OUTCOME>&apos;All&apos;</OUTCOME>
<PROPERTY>position = (0,2050)</PROPERTY>
</VARIABLE>
<VARIABLE TYPE="nature">
<NAME>R1X3_CWG1</NAME>
<OUTCOME>&apos;All&apos;</OUTCOME>
<PROPERTY>position = (50,2050)</PROPERTY>
</VARIABLE>
<VARIABLE TYPE="nature">
<NAME>R1X3_AVG1</NAME>
<OUTCOME>&apos;All&apos;</OUTCOME>
<PROPERTY>position = (100,2050)</PROPERTY>
</VARIABLE>
<VARIABLE TYPE="nature">
<NAME>R1X3_W</NAME>
<OUTCOME>R1X3_h</OUTCOME>
<OUTCOME>R1X3_l</OUTCOME>
<PROPERTY>position = (150,2050)</PROPERTY>
</VARIABLE>
<VARIABLE TYPE="nature">
<NAME>R1X6_RPI0</NAME>
<OUTCOME>&apos;All&apos;</OUTCOME>
<PROPERTY>position = (200,2050)</PROPERTY>
</VARIABLE>
<VARIABLE TYPE="nature">
<NAME>R1X6_PYTH0</NAME>
<OUTCOME>&apos;All&apos;</OUTCOME>
<PROPERTY>position = (250,2050)</PROPERTY>
</VARIABLE>
<VARIABLE TYPE="nature">
<NAME>R1X6_CWG0</NAME>
<OUTCOME>&apos;All&apos;</OUTCOME>
<PROPERTY>position = (300,2050)</PROPERTY>
</VARIABLE>
<VARIABLE TYPE="nature">
<NAME>R1X6_AVG0</NAME>
<OUTCOME>&apos;All&apos;</OUTCOME>
<PROPERTY>position = (350,2050)</PROPERTY>
</VARIABLE>
<VARIABLE TYPE="nature">
<NAME>R1X6_RPI1</NAME>
<OUTCOME>&apos;All&apos;</OUTCOME>
<PROPERTY>position = (400,2050)</PROPERTY>
</VARIABLE>
<VARIABLE TYPE="nature">
<NAME>R1X6_PYTH1</NAME>
<OUTCOME>&apos;All&apos;</OUTCOME>
<PROPERTY>position = (450,2050)</PROPERTY>
</VARIABLE>
<VARIABLE TYPE="nature">
<NAME>R1X6_CWG1</NAME>
<OUTCOME>&apos;All&apos;</OUTCOME>
<PROPERTY>position = (0,2100)</PROPERTY>
</VARIABLE>
<VARIABLE TYPE="nature">
<NAME>R1X6_AVG1</NAME>
<OUTCOME>&apos;All&apos;</OUTCOME>
<PROPERTY>position = (50,2100)</PROPERTY>
</VARIABLE>
<VARIABLE TYPE="nature">
<NAME>R1X6_W</NAME>
<OUTCOME>R1X6_h</OUTCOME>
<OUTCOME>R1X6_l</OUTCOME>
<PROPERTY>position = (100,2100)</PROPERTY>
</VARIABLE>
<VARIABLE TYPE="nature">
<NAME>R1Y1_RPI0</NAME>
<OUTCOME>&apos;All&apos;</OUTCOME>
<PROPERTY>position = (150,2100)</PROPERTY>
</VARIABLE>
<VARIABLE TYPE="nature">
<NAME>R1Y1_PYTH0</NAME>
<OUTCOME>&apos;All&apos;</OUTCOME>
<PROPERTY>position = (200,2100)</PROPERTY>
</VARIABLE>
<VARIABLE TYPE="nature">
<NAME>R1Y1_CWG0</NAME>
<OUTCOME>&apos;All&apos;</OUTCOME>
<PROPERTY>position = (250,2100)</PROPERTY>
</VARIABLE>
<VARIABLE TYPE="nature">
<NAME>R1Y1_AVG0</NAME>
<OUTCOME>&apos;All&apos;</OUTCOME>
<PROPERTY>position = (300,2100)</PROPERTY>
</VARIABLE>
<VARIABLE TYPE="nature">
<NAME>R1Y1_RPI1</NAME>
<OUTCOME>&apos;All&apos;</OUTCOME>
<PROPERTY>position = (350,2100)</PROPERTY>
</VARIABLE>
<VARIABLE TYPE="nature">
<NAME>R1Y1_PYTH1</NAME>
<OUTCOME>&apos;All&apos;</OUTCOME>
<PROPERTY>position = (400,2100)</PROPERTY>
</VARIABLE>
<VARIABLE TYPE="nature">
<NAME>R1Y1_CWG1</NAME>
<OUTCOME>&apos;All&apos;</OUTCOME>
<PROPERTY>position = (450,2100)</PROPERTY>
</VARIABLE>
<VARIABLE TYPE="nature">
<NAME>R1Y1_AVG1</NAME>
<OUTCOME>&apos;All&apos;</OUTCOME>
<PROPERTY>position = (0,2150)</PROPERTY>
</VARIABLE>
<VARIABLE TYPE="nature">
<NAME>R1Y1_W</NAME>
<OUTCOME>R1Y1_h</OUTCOME>
<PROPERTY>position = (50,2150)</PROPERTY>
</VARIABLE>
<VARIABLE TYPE="nature">
<NAME>R1Y8_RPI0</NAME>
<OUTCOME>&apos;All&apos;</OUTCOME>
<PROPERTY>position = (100,2150)</PROPERTY>
</VARIABLE>
<VARIABLE TYPE="nature">
<NAME>R1Y8_PYTH0</NAME>
<OUTCOME>&apos;All&apos;</OUTCOME>
<PROPERTY>position = (150,2150)</PROPERTY>
</VARIABLE>
<VARIABLE TYPE="nature">
<NAME>R1Y8_CWG0</NAME>
<OUTCOME>&apos;All&apos;</OUTCOME>
<PROPERTY>position = (200,2150)</PROPERTY>
</VARIABLE>
<VARIABLE TYPE="nature">
<NAME>R1Y8_AVG0</NAME>
<OUTCOME>&apos;All&apos;</OUTCOME>
<PROPERTY>position = (250,2150)</PROPERTY>
</VARIABLE>
<VARIABLE TYPE="nature">
<NAME>R1Y8_RPI1</NAME>
<OUTCOME>&apos;All&apos;</OUTCOME>
<PROPERTY>position = (300,2150)</PROPERTY>
</VARIABLE>
<VARIABLE TYPE="nature">
<NAME>R1Y8_PYTH1</NAME>
<OUTCOME>&apos;All&apos;</OUTCOME>
<PROPERTY>position = (350,2150)</PROPERTY>
</VARIABLE>
<VARIABLE TYPE="nature">
<NAME>R1Y8_CWG1</NAME>
<OUTCOME>&apos;All&apos;</OUTCOME>
<PROPERTY>position = (400,2150)</PROPERTY>
</VARIABLE>
<VARIABLE TYPE="nature">
<NAME>R1Y8_AVG1</NAME>
<OUTCOME>&apos;All&apos;</OUTCOME>
<PROPERTY>position = (450,2150)</PROPERTY>
</VARIABLE>
<VARIABLE TYPE="nature">
<NAME>R1Y8_W</NAME>
<OUTCOME>R1Y8_l</OUTCOME>
<OUTCOME>R1Y8_h</OUTCOME>
<PROPERTY>position = (0,2200)</PROPERTY>
</VARIABLE>
<VARIABLE TYPE="nature">
<NAME>R1Y4_RPI0</NAME>
<OUTCOME>&apos;All&apos;</OUTCOME>
<PROPERTY>position = (50,2200)</PROPERTY>
</VARIABLE>
<VARIABLE TYPE="nature">
<NAME>R1Y4_PYTH0</NAME>
<OUTCOME>&apos;All&apos;</OUTCOME>
<PROPERTY>position = (100,2200)</PROPERTY>
</VARIABLE>
<VARIABLE TYPE="nature">
<NAME>R1Y4_CWG0</NAME>
<OUTCOME>&apos;All&apos;</OUTCOME>
<PROPERTY>position = (150,2200)</PROPERTY>
</VARIABLE>
<VARIABLE TYPE="nature">
<NAME>R1Y4_AVG0</NAME>
<OUTCOME>&apos;All&apos;</OUTCOME>
<PROPERTY>position = (200,2200)</PROPERTY>
</VARIABLE>
<VARIABLE TYPE="nature">
<NAME>R1Y4_RPI1</NAME>
<OUTCOME>&apos;All&apos;</OUTCOME>
<PROPERTY>position = (250,2200)</PROPERTY>
</VARIABLE>
<VARIABLE TYPE="nature">
<NAME>R1Y4_PYTH1</NAME>
<OUTCOME>&apos;All&apos;</OUTCOME>
<PROPERTY>position = (300,2200)</PROPERTY>
</VARIABLE>
<VARIABLE TYPE="nature">
<NAME>R1Y4_CWG1</NAME>
<OUTCOME>&apos;All&apos;</OUTCOME>
<PROPERTY>position = (350,2200)</PROPERTY>
</VARIABLE>
<VARIABLE TYPE="nature">
<NAME>R1Y4_AVG1</NAME>
<OUTCOME>&apos;All&apos;</OUTCOME>
<PROPERTY>position = (400,2200)</PROPERTY>
</VARIABLE>
<VARIABLE TYPE="nature">
<NAME>R1Y4_W</NAME>
<OUTCOME>R1Y4_l</OUTCOME>
<OUTCOME>R1Y4_h</OUTCOME>
<PROPERTY>position = (450,2200)</PROPERTY>
</VARIABLE>
<VARIABLE TYPE="nature">
<NAME>R1Y5_RPI0</NAME>
<OUTCOME>&apos;All&apos;</OUTCOME>
<PROPERTY>position = (0,2250)</PROPERTY>
</VARIABLE>
<VARIABLE TYPE="nature">
<NAME>R1Y5_PYTH0</NAME>
<OUTCOME>&apos;All&apos;</OUTCOME>
<PROPERTY>position = (50,2250)</PROPERTY>
</VARIABLE>
<VARIABLE TYPE="nature">
<NAME>R1Y5_CWG0</NAME>
<OUTCOME>&apos;All&apos;</OUTCOME>
<PROPERTY>position = (100,2250)</PROPERTY>
</VARIABLE>
<VARIABLE TYPE="nature">
<NAME>R1Y5_AVG0</NAME>
<OUTCOME>&apos;All&apos;</OUTCOME>
<PROPERTY>position = (150,2250)</PROPERTY>
</VARIABLE>
<VARIABLE TYPE="nature">
<NAME>R1Y5_RPI1</NAME>
<OUTCOME>&apos;All&apos;</OUTCOME>
<PROPERTY>position = (200,2250)</PROPERTY>
</VARIABLE>
<VARIABLE TYPE="nature">
<NAME>R1Y5_PYTH1</NAME>
<OUTCOME>&apos;All&apos;</OUTCOME>
<PROPERTY>position = (250,2250)</PROPERTY>
</VARIABLE>
<VARIABLE TYPE="nature">
<NAME>R1Y5_CWG1</NAME>
<OUTCOME>&apos;All&apos;</OUTCOME>
<PROPERTY>position = (300,2250)</PROPERTY>
</VARIABLE>
<VARIABLE TYPE="nature">
<NAME>R1Y5_AVG1</NAME>
<OUTCOME>&apos;All&apos;</OUTCOME>
<PROPERTY>position = (350,2250)</PROPERTY>
</VARIABLE>
<VARIABLE TYPE="nature">
<NAME>R1Y5_W</NAME>
<OUTCOME>R1Y5_h</OUTCOME>
<OUTCOME>R1Y5_l</OUTCOME>
<PROPERTY>position = (400,2250)</PROPERTY>
</VARIABLE>
<VARIABLE TYPE="nature">
<NAME>R1Y2_RPI0</NAME>
<OUTCOME>&apos;All&apos;</OUTCOME>
<PROPERTY>position = (450,2250)</PROPERTY>
</VARIABLE>
<VARIABLE TYPE="nature">
<NAME>R1Y2_PYTH0</NAME>
<OUTCOME>&apos;All&apos;</OUTCOME>
<PROPERTY>position = (0,2300)</PROPERTY>
</VARIABLE>
<VARIABLE TYPE="nature">
<NAME>R1Y2_CWG0</NAME>
<OUTCOME>&apos;All&apos;</OUTCOME>
<PROPERTY>position = (50,2300)</PROPERTY>
</VARIABLE>
<VARIABLE TYPE="nature">
<NAME>R1Y2_AVG0</NAME>
<OUTCOME>&apos;All&apos;</OUTCOME>
<PROPERTY>position = (100,2300)</PROPERTY>
</VARIABLE>
<VARIABLE TYPE="nature">
<NAME>R1Y2_RPI1</NAME>
<OUTCOME>&apos;All&apos;</OUTCOME>
<PROPERTY>position = (150,2300)</PROPERTY>
</VARIABLE>
<VARIABLE TYPE="nature">
<NAME>R1Y2_PYTH1</NAME>
<OUTCOME>&apos;All&apos;</OUTCOME>
<PROPERTY>position = (200,2300)</PROPERTY>
</VARIABLE>
<VARIABLE TYPE="nature">
<NAME>R1Y2_CWG1</NAME>
<OUTCOME>&apos;All&apos;</OUTCOME>
<PROPERTY>position = (250,2300)</PROPERTY>
</VARIABLE>
<VARIABLE TYPE="nature">
<NAME>R1Y2_AVG1</NAME>
<OUTCOME>&apos;All&apos;</OUTCOME>
<PROPERTY>position = (300,2300)</PROPERTY>
</VARIABLE>
<VARIABLE TYPE="nature">
<NAME>R1Y2_W</NAME>
<OUTCOME>R1Y2_h</OUTCOME>
<PROPERTY>position = (350,2300)</PROPERTY>
</VARIABLE>
<VARIABLE TYPE="nature">
<NAME>R1Y7_RPI0</NAME>
<OUTCOME>&apos;All&apos;</OUTCOME>
<PROPERTY>position = (400,2300)</PROPERTY>
</VARIABLE>
<VARIABLE TYPE="nature">
<NAME>R1Y7_PYTH0</NAME>
<OUTCOME>&apos;All&apos;</OUTCOME>
<PROPERTY>position = (450,2300)</PROPERTY>
</VARIABLE>
<VARIABLE TYPE="nature">
<NAME>R1Y7_CWG0</NAME>
<OUTCOME>&apos;All&apos;</OUTCOME>
<PROPERTY>position = (0,2350)</PROPERTY>
</VARIABLE>
<VARIABLE TYPE="nature">
<NAME>R1Y7_AVG0</NAME>
<OUTCOME>&apos;All&apos;</OUTCOME>
<PROPERTY>position = (50,2350)</PROPERTY>
</VARIABLE>
<VARIABLE TYPE="nature">
<NAME>R1Y7_RPI1</NAME>
<OUTCOME>&apos;All&apos;</OUTCOME>
<PROPERTY>position = (100,2350)</PROPERTY>
</VARIABLE>
<VARIABLE TYPE="nature">
<NAME>R1Y7_PYTH1</NAME>
<OUTCOME>&apos;All&apos;</OUTCOME>
<PROPERTY>position = (150,2350)</PROPERTY>
</VARIABLE>
<VARIABLE TYPE="nature">
<NAME>R1Y7_CWG1</NAME>
<OUTCOME>&apos;All&apos;</OUTCOME>
<PROPERTY>position = (200,2350)</PROPERTY>
</VARIABLE>
<VARIABLE TYPE="nature">
<NAME>R1Y7_AVG1</NAME>
<OUTCOME>&apos;All&apos;</OUTCOME>
<PROPERTY>position = (250,2350)</PROPERTY>
</VARIABLE>
<VARIABLE TYPE="nature">
<NAME>R1Y7_W</NAME>
<OUTCOME>R1Y7_h</OUTCOME>
<OUTCOME>R1Y7_l</OUTCOME>
<PROPERTY>position = (300,2350)</PROPERTY>
</VARIABLE>
<VARIABLE TYPE="nature">
<NAME>R1Y3_RPI0</NAME>
<OUTCOME>&apos;All&apos;</OUTCOME>
<PROPERTY>position = (350,2350)</PROPERTY>
</VARIABLE>
<VARIABLE TYPE="nature">
<NAME>R1Y3_PYTH0</NAME>
<OUTCOME>&apos;All&apos;</OUTCOME>
<PROPERTY>position = (400,2350)</PROPERTY>
</VARIABLE>
<VARIABLE TYPE="nature">
<NAME>R1Y3_CWG0</NAME>
<OUTCOME>&apos;All&apos;</OUTCOME>
<PROPERTY>position = (450,2350)</PROPERTY>
</VARIABLE>
<VARIABLE TYPE="nature">
<NAME>R1Y3_AVG0</NAME>
<OUTCOME>&apos;All&apos;</OUTCOME>
<PROPERTY>position = (0,2400)</PROPERTY>
</VARIABLE>
<VARIABLE TYPE="nature">
<NAME>R1Y3_RPI1</NAME>
<OUTCOME>&apos;All&apos;</OUTCOME>
<PROPERTY>position = (50,2400)</PROPERTY>
</VARIABLE>
<VARIABLE TYPE="nature">
<NAME>R1Y3_PYTH1</NAME>
<OUTCOME>&apos;(-inf-26.5]&apos;</OUTCOME>
<OUTCOME>&apos;(26.5-inf)&apos;</OUTCOME>
<PROPERTY>position = (100,2400)</PROPERTY>
</VARIABLE>
<VARIABLE TYPE="nature">
<NAME>R1Y3_CWG1</NAME>
<OUTCOME>&apos;All&apos;</OUTCOME>
<PROPERTY>position = (150,2400)</PROPERTY>
</VARIABLE>
<VARIABLE TYPE="nature">
<NAME>R1Y3_AVG1</NAME>
<OUTCOME>&apos;All&apos;</OUTCOME>
<PROPERTY>position = (200,2400)</PROPERTY>
</VARIABLE>
<VARIABLE TYPE="nature">
<NAME>R1Y3_W</NAME>
<OUTCOME>R1Y3_h</OUTCOME>
<OUTCOME>R1Y3_l</OUTCOME>
<PROPERTY>position = (250,2400)</PROPERTY>
</VARIABLE>
<VARIABLE TYPE="nature">
<NAME>R1Y6_RPI0</NAME>
<OUTCOME>&apos;All&apos;</OUTCOME>
<PROPERTY>position = (300,2400)</PROPERTY>
</VARIABLE>
<VARIABLE TYPE="nature">
<NAME>R1Y6_PYTH0</NAME>
<OUTCOME>&apos;All&apos;</OUTCOME>
<PROPERTY>position = (350,2400)</PROPERTY>
</VARIABLE>
<VARIABLE TYPE="nature">
<NAME>R1Y6_CWG0</NAME>
<OUTCOME>&apos;All&apos;</OUTCOME>
<PROPERTY>position = (400,2400)</PROPERTY>
</VARIABLE>
<VARIABLE TYPE="nature">
<NAME>R1Y6_AVG0</NAME>
<OUTCOME>&apos;All&apos;</OUTCOME>
<PROPERTY>position = (450,2400)</PROPERTY>
</VARIABLE>
<VARIABLE TYPE="nature">
<NAME>R1Y6_RPI1</NAME>
<OUTCOME>&apos;All&apos;</OUTCOME>
<PROPERTY>position = (0,2450)</PROPERTY>
</VARIABLE>
<VARIABLE TYPE="nature">
<NAME>R1Y6_PYTH1</NAME>
<OUTCOME>&apos;All&apos;</OUTCOME>
<PROPERTY>position = (50,2450)</PROPERTY>
</VARIABLE>
<VARIABLE TYPE="nature">
<NAME>R1Y6_CWG1</NAME>
<OUTCOME>&apos;All&apos;</OUTCOME>
<PROPERTY>position = (100,2450)</PROPERTY>
</VARIABLE>
<VARIABLE TYPE="nature">
<NAME>R1Y6_AVG1</NAME>
<OUTCOME>&apos;All&apos;</OUTCOME>
<PROPERTY>position = (150,2450)</PROPERTY>
</VARIABLE>
<VARIABLE TYPE="nature">
<NAME>R1Y6_W</NAME>
<OUTCOME>R1Y6_l</OUTCOME>
<OUTCOME>R1Y6_h</OUTCOME>
<PROPERTY>position = (200,2450)</PROPERTY>
</VARIABLE>
<VARIABLE TYPE="nature">
<NAME>R1Z1_RPI0</NAME>
<OUTCOME>&apos;All&apos;</OUTCOME>
<PROPERTY>position = (250,2450)</PROPERTY>
</VARIABLE>
<VARIABLE TYPE="nature">
<NAME>R1Z1_PYTH0</NAME>
<OUTCOME>&apos;All&apos;</OUTCOME>
<PROPERTY>position = (300,2450)</PROPERTY>
</VARIABLE>
<VARIABLE TYPE="nature">
<NAME>R1Z1_CWG0</NAME>
<OUTCOME>&apos;All&apos;</OUTCOME>
<PROPERTY>position = (350,2450)</PROPERTY>
</VARIABLE>
<VARIABLE TYPE="nature">
<NAME>R1Z1_AVG0</NAME>
<OUTCOME>&apos;All&apos;</OUTCOME>
<PROPERTY>position = (400,2450)</PROPERTY>
</VARIABLE>
<VARIABLE TYPE="nature">
<NAME>R1Z1_RPI1</NAME>
<OUTCOME>&apos;All&apos;</OUTCOME>
<PROPERTY>position = (450,2450)</PROPERTY>
</VARIABLE>
<VARIABLE TYPE="nature">
<NAME>R1Z1_PYTH1</NAME>
<OUTCOME>&apos;All&apos;</OUTCOME>
<PROPERTY>position = (0,2500)</PROPERTY>
</VARIABLE>
<VARIABLE TYPE="nature">
<NAME>R1Z1_CWG1</NAME>
<OUTCOME>&apos;All&apos;</OUTCOME>
<PROPERTY>position = (50,2500)</PROPERTY>
</VARIABLE>
<VARIABLE TYPE="nature">
<NAME>R1Z1_AVG1</NAME>
<OUTCOME>&apos;All&apos;</OUTCOME>
<PROPERTY>position = (100,2500)</PROPERTY>
</VARIABLE>
<VARIABLE TYPE="nature">
<NAME>R1Z1_W</NAME>
<OUTCOME>R1Z1_h</OUTCOME>
<PROPERTY>position = (150,2500)</PROPERTY>
</VARIABLE>
<VARIABLE TYPE="nature">
<NAME>R1Z8_RPI0</NAME>
<OUTCOME>&apos;All&apos;</OUTCOME>
<PROPERTY>position = (200,2500)</PROPERTY>
</VARIABLE>
<VARIABLE TYPE="nature">
<NAME>R1Z8_PYTH0</NAME>
<OUTCOME>&apos;All&apos;</OUTCOME>
<PROPERTY>position = (250,2500)</PROPERTY>
</VARIABLE>
<VARIABLE TYPE="nature">
<NAME>R1Z8_CWG0</NAME>
<OUTCOME>&apos;All&apos;</OUTCOME>
<PROPERTY>position = (300,2500)</PROPERTY>
</VARIABLE>
<VARIABLE TYPE="nature">
<NAME>R1Z8_AVG0</NAME>
<OUTCOME>&apos;All&apos;</OUTCOME>
<PROPERTY>position = (350,2500)</PROPERTY>
</VARIABLE>
<VARIABLE TYPE="nature">
<NAME>R1Z8_RPI1</NAME>
<OUTCOME>&apos;All&apos;</OUTCOME>
<PROPERTY>position = (400,2500)</PROPERTY>
</VARIABLE>
<VARIABLE TYPE="nature">
<NAME>R1Z8_PYTH1</NAME>
<OUTCOME>&apos;All&apos;</OUTCOME>
<PROPERTY>position = (450,2500)</PROPERTY>
</VARIABLE>
<VARIABLE TYPE="nature">
<NAME>R1Z8_CWG1</NAME>
<OUTCOME>&apos;All&apos;</OUTCOME>
<PROPERTY>position = (0,2550)</PROPERTY>
</VARIABLE>
<VARIABLE TYPE="nature">
<NAME>R1Z8_AVG1</NAME>
<OUTCOME>&apos;All&apos;</OUTCOME>
<PROPERTY>position = (50,2550)</PROPERTY>
</VARIABLE>
<VARIABLE TYPE="nature">
<NAME>R1Z8_W</NAME>
<OUTCOME>R1Z8_h</OUTCOME>
<OUTCOME>R1Z8_l</OUTCOME>
<PROPERTY>position = (100,2550)</PROPERTY>
</VARIABLE>
<VARIABLE TYPE="nature">
<NAME>R1Z4_RPI0</NAME>
<OUTCOME>&apos;All&apos;</OUTCOME>
<PROPERTY>position = (150,2550)</PROPERTY>
</VARIABLE>
<VARIABLE TYPE="nature">
<NAME>R1Z4_PYTH0</NAME>
<OUTCOME>&apos;All&apos;</OUTCOME>
<PROPERTY>position = (200,2550)</PROPERTY>
</VARIABLE>
<VARIABLE TYPE="nature">
<NAME>R1Z4_CWG0</NAME>
<OUTCOME>&apos;All&apos;</OUTCOME>
<PROPERTY>position = (250,2550)</PROPERTY>
</VARIABLE>
<VARIABLE TYPE="nature">
<NAME>R1Z4_AVG0</NAME>
<OUTCOME>&apos;All&apos;</OUTCOME>
<PROPERTY>position = (300,2550)</PROPERTY>
</VARIABLE>
<VARIABLE TYPE="nature">
<NAME>R1Z4_RPI1</NAME>
<OUTCOME>&apos;All&apos;</OUTCOME>
<PROPERTY>position = (350,2550)</PROPERTY>
</VARIABLE>
<VARIABLE TYPE="nature">
<NAME>R1Z4_PYTH1</NAME>
<OUTCOME>&apos;All&apos;</OUTCOME>
<PROPERTY>position = (400,2550)</PROPERTY>
</VARIABLE>
<VARIABLE TYPE="nature">
<NAME>R1Z4_CWG1</NAME>
<OUTCOME>&apos;All&apos;</OUTCOME>
<PROPERTY>position = (450,2550)</PROPERTY>
</VARIABLE>
<VARIABLE TYPE="nature">
<NAME>R1Z4_AVG1</NAME>
<OUTCOME>&apos;All&apos;</OUTCOME>
<PROPERTY>position = (0,2600)</PROPERTY>
</VARIABLE>
<VARIABLE TYPE="nature">
<NAME>R1Z4_W</NAME>
<OUTCOME>R1Z4_h</OUTCOME>
<OUTCOME>R1Z4_l</OUTCOME>
<PROPERTY>position = (50,2600)</PROPERTY>
</VARIABLE>
<VARIABLE TYPE="nature">
<NAME>R1Z5_RPI0</NAME>
<OUTCOME>&apos;All&apos;</OUTCOME>
<PROPERTY>position = (100,2600)</PROPERTY>
</VARIABLE>
<VARIABLE TYPE="nature">
<NAME>R1Z5_PYTH0</NAME>
<OUTCOME>&apos;All&apos;</OUTCOME>
<PROPERTY>position = (150,2600)</PROPERTY>
</VARIABLE>
<VARIABLE TYPE="nature">
<NAME>R1Z5_CWG0</NAME>
<OUTCOME>&apos;All&apos;</OUTCOME>
<PROPERTY>position = (200,2600)</PROPERTY>
</VARIABLE>
<VARIABLE TYPE="nature">
<NAME>R1Z5_AVG0</NAME>
<OUTCOME>&apos;All&apos;</OUTCOME>
<PROPERTY>position = (250,2600)</PROPERTY>
</VARIABLE>
<VARIABLE TYPE="nature">
<NAME>R1Z5_RPI1</NAME>
<OUTCOME>&apos;All&apos;</OUTCOME>
<PROPERTY>position = (300,2600)</PROPERTY>
</VARIABLE>
<VARIABLE TYPE="nature">
<NAME>R1Z5_PYTH1</NAME>
<OUTCOME>&apos;All&apos;</OUTCOME>
<PROPERTY>position = (350,2600)</PROPERTY>
</VARIABLE>
<VARIABLE TYPE="nature">
<NAME>R1Z5_CWG1</NAME>
<OUTCOME>&apos;All&apos;</OUTCOME>
<PROPERTY>position = (400,2600)</PROPERTY>
</VARIABLE>
<VARIABLE TYPE="nature">
<NAME>R1Z5_AVG1</NAME>
<OUTCOME>&apos;All&apos;</OUTCOME>
<PROPERTY>position = (450,2600)</PROPERTY>
</VARIABLE>
<VARIABLE TYPE="nature">
<NAME>R1Z5_W</NAME>
<OUTCOME>R1Z5_l</OUTCOME>
<OUTCOME>R1Z5_h</OUTCOME>
<PROPERTY>position = (0,2650)</PROPERTY>
</VARIABLE>
<VARIABLE TYPE="nature">
<NAME>R1Z2_RPI0</NAME>
<OUTCOME>&apos;All&apos;</OUTCOME>
<PROPERTY>position = (50,2650)</PROPERTY>
</VARIABLE>
<VARIABLE TYPE="nature">
<NAME>R1Z2_PYTH0</NAME>
<OUTCOME>&apos;All&apos;</OUTCOME>
<PROPERTY>position = (100,2650)</PROPERTY>
</VARIABLE>
<VARIABLE TYPE="nature">
<NAME>R1Z2_CWG0</NAME>
<OUTCOME>&apos;All&apos;</OUTCOME>
<PROPERTY>position = (150,2650)</PROPERTY>
</VARIABLE>
<VARIABLE TYPE="nature">
<NAME>R1Z2_AVG0</NAME>
<OUTCOME>&apos;All&apos;</OUTCOME>
<PROPERTY>position = (200,2650)</PROPERTY>
</VARIABLE>
<VARIABLE TYPE="nature">
<NAME>R1Z2_RPI1</NAME>
<OUTCOME>&apos;All&apos;</OUTCOME>
<PROPERTY>position = (250,2650)</PROPERTY>
</VARIABLE>
<VARIABLE TYPE="nature">
<NAME>R1Z2_PYTH1</NAME>
<OUTCOME>&apos;All&apos;</OUTCOME>
<PROPERTY>position = (300,2650)</PROPERTY>
</VARIABLE>
<VARIABLE TYPE="nature">
<NAME>R1Z2_CWG1</NAME>
<OUTCOME>&apos;All&apos;</OUTCOME>
<PROPERTY>position = (350,2650)</PROPERTY>
</VARIABLE>
<VARIABLE TYPE="nature">
<NAME>R1Z2_AVG1</NAME>
<OUTCOME>&apos;All&apos;</OUTCOME>
<PROPERTY>position = (400,2650)</PROPERTY>
</VARIABLE>
<VARIABLE TYPE="nature">
<NAME>R1Z2_W</NAME>
<OUTCOME>R1Z2_h</OUTCOME>
<PROPERTY>position = (450,2650)</PROPERTY>
</VARIABLE>
<VARIABLE TYPE="nature">
<NAME>R1Z7_RPI0</NAME>
<OUTCOME>&apos;All&apos;</OUTCOME>
<PROPERTY>position = (0,2700)</PROPERTY>
</VARIABLE>
<VARIABLE TYPE="nature">
<NAME>R1Z7_PYTH0</NAME>
<OUTCOME>&apos;All&apos;</OUTCOME>
<PROPERTY>position = (50,2700)</PROPERTY>
</VARIABLE>
<VARIABLE TYPE="nature">
<NAME>R1Z7_CWG0</NAME>
<OUTCOME>&apos;All&apos;</OUTCOME>
<PROPERTY>position = (100,2700)</PROPERTY>
</VARIABLE>
<VARIABLE TYPE="nature">
<NAME>R1Z7_AVG0</NAME>
<OUTCOME>&apos;All&apos;</OUTCOME>
<PROPERTY>position = (150,2700)</PROPERTY>
</VARIABLE>
<VARIABLE TYPE="nature">
<NAME>R1Z7_RPI1</NAME>
<OUTCOME>&apos;All&apos;</OUTCOME>
<PROPERTY>position = (200,2700)</PROPERTY>
</VARIABLE>
<VARIABLE TYPE="nature">
<NAME>R1Z7_PYTH1</NAME>
<OUTCOME>&apos;All&apos;</OUTCOME>
<PROPERTY>position = (250,2700)</PROPERTY>
</VARIABLE>
<VARIABLE TYPE="nature">
<NAME>R1Z7_CWG1</NAME>
<OUTCOME>&apos;All&apos;</OUTCOME>
<PROPERTY>position = (300,2700)</PROPERTY>
</VARIABLE>
<VARIABLE TYPE="nature">
<NAME>R1Z7_AVG1</NAME>
<OUTCOME>&apos;All&apos;</OUTCOME>
<PROPERTY>position = (350,2700)</PROPERTY>
</VARIABLE>
<VARIABLE TYPE="nature">
<NAME>R1Z7_W</NAME>
<OUTCOME>R1Z7_l</OUTCOME>
<OUTCOME>R1Z7_h</OUTCOME>
<PROPERTY>position = (400,2700)</PROPERTY>
</VARIABLE>
<VARIABLE TYPE="nature">
<NAME>R1Z3_RPI0</NAME>
<OUTCOME>&apos;All&apos;</OUTCOME>
<PROPERTY>position = (450,2700)</PROPERTY>
</VARIABLE>
<VARIABLE TYPE="nature">
<NAME>R1Z3_PYTH0</NAME>
<OUTCOME>&apos;All&apos;</OUTCOME>
<PROPERTY>position = (0,2750)</PROPERTY>
</VARIABLE>
<VARIABLE TYPE="nature">
<NAME>R1Z3_CWG0</NAME>
<OUTCOME>&apos;All&apos;</OUTCOME>
<PROPERTY>position = (50,2750)</PROPERTY>
</VARIABLE>
<VARIABLE TYPE="nature">
<NAME>R1Z3_AVG0</NAME>
<OUTCOME>&apos;All&apos;</OUTCOME>
<PROPERTY>position = (100,2750)</PROPERTY>
</VARIABLE>
<VARIABLE TYPE="nature">
<NAME>R1Z3_RPI1</NAME>
<OUTCOME>&apos;All&apos;</OUTCOME>
<PROPERTY>position = (150,2750)</PROPERTY>
</VARIABLE>
<VARIABLE TYPE="nature">
<NAME>R1Z3_PYTH1</NAME>
<OUTCOME>&apos;All&apos;</OUTCOME>
<PROPERTY>position = (200,2750)</PROPERTY>
</VARIABLE>
<VARIABLE TYPE="nature">
<NAME>R1Z3_CWG1</NAME>
<OUTCOME>&apos;All&apos;</OUTCOME>
<PROPERTY>position = (250,2750)</PROPERTY>
</VARIABLE>
<VARIABLE TYPE="nature">
<NAME>R1Z3_AVG1</NAME>
<OUTCOME>&apos;All&apos;</OUTCOME>
<PROPERTY>position = (300,2750)</PROPERTY>
</VARIABLE>
<VARIABLE TYPE="nature">
<NAME>R1Z3_W</NAME>
<OUTCOME>R1Z3_h</OUTCOME>
<OUTCOME>R1Z3_l</OUTCOME>
<PROPERTY>position = (350,2750)</PROPERTY>
</VARIABLE>
<VARIABLE TYPE="nature">
<NAME>R1Z6_RPI0</NAME>
<OUTCOME>&apos;All&apos;</OUTCOME>
<PROPERTY>position = (536,2731)</PROPERTY>
</VARIABLE>
<VARIABLE TYPE="nature">
<NAME>R1Z6_PYTH0</NAME>
<OUTCOME>&apos;All&apos;</OUTCOME>
<PROPERTY>position = (578,2766)</PROPERTY>
</VARIABLE>
<VARIABLE TYPE="nature">
<NAME>R1Z6_CWG0</NAME>
<OUTCOME>&apos;All&apos;</OUTCOME>
<PROPERTY>position = (0,2800)</PROPERTY>
</VARIABLE>
<VARIABLE TYPE="nature">
<NAME>R1Z6_AVG0</NAME>
<OUTCOME>&apos;All&apos;</OUTCOME>
<PROPERTY>position = (50,2800)</PROPERTY>
</VARIABLE>
<VARIABLE TYPE="nature">
<NAME>R1Z6_RPI1</NAME>
<OUTCOME>&apos;All&apos;</OUTCOME>
<PROPERTY>position = (100,2800)</PROPERTY>
</VARIABLE>
<VARIABLE TYPE="nature">
<NAME>R1Z6_PYTH1</NAME>
<OUTCOME>&apos;All&apos;</OUTCOME>
<PROPERTY>position = (150,2800)</PROPERTY>
</VARIABLE>
<VARIABLE TYPE="nature">
<NAME>R1Z6_CWG1</NAME>
<OUTCOME>&apos;All&apos;</OUTCOME>
<PROPERTY>position = (200,2800)</PROPERTY>
</VARIABLE>
<VARIABLE TYPE="nature">
<NAME>R1Z6_AVG1</NAME>
<OUTCOME>&apos;All&apos;</OUTCOME>
<PROPERTY>position = (250,2800)</PROPERTY>
</VARIABLE>
<VARIABLE TYPE="nature">
<NAME>R1Z6_W</NAME>
<OUTCOME>R1Z6_h</OUTCOME>
<OUTCOME>R1Z6_l</OUTCOME>
<PROPERTY>position = (412,2803)</PROPERTY>
</VARIABLE>
<DEFINITION>
<FOR>R6CH_RPI0</FOR>
<GIVEN>R1Z6_W</GIVEN>
<TABLE>
1.0 
1.0 
</TABLE>
</DEFINITION>
<DEFINITION>
<FOR>R6CH_PYTH0</FOR>
<GIVEN>R1Z6_W</GIVEN>
<TABLE>
1.0 
1.0 
</TABLE>
</DEFINITION>
<DEFINITION>
<FOR>R6CH_CWG0</FOR>
<GIVEN>R1Z6_W</GIVEN>
<TABLE>
1.0 
1.0 
</TABLE>
</DEFINITION>
<DEFINITION>
<FOR>R6CH_AVG0</FOR>
<GIVEN>R1Z6_W</GIVEN>
<TABLE>
1.0 
1.0 
</TABLE>
</DEFINITION>
<DEFINITION>
<FOR>R6CH_RPI1</FOR>
<GIVEN>R1Z6_W</GIVEN>
<TABLE>
1.0 
1.0 
</TABLE>
</DEFINITION>
<DEFINITION>
<FOR>R6CH_PYTH1</FOR>
<GIVEN>R1Z6_W</GIVEN>
<TABLE>
1.0 
1.0 
</TABLE>
</DEFINITION>
<DEFINITION>
<FOR>R6CH_CWG1</FOR>
<GIVEN>R1Z6_W</GIVEN>
<TABLE>
1.0 
1.0 
</TABLE>
</DEFINITION>
<DEFINITION>
<FOR>R6CH_AVG1</FOR>
<GIVEN>R1Z6_W</GIVEN>
<TABLE>
1.0 
1.0 
</TABLE>
</DEFINITION>
<DEFINITION>
<FOR>R6CH_W</FOR>
<GIVEN>R1Z6_W</GIVEN>
<TABLE>
0.65 0.35 
0.8333333333333334 0.16666666666666666 
</TABLE>
</DEFINITION>
<DEFINITION>
<FOR>R5WX_RPI0</FOR>
<GIVEN>R1Z6_W</GIVEN>
<TABLE>
1.0 
1.0 
</TABLE>
</DEFINITION>
<DEFINITION>
<FOR>R5WX_PYTH0</FOR>
<GIVEN>R1Z6_W</GIVEN>
<TABLE>
1.0 
1.0 
</TABLE>
</DEFINITION>
<DEFINITION>
<FOR>R5WX_CWG0</FOR>
<GIVEN>R1Z6_W</GIVEN>
<TABLE>
1.0 
1.0 
</TABLE>
</DEFINITION>
<DEFINITION>
<FOR>R5WX_AVG0</FOR>
<GIVEN>R1Z6_W</GIVEN>
<TABLE>
1.0 
1.0 
</TABLE>
</DEFINITION>
<DEFINITION>
<FOR>R5WX_RPI1</FOR>
<GIVEN>R1Z6_W</GIVEN>
<TABLE>
1.0 
1.0 
</TABLE>
</DEFINITION>
<DEFINITION>
<FOR>R5WX_PYTH1</FOR>
<GIVEN>R1Z6_W</GIVEN>
<TABLE>
1.0 
1.0 
</TABLE>
</DEFINITION>
<DEFINITION>
<FOR>R5WX_CWG1</FOR>
<GIVEN>R1Z6_W</GIVEN>
<TABLE>
1.0 
1.0 
</TABLE>
</DEFINITION>
<DEFINITION>
<FOR>R5WX_AVG1</FOR>
<GIVEN>R1Z6_W</GIVEN>
<TABLE>
1.0 
1.0 
</TABLE>
</DEFINITION>
<DEFINITION>
<FOR>R5WX_W</FOR>
<GIVEN>R1Z6_W</GIVEN>
<TABLE>
0.85 0.15 
0.16666666666666666 0.8333333333333334 
</TABLE>
</DEFINITION>
<DEFINITION>
<FOR>R5YZ_RPI0</FOR>
<GIVEN>R1Z6_W</GIVEN>
<TABLE>
1.0 
1.0 
</TABLE>
</DEFINITION>
<DEFINITION>
<FOR>R5YZ_PYTH0</FOR>
<GIVEN>R1Z6_W</GIVEN>
<TABLE>
1.0 
1.0 
</TABLE>
</DEFINITION>
<DEFINITION>
<FOR>R5YZ_CWG0</FOR>
<GIVEN>R1Z6_W</GIVEN>
<TABLE>
1.0 
1.0 
</TABLE>
</DEFINITION>
<DEFINITION>
<FOR>R5YZ_AVG0</FOR>
<GIVEN>R1Z6_W</GIVEN>
<TABLE>
1.0 
1.0 
</TABLE>
</DEFINITION>
<DEFINITION>
<FOR>R5YZ_RPI1</FOR>
<GIVEN>R1Z6_W</GIVEN>
<TABLE>
1.0 
1.0 
</TABLE>
</DEFINITION>
<DEFINITION>
<FOR>R5YZ_PYTH1</FOR>
<GIVEN>R1Z6_W</GIVEN>
<TABLE>
1.0 
1.0 
</TABLE>
</DEFINITION>
<DEFINITION>
<FOR>R5YZ_CWG1</FOR>
<GIVEN>R1Z6_W</GIVEN>
<TABLE>
1.0 
1.0 
</TABLE>
</DEFINITION>
<DEFINITION>
<FOR>R5YZ_AVG1</FOR>
<GIVEN>R1Z6_W</GIVEN>
<TABLE>
1.0 
1.0 
</TABLE>
</DEFINITION>
<DEFINITION>
<FOR>R5YZ_W</FOR>
<GIVEN>R1Z6_W</GIVEN>
<TABLE>
0.75 0.25 
0.5 0.5 
</TABLE>
</DEFINITION>
<DEFINITION>
<FOR>R4W1_RPI0</FOR>
<GIVEN>R1Z6_W</GIVEN>
<TABLE>
1.0 
1.0 
</TABLE>
</DEFINITION>
<DEFINITION>
<FOR>R4W1_PYTH0</FOR>
<GIVEN>R1Z6_W</GIVEN>
<TABLE>
1.0 
1.0 
</TABLE>
</DEFINITION>
<DEFINITION>
<FOR>R4W1_CWG0</FOR>
<GIVEN>R1Z6_W</GIVEN>
<TABLE>
1.0 
1.0 
</TABLE>
</DEFINITION>
<DEFINITION>
<FOR>R4W1_AVG0</FOR>
<GIVEN>R1Z6_W</GIVEN>
<TABLE>
1.0 
1.0 
</TABLE>
</DEFINITION>
<DEFINITION>
<FOR>R4W1_RPI1</FOR>
<GIVEN>R1Z6_W</GIVEN>
<TABLE>
1.0 
1.0 
</TABLE>
</DEFINITION>
<DEFINITION>
<FOR>R4W1_PYTH1</FOR>
<GIVEN>R1Z6_W</GIVEN>
<TABLE>
1.0 
1.0 
</TABLE>
</DEFINITION>
<DEFINITION>
<FOR>R4W1_CWG1</FOR>
<GIVEN>R1Z6_W</GIVEN>
<TABLE>
1.0 
1.0 
</TABLE>
</DEFINITION>
<DEFINITION>
<FOR>R4W1_AVG1</FOR>
<GIVEN>R1Z6_W</GIVEN>
<TABLE>
1.0 
1.0 
</TABLE>
</DEFINITION>
<DEFINITION>
<FOR>R4W1_W</FOR>
<GIVEN>R1Z6_W</GIVEN>
<TABLE>
0.75 0.25 
0.5 0.5 
</TABLE>
</DEFINITION>
<DEFINITION>
<FOR>R4X1_RPI0</FOR>
<GIVEN>R1Z6_W</GIVEN>
<TABLE>
1.0 
1.0 
</TABLE>
</DEFINITION>
<DEFINITION>
<FOR>R4X1_PYTH0</FOR>
<GIVEN>R1Z6_W</GIVEN>
<TABLE>
1.0 
1.0 
</TABLE>
</DEFINITION>
<DEFINITION>
<FOR>R4X1_CWG0</FOR>
<GIVEN>R1Z6_W</GIVEN>
<TABLE>
1.0 
1.0 
</TABLE>
</DEFINITION>
<DEFINITION>
<FOR>R4X1_AVG0</FOR>
<GIVEN>R1Z6_W</GIVEN>
<TABLE>
1.0 
1.0 
</TABLE>
</DEFINITION>
<DEFINITION>
<FOR>R4X1_RPI1</FOR>
<GIVEN>R1Z6_W</GIVEN>
<TABLE>
1.0 
1.0 
</TABLE>
</DEFINITION>
<DEFINITION>
<FOR>R4X1_PYTH1</FOR>
<GIVEN>R1Z6_W</GIVEN>
<TABLE>
1.0 
1.0 
</TABLE>
</DEFINITION>
<DEFINITION>
<FOR>R4X1_CWG1</FOR>
<GIVEN>R1Z6_W</GIVEN>
<TABLE>
1.0 
1.0 
</TABLE>
</DEFINITION>
<DEFINITION>
<FOR>R4X1_AVG1</FOR>
<GIVEN>R1Z6_W</GIVEN>
<TABLE>
1.0 
1.0 
</TABLE>
</DEFINITION>
<DEFINITION>
<FOR>R4X1_W</FOR>
<GIVEN>R1Z6_W</GIVEN>
<TABLE>
0.75 0.25 
0.8333333333333334 0.16666666666666666 
</TABLE>
</DEFINITION>
<DEFINITION>
<FOR>R4Y1_RPI0</FOR>
<GIVEN>R1Z6_W</GIVEN>
<TABLE>
1.0 
1.0 
</TABLE>
</DEFINITION>
<DEFINITION>
<FOR>R4Y1_PYTH0</FOR>
<GIVEN>R1Z6_W</GIVEN>
<TABLE>
1.0 
1.0 
</TABLE>
</DEFINITION>
<DEFINITION>
<FOR>R4Y1_CWG0</FOR>
<GIVEN>R1Z6_W</GIVEN>
<TABLE>
1.0 
1.0 
</TABLE>
</DEFINITION>
<DEFINITION>
<FOR>R4Y1_AVG0</FOR>
<GIVEN>R1Z6_W</GIVEN>
<TABLE>
1.0 
1.0 
</TABLE>
</DEFINITION>
<DEFINITION>
<FOR>R4Y1_RPI1</FOR>
<GIVEN>R1Z6_W</GIVEN>
<TABLE>
1.0 
1.0 
</TABLE>
</DEFINITION>
<DEFINITION>
<FOR>R4Y1_PYTH1</FOR>
<GIVEN>R1Z6_W</GIVEN>
<TABLE>
1.0 
1.0 
</TABLE>
</DEFINITION>
<DEFINITION>
<FOR>R4Y1_CWG1</FOR>
<GIVEN>R1Z6_W</GIVEN>
<TABLE>
1.0 
1.0 
</TABLE>
</DEFINITION>
<DEFINITION>
<FOR>R4Y1_AVG1</FOR>
<GIVEN>R1Z6_W</GIVEN>
<TABLE>
1.0 
1.0 
</TABLE>
</DEFINITION>
<DEFINITION>
<FOR>R4Y1_W</FOR>
<GIVEN>R1Z6_W</GIVEN>
<TABLE>
0.65 0.35 
0.5 0.5 
</TABLE>
</DEFINITION>
<DEFINITION>
<FOR>R4Z1_RPI0</FOR>
<GIVEN>R1Z6_W</GIVEN>
<TABLE>
1.0 
1.0 
</TABLE>
</DEFINITION>
<DEFINITION>
<FOR>R4Z1_PYTH0</FOR>
<GIVEN>R1Z6_W</GIVEN>
<TABLE>
1.0 
1.0 
</TABLE>
</DEFINITION>
<DEFINITION>
<FOR>R4Z1_CWG0</FOR>
<GIVEN>R1Z6_W</GIVEN>
<TABLE>
1.0 
1.0 
</TABLE>
</DEFINITION>
<DEFINITION>
<FOR>R4Z1_AVG0</FOR>
<GIVEN>R1Z6_W</GIVEN>
<TABLE>
1.0 
1.0 
</TABLE>
</DEFINITION>
<DEFINITION>
<FOR>R4Z1_RPI1</FOR>
<GIVEN>R1Z6_W</GIVEN>
<TABLE>
1.0 
1.0 
</TABLE>
</DEFINITION>
<DEFINITION>
<FOR>R4Z1_PYTH1</FOR>
<GIVEN>R1Z6_W</GIVEN>
<TABLE>
1.0 
1.0 
</TABLE>
</DEFINITION>
<DEFINITION>
<FOR>R4Z1_CWG1</FOR>
<GIVEN>R1Z6_W</GIVEN>
<TABLE>
1.0 
1.0 
</TABLE>
</DEFINITION>
<DEFINITION>
<FOR>R4Z1_AVG1</FOR>
<GIVEN>R1Z6_W</GIVEN>
<TABLE>
1.0 
1.0 
</TABLE>
</DEFINITION>
<DEFINITION>
<FOR>R4Z1_W</FOR>
<GIVEN>R1Z6_W</GIVEN>
<TABLE>
0.75 0.25 
0.16666666666666666 0.8333333333333334 
</TABLE>
</DEFINITION>
<DEFINITION>
<FOR>R3W1_RPI0</FOR>
<GIVEN>R1Z6_W</GIVEN>
<TABLE>
1.0 
1.0 
</TABLE>
</DEFINITION>
<DEFINITION>
<FOR>R3W1_PYTH0</FOR>
<GIVEN>R1Z6_W</GIVEN>
<TABLE>
1.0 
1.0 
</TABLE>
</DEFINITION>
<DEFINITION>
<FOR>R3W1_CWG0</FOR>
<GIVEN>R1Z6_W</GIVEN>
<TABLE>
1.0 
1.0 
</TABLE>
</DEFINITION>
<DEFINITION>
<FOR>R3W1_AVG0</FOR>
<GIVEN>R1Z6_W</GIVEN>
<TABLE>
1.0 
1.0 
</TABLE>
</DEFINITION>
<DEFINITION>
<FOR>R3W1_RPI1</FOR>
<GIVEN>R1Z6_W</GIVEN>
<TABLE>
1.0 
1.0 
</TABLE>
</DEFINITION>
<DEFINITION>
<FOR>R3W1_PYTH1</FOR>
<GIVEN>R1Z6_W</GIVEN>
<TABLE>
1.0 
1.0 
</TABLE>
</DEFINITION>
<DEFINITION>
<FOR>R3W1_CWG1</FOR>
<GIVEN>R1Z6_W</GIVEN>
<TABLE>
1.0 
1.0 
</TABLE>
</DEFINITION>
<DEFINITION>
<FOR>R3W1_AVG1</FOR>
<GIVEN>R1Z6_W</GIVEN>
<TABLE>
1.0 
1.0 
</TABLE>
</DEFINITION>
<DEFINITION>
<FOR>R3W1_W</FOR>
<GIVEN>R1Z3_W</GIVEN>
<TABLE>
0.95 0.05 
0.5 0.5 
</TABLE>
</DEFINITION>
<DEFINITION>
<FOR>R3W2_RPI0</FOR>
<GIVEN>R1Z6_W</GIVEN>
<TABLE>
1.0 
1.0 
</TABLE>
</DEFINITION>
<DEFINITION>
<FOR>R3W2_PYTH0</FOR>
<GIVEN>R1Z6_W</GIVEN>
<TABLE>
1.0 
1.0 
</TABLE>
</DEFINITION>
<DEFINITION>
<FOR>R3W2_CWG0</FOR>
<GIVEN>R1Z6_W</GIVEN>
<TABLE>
1.0 
1.0 
</TABLE>
</DEFINITION>
<DEFINITION>
<FOR>R3W2_AVG0</FOR>
<GIVEN>R1Z6_W</GIVEN>
<TABLE>
1.0 
1.0 
</TABLE>
</DEFINITION>
<DEFINITION>
<FOR>R3W2_RPI1</FOR>
<GIVEN>R1Z6_W</GIVEN>
<TABLE>
1.0 
1.0 
</TABLE>
</DEFINITION>
<DEFINITION>
<FOR>R3W2_PYTH1</FOR>
<GIVEN>R1Z6_W</GIVEN>
<TABLE>
1.0 
1.0 
</TABLE>
</DEFINITION>
<DEFINITION>
<FOR>R3W2_CWG1</FOR>
<GIVEN>R1Z6_W</GIVEN>
<TABLE>
0.95 0.05 
0.16666666666666666 0.8333333333333334 
</TABLE>
</DEFINITION>
<DEFINITION>
<FOR>R3W2_AVG1</FOR>
<GIVEN>R1Z6_W</GIVEN>
<TABLE>
1.0 
1.0 
</TABLE>
</DEFINITION>
<DEFINITION>
<FOR>R3W2_W</FOR>
<GIVEN>R1Z6_W</GIVEN>
<TABLE>
0.55 0.45 
0.5 0.5 
</TABLE>
</DEFINITION>
<DEFINITION>
<FOR>R3X1_RPI0</FOR>
<GIVEN>R1Z6_W</GIVEN>
<TABLE>
1.0 
1.0 
</TABLE>
</DEFINITION>
<DEFINITION>
<FOR>R3X1_PYTH0</FOR>
<GIVEN>R1Z6_W</GIVEN>
<TABLE>
1.0 
1.0 
</TABLE>
</DEFINITION>
<DEFINITION>
<FOR>R3X1_CWG0</FOR>
<GIVEN>R1Z6_W</GIVEN>
<TABLE>
1.0 
1.0 
</TABLE>
</DEFINITION>
<DEFINITION>
<FOR>R3X1_AVG0</FOR>
<GIVEN>R1Z6_W</GIVEN>
<TABLE>
1.0 
1.0 
</TABLE>
</DEFINITION>
<DEFINITION>
<FOR>R3X1_RPI1</FOR>
<GIVEN>R1Z6_W</GIVEN>
<TABLE>
1.0 
1.0 
</TABLE>
</DEFINITION>
<DEFINITION>
<FOR>R3X1_PYTH1</FOR>
<GIVEN>R1Z6_W</GIVEN>
<TABLE>
1.0 
1.0 
</TABLE>
</DEFINITION>
<DEFINITION>
<FOR>R3X1_CWG1</FOR>
<GIVEN>R1Z6_W</GIVEN>
<TABLE>
1.0 
1.0 
</TABLE>
</DEFINITION>
<DEFINITION>
<FOR>R3X1_AVG1</FOR>
<GIVEN>R1Z6_W</GIVEN>
<TABLE>
1.0 
1.0 
</TABLE>
</DEFINITION>
<DEFINITION>
<FOR>R3X1_W</FOR>
<GIVEN>R1W2_W</GIVEN>
<TABLE>
0.9545454545454546 0.045454545454545456 
0.25 0.75 
</TABLE>
</DEFINITION>
<DEFINITION>
<FOR>R3X2_RPI0</FOR>
<GIVEN>R1Z6_W</GIVEN>
<TABLE>
1.0 
1.0 
</TABLE>
</DEFINITION>
<DEFINITION>
<FOR>R3X2_PYTH0</FOR>
<GIVEN>R1Z6_W</GIVEN>
<TABLE>
1.0 
1.0 
</TABLE>
</DEFINITION>
<DEFINITION>
<FOR>R3X2_CWG0</FOR>
<GIVEN>R1Z6_W</GIVEN>
<TABLE>
1.0 
1.0 
</TABLE>
</DEFINITION>
<DEFINITION>
<FOR>R3X2_AVG0</FOR>
<GIVEN>R1Z6_W</GIVEN>
<TABLE>
1.0 
1.0 
</TABLE>
</DEFINITION>
<DEFINITION>
<FOR>R3X2_RPI1</FOR>
<GIVEN>R1Z6_W</GIVEN>
<TABLE>
1.0 
1.0 
</TABLE>
</DEFINITION>
<DEFINITION>
<FOR>R3X2_PYTH1</FOR>
<GIVEN>R1Z6_W</GIVEN>
<TABLE>
1.0 
1.0 
</TABLE>
</DEFINITION>
<DEFINITION>
<FOR>R3X2_CWG1</FOR>
<GIVEN>R1Z6_W</GIVEN>
<TABLE>
1.0 
1.0 
</TABLE>
</DEFINITION>
<DEFINITION>
<FOR>R3X2_AVG1</FOR>
<GIVEN>R1Z6_W</GIVEN>
<TABLE>
1.0 
1.0 
</TABLE>
</DEFINITION>
<DEFINITION>
<FOR>R3X2_W</FOR>
<GIVEN>R1Z6_W</GIVEN>
<TABLE>
0.55 0.45 
0.8333333333333334 0.16666666666666666 
</TABLE>
</DEFINITION>
<DEFINITION>
<FOR>R3Y1_RPI0</FOR>
<GIVEN>R1Z6_W</GIVEN>
<TABLE>
1.0 
1.0 
</TABLE>
</DEFINITION>
<DEFINITION>
<FOR>R3Y1_PYTH0</FOR>
<GIVEN>R1Z6_W</GIVEN>
<TABLE>
1.0 
1.0 
</TABLE>
</DEFINITION>
<DEFINITION>
<FOR>R3Y1_CWG0</FOR>
<GIVEN>R1Z6_W</GIVEN>
<TABLE>
1.0 
1.0 
</TABLE>
</DEFINITION>
<DEFINITION>
<FOR>R3Y1_AVG0</FOR>
<GIVEN>R1Z6_W</GIVEN>
<TABLE>
1.0 
1.0 
</TABLE>
</DEFINITION>
<DEFINITION>
<FOR>R3Y1_RPI1</FOR>
<GIVEN>R1Z6_W</GIVEN>
<TABLE>
1.0 
1.0 
</TABLE>
</DEFINITION>
<DEFINITION>
<FOR>R3Y1_PYTH1</FOR>
<GIVEN>R1Z6_W</GIVEN>
<TABLE>
1.0 
1.0 
</TABLE>
</DEFINITION>
<DEFINITION>
<FOR>R3Y1_CWG1</FOR>
<GIVEN>R1Z6_W</GIVEN>
<TABLE>
1.0 
1.0 
</TABLE>
</DEFINITION>
<DEFINITION>
<FOR>R3Y1_AVG1</FOR>
<GIVEN>R1Z6_W</GIVEN>
<TABLE>
1.0 
1.0 
</TABLE>
</DEFINITION>
<DEFINITION>
<FOR>R3Y1_W</FOR>
<GIVEN>R1Z6_W</GIVEN>
<TABLE>
0.45 0.55 
0.5 0.5 
</TABLE>
</DEFINITION>
<DEFINITION>
<FOR>R3Y2_RPI0</FOR>
<GIVEN>R1Z6_W</GIVEN>
<TABLE>
1.0 
1.0 
</TABLE>
</DEFINITION>
<DEFINITION>
<FOR>R3Y2_PYTH0</FOR>
<GIVEN>R1Z6_W</GIVEN>
<TABLE>
1.0 
1.0 
</TABLE>
</DEFINITION>
<DEFINITION>
<FOR>R3Y2_CWG0</FOR>
<GIVEN>R1Z6_W</GIVEN>
<TABLE>
1.0 
1.0 
</TABLE>
</DEFINITION>
<DEFINITION>
<FOR>R3Y2_AVG0</FOR>
<GIVEN>R1Z6_W</GIVEN>
<TABLE>
1.0 
1.0 
</TABLE>
</DEFINITION>
<DEFINITION>
<FOR>R3Y2_RPI1</FOR>
<GIVEN>R1Z6_W</GIVEN>
<TABLE>
1.0 
1.0 
</TABLE>
</DEFINITION>
<DEFINITION>
<FOR>R3Y2_PYTH1</FOR>
<GIVEN>R1Z6_W</GIVEN>
<TABLE>
1.0 
1.0 
</TABLE>
</DEFINITION>
<DEFINITION>
<FOR>R3Y2_CWG1</FOR>
<GIVEN>R1Z6_W</GIVEN>
<TABLE>
1.0 
1.0 
</TABLE>
</DEFINITION>
<DEFINITION>
<FOR>R3Y2_AVG1</FOR>
<GIVEN>R1Z6_W</GIVEN>
<TABLE>
1.0 
1.0 
</TABLE>
</DEFINITION>
<DEFINITION>
<FOR>R3Y2_W</FOR>
<GIVEN>R1Z6_W</GIVEN>
<TABLE>
0.65 0.35 
0.5 0.5 
</TABLE>
</DEFINITION>
<DEFINITION>
<FOR>R3Z1_RPI0</FOR>
<GIVEN>R1Z6_W</GIVEN>
<TABLE>
1.0 
1.0 
</TABLE>
</DEFINITION>
<DEFINITION>
<FOR>R3Z1_PYTH0</FOR>
<GIVEN>R1Z6_W</GIVEN>
<TABLE>
1.0 
1.0 
</TABLE>
</DEFINITION>
<DEFINITION>
<FOR>R3Z1_CWG0</FOR>
<GIVEN>R1Z6_W</GIVEN>
<TABLE>
1.0 
1.0 
</TABLE>
</DEFINITION>
<DEFINITION>
<FOR>R3Z1_AVG0</FOR>
<GIVEN>R1Z6_W</GIVEN>
<TABLE>
1.0 
1.0 
</TABLE>
</DEFINITION>
<DEFINITION>
<FOR>R3Z1_RPI1</FOR>
<GIVEN>R1Z6_W</GIVEN>
<TABLE>
1.0 
1.0 
</TABLE>
</DEFINITION>
<DEFINITION>
<FOR>R3Z1_PYTH1</FOR>
<GIVEN>R1Z6_W</GIVEN>
<TABLE>
1.0 
1.0 
</TABLE>
</DEFINITION>
<DEFINITION>
<FOR>R3Z1_CWG1</FOR>
<GIVEN>R1Z6_W</GIVEN>
<TABLE>
1.0 
1.0 
</TABLE>
</DEFINITION>
<DEFINITION>
<FOR>R3Z1_AVG1</FOR>
<GIVEN>R1Z6_W</GIVEN>
<TABLE>
1.0 
1.0 
</TABLE>
</DEFINITION>
<DEFINITION>
<FOR>R3Z1_W</FOR>
<GIVEN>R1Z6_W</GIVEN>
<TABLE>
0.35 0.65 
0.5 0.5 
</TABLE>
</DEFINITION>
<DEFINITION>
<FOR>R3Z2_RPI0</FOR>
<GIVEN>R1Z6_W</GIVEN>
<TABLE>
1.0 
1.0 
</TABLE>
</DEFINITION>
<DEFINITION>
<FOR>R3Z2_PYTH0</FOR>
<GIVEN>R1Z6_W</GIVEN>
<TABLE>
1.0 
1.0 
</TABLE>
</DEFINITION>
<DEFINITION>
<FOR>R3Z2_CWG0</FOR>
<GIVEN>R1Z6_W</GIVEN>
<TABLE>
1.0 
1.0 
</TABLE>
</DEFINITION>
<DEFINITION>
<FOR>R3Z2_AVG0</FOR>
<GIVEN>R1Z6_W</GIVEN>
<TABLE>
1.0 
1.0 
</TABLE>
</DEFINITION>
<DEFINITION>
<FOR>R3Z2_RPI1</FOR>
<GIVEN>R1Z6_W</GIVEN>
<TABLE>
1.0 
1.0 
</TABLE>
</DEFINITION>
<DEFINITION>
<FOR>R3Z2_PYTH1</FOR>
<GIVEN>R1Z6_W</GIVEN>
<TABLE>
1.0 
1.0 
</TABLE>
</DEFINITION>
<DEFINITION>
<FOR>R3Z2_CWG1</FOR>
<GIVEN>R1Z6_W</GIVEN>
<TABLE>
1.0 
1.0 
</TABLE>
</DEFINITION>
<DEFINITION>
<FOR>R3Z2_AVG1</FOR>
<GIVEN>R1Z6_W</GIVEN>
<TABLE>
1.0 
1.0 
</TABLE>
</DEFINITION>
<DEFINITION>
<FOR>R3Z2_W</FOR>
<GIVEN>R1Z6_W</GIVEN>
<TABLE>
0.55 0.45 
0.8333333333333334 0.16666666666666666 
</TABLE>
</DEFINITION>
<DEFINITION>
<FOR>R2W1_RPI0</FOR>
<GIVEN>R1Z6_W</GIVEN>
<TABLE>
1.0 
1.0 
</TABLE>
</DEFINITION>
<DEFINITION>
<FOR>R2W1_PYTH0</FOR>
<GIVEN>R1Z6_W</GIVEN>
<TABLE>
1.0 
1.0 
</TABLE>
</DEFINITION>
<DEFINITION>
<FOR>R2W1_CWG0</FOR>
<GIVEN>R1Z6_W</GIVEN>
<TABLE>
1.0 
1.0 
</TABLE>
</DEFINITION>
<DEFINITION>
<FOR>R2W1_AVG0</FOR>
<GIVEN>R1Z6_W</GIVEN>
<TABLE>
1.0 
1.0 
</TABLE>
</DEFINITION>
<DEFINITION>
<FOR>R2W1_RPI1</FOR>
<GIVEN>R1Z6_W</GIVEN>
<TABLE>
1.0 
1.0 
</TABLE>
</DEFINITION>
<DEFINITION>
<FOR>R2W1_PYTH1</FOR>
<GIVEN>R1Z6_W</GIVEN>
<TABLE>
1.0 
1.0 
</TABLE>
</DEFINITION>
<DEFINITION>
<FOR>R2W1_CWG1</FOR>
<GIVEN>R1Z6_W</GIVEN>
<TABLE>
1.0 
1.0 
</TABLE>
</DEFINITION>
<DEFINITION>
<FOR>R2W1_AVG1</FOR>
<GIVEN>R1Z6_W</GIVEN>
<TABLE>
1.0 
1.0 
</TABLE>
</DEFINITION>
<DEFINITION>
<FOR>R2W1_W</FOR>
<GIVEN>R1Z6_W</GIVEN>
<TABLE>
1.0 
1.0 
</TABLE>
</DEFINITION>
<DEFINITION>
<FOR>R2W4_RPI0</FOR>
<GIVEN>R1Z6_W</GIVEN>
<TABLE>
1.0 
1.0 
</TABLE>
</DEFINITION>
<DEFINITION>
<FOR>R2W4_PYTH0</FOR>
<GIVEN>R1Z6_W</GIVEN>
<TABLE>
1.0 
1.0 
</TABLE>
</DEFINITION>
<DEFINITION>
<FOR>R2W4_CWG0</FOR>
<GIVEN>R1Z6_W</GIVEN>
<TABLE>
1.0 
1.0 
</TABLE>
</DEFINITION>
<DEFINITION>
<FOR>R2W4_AVG0</FOR>
<GIVEN>R1Z6_W</GIVEN>
<TABLE>
1.0 
1.0 
</TABLE>
</DEFINITION>
<DEFINITION>
<FOR>R2W4_RPI1</FOR>
<GIVEN>R1Z6_W</GIVEN>
<TABLE>
1.0 
1.0 
</TABLE>
</DEFINITION>
<DEFINITION>
<FOR>R2W4_PYTH1</FOR>
<GIVEN>R1Z6_W</GIVEN>
<TABLE>
1.0 
1.0 
</TABLE>
</DEFINITION>
<DEFINITION>
<FOR>R2W4_CWG1</FOR>
<GIVEN>R1Z6_W</GIVEN>
<TABLE>
1.0 
1.0 
</TABLE>
</DEFINITION>
<DEFINITION>
<FOR>R2W4_AVG1</FOR>
<GIVEN>R1Z6_W</GIVEN>
<TABLE>
1.0 
1.0 
</TABLE>
</DEFINITION>
<DEFINITION>
<FOR>R2W4_W</FOR>
<GIVEN>R1Z6_W</GIVEN>
<TABLE>
0.55 0.45 
0.5 0.5 
</TABLE>
</DEFINITION>
<DEFINITION>
<FOR>R2W2_RPI0</FOR>
<GIVEN>R1Z6_W</GIVEN>
<TABLE>
1.0 
1.0 
</TABLE>
</DEFINITION>
<DEFINITION>
<FOR>R2W2_PYTH0</FOR>
<GIVEN>R1Z6_W</GIVEN>
<TABLE>
1.0 
1.0 
</TABLE>
</DEFINITION>
<DEFINITION>
<FOR>R2W2_CWG0</FOR>
<GIVEN>R1Z6_W</GIVEN>
<TABLE>
1.0 
1.0 
</TABLE>
</DEFINITION>
<DEFINITION>
<FOR>R2W2_AVG0</FOR>
<GIVEN>R1Z6_W</GIVEN>
<TABLE>
1.0 
1.0 
</TABLE>
</DEFINITION>
<DEFINITION>
<FOR>R2W2_RPI1</FOR>
<GIVEN>R1Z6_W</GIVEN>
<TABLE>
1.0 
1.0 
</TABLE>
</DEFINITION>
<DEFINITION>
<FOR>R2W2_PYTH1</FOR>
<GIVEN>R1Z6_W</GIVEN>
<TABLE>
1.0 
1.0 
</TABLE>
</DEFINITION>
<DEFINITION>
<FOR>R2W2_CWG1</FOR>
<GIVEN>R1Z6_W</GIVEN>
<TABLE>
1.0 
1.0 
</TABLE>
</DEFINITION>
<DEFINITION>
<FOR>R2W2_AVG1</FOR>
<GIVEN>R1Z6_W</GIVEN>
<TABLE>
1.0 
1.0 
</TABLE>
</DEFINITION>
<DEFINITION>
<FOR>R2W2_W</FOR>
<GIVEN>R1Z6_W</GIVEN>
<TABLE>
0.55 0.45 
0.5 0.5 
</TABLE>
</DEFINITION>
<DEFINITION>
<FOR>R2W3_RPI0</FOR>
<GIVEN>R1Z6_W</GIVEN>
<TABLE>
1.0 
1.0 
</TABLE>
</DEFINITION>
<DEFINITION>
<FOR>R2W3_PYTH0</FOR>
<GIVEN>R1Z6_W</GIVEN>
<TABLE>
1.0 
1.0 
</TABLE>
</DEFINITION>
<DEFINITION>
<FOR>R2W3_CWG0</FOR>
<GIVEN>R1Z6_W</GIVEN>
<TABLE>
1.0 
1.0 
</TABLE>
</DEFINITION>
<DEFINITION>
<FOR>R2W3_AVG0</FOR>
<GIVEN>R1Z6_W</GIVEN>
<TABLE>
1.0 
1.0 
</TABLE>
</DEFINITION>
<DEFINITION>
<FOR>R2W3_RPI1</FOR>
<GIVEN>R1Z6_W</GIVEN>
<TABLE>
1.0 
1.0 
</TABLE>
</DEFINITION>
<DEFINITION>
<FOR>R2W3_PYTH1</FOR>
<GIVEN>R1Z6_W</GIVEN>
<TABLE>
1.0 
1.0 
</TABLE>
</DEFINITION>
<DEFINITION>
<FOR>R2W3_CWG1</FOR>
<GIVEN>R1Z6_W</GIVEN>
<TABLE>
1.0 
1.0 
</TABLE>
</DEFINITION>
<DEFINITION>
<FOR>R2W3_AVG1</FOR>
<GIVEN>R1Z6_W</GIVEN>
<TABLE>
1.0 
1.0 
</TABLE>
</DEFINITION>
<DEFINITION>
<FOR>R2W3_W</FOR>
<GIVEN>R1Z6_W</GIVEN>
<TABLE>
0.45 0.55 
0.5 0.5 
</TABLE>
</DEFINITION>
<DEFINITION>
<FOR>R2X1_RPI0</FOR>
<GIVEN>R1Z6_W</GIVEN>
<TABLE>
1.0 
1.0 
</TABLE>
</DEFINITION>
<DEFINITION>
<FOR>R2X1_PYTH0</FOR>
<GIVEN>R1Z6_W</GIVEN>
<TABLE>
1.0 
1.0 
</TABLE>
</DEFINITION>
<DEFINITION>
<FOR>R2X1_CWG0</FOR>
<GIVEN>R1Z6_W</GIVEN>
<TABLE>
1.0 
1.0 
</TABLE>
</DEFINITION>
<DEFINITION>
<FOR>R2X1_AVG0</FOR>
<GIVEN>R1Z6_W</GIVEN>
<TABLE>
1.0 
1.0 
</TABLE>
</DEFINITION>
<DEFINITION>
<FOR>R2X1_RPI1</FOR>
<GIVEN>R1Z6_W</GIVEN>
<TABLE>
1.0 
1.0 
</TABLE>
</DEFINITION>
<DEFINITION>
<FOR>R2X1_PYTH1</FOR>
<GIVEN>R1Z6_W</GIVEN>
<TABLE>
1.0 
1.0 
</TABLE>
</DEFINITION>
<DEFINITION>
<FOR>R2X1_CWG1</FOR>
<GIVEN>R1Z6_W</GIVEN>
<TABLE>
1.0 
1.0 
</TABLE>
</DEFINITION>
<DEFINITION>
<FOR>R2X1_AVG1</FOR>
<GIVEN>R1Z6_W</GIVEN>
<TABLE>
1.0 
1.0 
</TABLE>
</DEFINITION>
<DEFINITION>
<FOR>R2X1_W</FOR>
<GIVEN>R4X1_W</GIVEN>
<TABLE>
0.95 0.05 
0.5 0.5 
</TABLE>
</DEFINITION>
<DEFINITION>
<FOR>R2X4_RPI0</FOR>
<GIVEN>R1Z6_W</GIVEN>
<TABLE>
1.0 
1.0 
</TABLE>
</DEFINITION>
<DEFINITION>
<FOR>R2X4_PYTH0</FOR>
<GIVEN>R1Z6_W</GIVEN>
<TABLE>
1.0 
1.0 
</TABLE>
</DEFINITION>
<DEFINITION>
<FOR>R2X4_CWG0</FOR>
<GIVEN>R1Z6_W</GIVEN>
<TABLE>
1.0 
1.0 
</TABLE>
</DEFINITION>
<DEFINITION>
<FOR>R2X4_AVG0</FOR>
<GIVEN>R1Z6_W</GIVEN>
<TABLE>
1.0 
1.0 
</TABLE>
</DEFINITION>
<DEFINITION>
<FOR>R2X4_RPI1</FOR>
<GIVEN>R1Z6_W</GIVEN>
<TABLE>
1.0 
1.0 
</TABLE>
</DEFINITION>
<DEFINITION>
<FOR>R2X4_PYTH1</FOR>
<GIVEN>R1Z6_W</GIVEN>
<TABLE>
1.0 
1.0 
</TABLE>
</DEFINITION>
<DEFINITION>
<FOR>R2X4_CWG1</FOR>
<GIVEN>R1Z6_W</GIVEN>
<TABLE>
1.0 
1.0 
</TABLE>
</DEFINITION>
<DEFINITION>
<FOR>R2X4_AVG1</FOR>
<GIVEN>R1Z6_W</GIVEN>
<TABLE>
1.0 
1.0 
</TABLE>
</DEFINITION>
<DEFINITION>
<FOR>R2X4_W</FOR>
<GIVEN>R1Z6_W</GIVEN>
<TABLE>
0.65 0.35 
0.5 0.5 
</TABLE>
</DEFINITION>
<DEFINITION>
<FOR>R2X2_RPI0</FOR>
<GIVEN>R1Z6_W</GIVEN>
<TABLE>
1.0 
1.0 
</TABLE>
</DEFINITION>
<DEFINITION>
<FOR>R2X2_PYTH0</FOR>
<GIVEN>R1Z6_W</GIVEN>
<TABLE>
1.0 
1.0 
</TABLE>
</DEFINITION>
<DEFINITION>
<FOR>R2X2_CWG0</FOR>
<GIVEN>R1Z6_W</GIVEN>
<TABLE>
1.0 
1.0 
</TABLE>
</DEFINITION>
<DEFINITION>
<FOR>R2X2_AVG0</FOR>
<GIVEN>R1Z6_W</GIVEN>
<TABLE>
1.0 
1.0 
</TABLE>
</DEFINITION>
<DEFINITION>
<FOR>R2X2_RPI1</FOR>
<GIVEN>R1Z6_W</GIVEN>
<TABLE>
0.95 0.05 
0.16666666666666666 0.8333333333333334 
</TABLE>
</DEFINITION>
<DEFINITION>
<FOR>R2X2_PYTH1</FOR>
<GIVEN>R1Z6_W</GIVEN>
<TABLE>
1.0 
1.0 
</TABLE>
</DEFINITION>
<DEFINITION>
<FOR>R2X2_CWG1</FOR>
<GIVEN>R1Z6_W</GIVEN>
<TABLE>
1.0 
1.0 
</TABLE>
</DEFINITION>
<DEFINITION>
<FOR>R2X2_AVG1</FOR>
<GIVEN>R1Z6_W</GIVEN>
<TABLE>
1.0 
1.0 
</TABLE>
</DEFINITION>
<DEFINITION>
<FOR>R2X2_W</FOR>
<GIVEN>R1Z6_W</GIVEN>
<TABLE>
0.45 0.55 
0.5 0.5 
</TABLE>
</DEFINITION>
<DEFINITION>
<FOR>R2X3_RPI0</FOR>
<GIVEN>R1Z6_W</GIVEN>
<TABLE>
1.0 
1.0 
</TABLE>
</DEFINITION>
<DEFINITION>
<FOR>R2X3_PYTH0</FOR>
<GIVEN>R1Z6_W</GIVEN>
<TABLE>
1.0 
1.0 
</TABLE>
</DEFINITION>
<DEFINITION>
<FOR>R2X3_CWG0</FOR>
<GIVEN>R1Z6_W</GIVEN>
<TABLE>
1.0 
1.0 
</TABLE>
</DEFINITION>
<DEFINITION>
<FOR>R2X3_AVG0</FOR>
<GIVEN>R1Z6_W</GIVEN>
<TABLE>
1.0 
1.0 
</TABLE>
</DEFINITION>
<DEFINITION>
<FOR>R2X3_RPI1</FOR>
<GIVEN>R1Z6_W</GIVEN>
<TABLE>
1.0 
1.0 
</TABLE>
</DEFINITION>
<DEFINITION>
<FOR>R2X3_PYTH1</FOR>
<GIVEN>R1Z6_W</GIVEN>
<TABLE>
1.0 
1.0 
</TABLE>
</DEFINITION>
<DEFINITION>
